tree
version=v2
num_class=1
num_tree_per_iteration=1
label_index=0
max_feature_idx=15
objective=binary sigmoid:1
feature_names=ip app device os channel hour minute nip_day_test_hh n_ip n_ip_os n_ip_app n_ip_app_os n_app time_in_m delta_in_m nth_click
feature_infos=[6:364776] 3:9:12:2:18:15:14:8:7:1:11:21:13:26:23:6:19:25:20:28:27:29:24:22:10:32:5:17:64:4:47:94:56:36:151:58:55:93:45:37:62:160:183:35:46:60:44:66:83:65:38:33:109:125:107:68:82:72:30:232:110:39:43:54:67:88:75:0:215:61:95:134:52:76:84:42:146:208:103:170:48:104:108:49:86:74:31:117:481:50:121:53:96:149:99:202:34:266:81:59 1:2:0:3866:5:59:6:16:18:21:40:60:88:154:114:82:33:46:50:7:56:97:37:67:78:343:73:200:109:189:558:203:3867:4:30 19:13:17:18:22:8:10:6:9:15:20:25:3:16:37:41:14:1:12:27:23:32:35:47:11:28:53:30:26:2:31:36:40:4:49:866:24:0:42:43:58:46:34:38:7:5:21:44:29:48:56:65:50:39:52:79:70:55:64:97:77:66:45:62:73:90:63:59:98:96:109:76:85:69:100:60:57:74:83:71:80:78:61:111:88:117:155:68:72:112:141:102:138:137:123:151:133:86:67:92 107:280:477:101:145:265:259:153:178:121:232:466:134:379:205:442:127:245:237:439:489:135:480:137:469:219:128:122:140:435:459:334:244:409:215:452:328:236:377:424:347:211:173:130:115:315:401:19:212:376:340:125:445:349:266:213:386:105:243:258:3:113:481:319:116:463:278:412:234:371:467:478:30:111:430:343:449:400:364:124:402:497:118:325:487:182:13:317:417:406:484:120:326:21:448:361:242:17:446:150:322:490:24:421:373:450 4:5:6:13:14:12:11:10:7:9:8 [0:59] [1:174383] [1:43958] [1:9382] [1:7370] [1:2167] [1:895281] [240:899] [-656:0] [196:37169172]
tree_sizes=723 1036 802 932 826 901 1145 830 951 866 837 956 957 956 774 921 792 919 803 795 927 791 1082 824 1144 1014 959 1045 1163 840 994 862 825 919 832 927 1009 971 1005 924 925 800 1172 1047 964 856 861 892 897 1109 1050 825 1137 754 1152 1108 1164 752 943 850 1211 1007 986 1041 859 985 1118 1040 930 1078 1076 1009 833 846 1096 1146 818 980 1125 1075 797 785 1019 1319 827 1029 869 795 834 986 755 1036 740 941 962 762 1045 864 1005 1023 1105 926 1142 1036 778 827 1052 971 865 866 929 962 764 1163 981 939 1070 711 970 1036 785 961 1064 813 764 1112 988 949 989 1042 1060 1094 1003 1321 1045 869 880 1027 763 1146 975 882 1019 858 1239 1009 1002 1040 1158 749 855 847 987 1196 968 803 904 859 1010 1179 1021 1200 1059 1104 1030 808 1130 1114 857 1323 696 972 904 948 826 696 839 1037 936 971 1006 892 1098 906 937 940 1115 1074 1062 1050 1061 897 710 1008 1100 979 1070 849 981 876 844 1098 918 883 926 754 827 1073 792 892 1015 965 864 932 1143 817 1046 1109 984 849 968 869 988 955 1027 986 913 893 941 879 797 893 900 999 959 919 867 830 958 925 1028 775 851 991 986 975 876 928 1040 891 789 852 975 832 1021 1044 935 1070 768 834 1100 1055 853 1046 884 812 989 1008 792 690 936 917 1187 1066 832 757 968 855 965 930 994 947 976 1120 1023 941 943 922 1001 941 788 872 908 1021 805 1045 913 889 969 1140 913 910 763 926 1100 966 1007 968 909 980 920 976 1187 994 804 1044 1037 795 973 953 885 887 888 844 1060 705 871 1028 1098 987 988 761 922 910 770 886 805 938 1041 832 940 792 812 840 838 941 809 875 951 959 1030 1060 921 801 1059 1200 1043 829 880 1064 713 876 848 1058 979 811 1000 855 949 939 989 950 749 1002 893 901 1003 998 920 972 903 1142 958 1034 906 1024 951 760 901 862 949 999 819 727 1033 949 841 992 910 869 869 829 905 916 984 1070 708 926 935 1078 815 948 956 1042 1044 1071 818 1004 984 913 949 948 974 863 859 1054 1148 927 889 1040 939 844 1023 812 899 931 980 879 954 924 962 692 926 1116 1018 1091 1030 933 1090 964 1079 1014 905 817 1034 1006 903 790 920 1035 896 1022 747 1024 775 936 901 1001 783 835 987 941 1088 1021 824 912 706 980 1007 944 940 1074 1169 960 776 1065 1076 737 1156 859 998 797 887 794 924 843 883 766 900 887 918 1023 1106 748 979 1034 914 752 762 1025 917 890 806 974 897 816 681 958 931 780 913 912 843 901 789 784 1017 1045 915 940 914 705 960 1005 958 683 1023 1061 937 1045 1075 973 906 998 863 959 928 882 908 1031 1017 939 1012 1012 960 888 882 840 866 920 895 871 830 938 1025 752 835 1160 758 905 914 903 882 832 1109 974 777 1014 982 900 965 873 766 1118 984 842 913 972 910 846 1053 1012 960 1092 1026 790 987

Tree=0
num_leaves=7
num_cat=1
split_feature=12 9 12 8 3 10
split_gain=1.8694e+07 1.72402e+06 528276 430703 199555 141879
threshold=38752.500000000007 7.5000000000000009 3401.0000000000005 6.5000000000000009 0 5.5000000000000009
decision_type=2 2 2 2 5 2
left_child=1 -1 5 -2 -4 -3
right_child=3 2 4 -5 -6 -7
leaf_value=0.18114442352924681 0.029188820125066607 0.16757045545612395 0.11854624863515834 -0.17203602884889146 -0.069532031639365277 -0.12728493120035797
leaf_count=473821 186371 64140 53221 21310563 1269889 58577
internal_value=0 1.38156 0.0542272 -1.68298 -0.469591 1.41863
internal_count=23416582 1919648 1445827 21496934 1323110 122717
cat_boundaries=0 4
cat_threshold=555745281 262208 0 8193
shrinkage=0.1


Tree=1
num_leaves=7
num_cat=3
split_feature=4 7 10 2 4 10
split_gain=1.14733e+07 3.12082e+06 1.31214e+06 615734 518212 320314
threshold=0 19.500000000000004 7.5000000000000009 1 2 1.5000000000000002
decision_type=5 2 2 5 5 2
left_child=2 -2 -1 5 -4 -3
right_child=1 3 4 -5 -6 -7
leaf_value=0.1592635590401289 0.14412606037591416 -0.065801345907379308 0.096185903049680999 0.16074525006331064 -0.15731166273556016 -0.15512372563219679
leaf_count=584153 184895 1178859 133660 16415 743568 20575032
internal_value=0 -1.27334 1.29384 -1.45272 -0.543489 -1.48619
internal_count=23416582 21955201 1461381 21770306 877228 21753891
cat_boundaries=0 11 132 143
cat_threshold=2097152 0 0 131104 0 0 2097152 524288 0 536870912 142606336 38 134217728 0 0 0 0 0 0 0 0 0 0 0 0 0 0 0 0 0 0 0 0 0 0 0 0 0 0 0 0 0 0 0 0 0 0 0 0 0 0 0 0 0 0 0 0 0 0 0 0 0 0 0 0 0 0 0 0 0 0 0 0 0 0 0 0 0 0 0 0 0 0 0 0 0 0 0 0 0 0 0 0 0 0 0 0 0 0 0 0 0 0 0 0 0 0 0 0 0 0 0 0 0 0 0 0 0 0 0 0 0 0 0 0 0 0 0 0 0 0 67108864 0 0 0 0 0 0 2097152 0 0 0 142606336
shrinkage=0.1


Tree=2
num_leaves=7
num_cat=3
split_feature=1 7 1 12 3 9
split_gain=1.49544e+07 983767 349742 141421 128858 97974
threshold=0 19.500000000000004 1 3401.0000000000005 2 2.5000000000000004
decision_type=5 2 5 2 5 2
left_child=-1 5 4 -4 -3 -2
right_child=1 2 3 -5 -6 -7
leaf_value=0.1562059443722599 0.14111632810833971 -0.070097370506389672 -0.0046975863071237545 -0.15746075921037578 -0.13372739336126574 -0.0031680277909006214
leaf_count=500626 44979 2315099 116117 18250028 2037270 152463
internal_value=0 -1.35503 -1.42727 -1.55462 -0.969357 0.842989
internal_count=23416582 22915956 22718514 18366145 4352369 197442
cat_boundaries=0 16 19 24
cat_threshold=537396257 1351952556 1573124 570431617 0 0 1024 0 0 0 0 0 0 0 0 2 2148535040 16401 263170 560553984 262144 4194312 2097153 512
shrinkage=0.1


Tree=3
num_leaves=7
num_cat=3
split_feature=12 4 7 4 4 12
split_gain=1.08178e+07 2.17363e+06 318937 207746 206308 226877
threshold=38752.500000000007 0 40.500000000000007 1 2 8071.5000000000009
decision_type=2 5 2 5 5 2
left_child=1 -1 -2 -4 5 -3
right_child=2 4 3 -5 -6 -7
leaf_value=-0.14008402486798197 -0.0031997931691146934 -0.17129881406404873 -0.085152446682584967 -0.14277891102475335 0.15126473316525288 0.096741558330047564
leaf_count=1175985 409003 125347 2444369 18643940 308811 309127
internal_value=0 1.08289 -1.30456 -1.34982 1.38597 0.753035
internal_count=23416582 1919270 21497312 21088309 743285 434474
cat_boundaries=0 16 32 47
cat_threshold=0 0 0 621806080 33685697 262144 134217728 0 8 0 0 19399168 4194304 0 2099200 16 0 0 0 2147483648 131072 0 10485760 1048576 0 2147483648 134234144 0 4194304 0 1074003969 128 0 0 0 2048 0 0 0 0 16777216 536870912 142606336 33554432 0 1073741824 1073741842
shrinkage=0.1


Tree=4
num_leaves=7
num_cat=4
split_feature=1 7 1 4 4 11
split_gain=1.0619e+07 708321 280595 127801 114864 93952.1
threshold=0 19.500000000000004 1 2 3 2.5000000000000004
decision_type=5 2 5 5 5 2
left_child=3 -2 5 -1 -4 -3
right_child=1 2 4 -5 -6 -7
leaf_value=-0.0074830526296693033 0.072246632835503824 -0.050381094047227307 0.14891235780570442 0.14008997395905873 -0.13675495263106274 -0.10581795047408765
leaf_count=120878 197126 1673023 3482 375652 18364313 2682108
internal_value=0 -1.17539 -1.2394 1.36222 -1.35836 -0.82118
internal_count=23416582 22920052 22722926 496530 18367795 4355131
cat_boundaries=0 16 19 34 41
cat_threshold=537396257 1083517100 1573124 570431617 0 0 1024 0 0 0 0 0 0 0 0 2 1051392 268451857 263170 0 0 0 16777216 0 0 0 0 0 536870912 0 33554432 4194304 0 2 0 0 0 0 0 0 2097152
shrinkage=0.1


Tree=5
num_leaves=7
num_cat=5
split_feature=1 12 1 4 3 4
split_gain=8.92889e+06 433670 302996 174015 117897 96247.8
threshold=0 3401.0000000000005 1 2 3 4
decision_type=5 2 5 5 5 5
left_child=5 3 4 -2 -3 -1
right_child=1 2 -4 -5 -6 -7
leaf_value=0.052337139090791684 -0.12339603197699699 -0.045441300469334645 -0.12661718254846951 0.13067800937300764 -0.10648855162018148 0.13474431266099651
leaf_count=178976 121937 2384515 18254029 32886 2144379 299860
internal_value=0 -1.09144 -1.13574 0.646114 -0.712992 1.28996
internal_count=23416582 22937746 22782923 154823 4528894 478836
cat_boundaries=0 16 18 34 38 53
cat_threshold=537396257 1075128492 1573124 570431617 0 0 1024 0 0 0 0 0 0 0 0 2 135269120 8388625 2097152 0 0 16779264 64 0 134217728 0 16777216 0 134217728 2621952 4194304 1073741824 2 16 4726784 33 0 1 0 0 0 16777216 0 0 0 0 0 536870912 8388608 167772160 0 1073741824 2
shrinkage=0.1


Tree=6
num_leaves=7
num_cat=4
split_feature=12 4 7 4 4 2
split_gain=6.5476e+06 1.31737e+06 271257 195455 161511 134231
threshold=38752.500000000007 0 40.500000000000007 1 2 3
decision_type=2 5 2 5 5 5
left_child=1 -1 -2 -3 -4 -5
right_child=2 3 4 5 -6 -7
leaf_value=-0.12228479186128478 0.010386493688888075 -0.014207236358548259 -0.066920875393077367 -0.1862822748292432 -0.11968120987173408 0.12279276642826514
leaf_count=1102579 409472 260501 2445432 57841 18641808 498949
internal_value=0 0.897914 -1.07498 1.14131 -1.12161 1.20784
internal_count=23416582 1919870 21496712 817291 21087240 556790
cat_boundaries=0 16 31 47 168
cat_threshold=0 0 0 621806080 33685697 262144 0 0 8 0 0 2621952 4194304 0 2066 16 0 0 0 0 0 0 134217728 0 16777216 536870912 0 50331648 0 0 1075838976 2097152 0 0 2147483648 131072 0 10485760 1048576 0 2147483648 134234144 0 4194304 0 1074003969 128 0 0 0 0 0 0 0 0 0 0 0 0 0 0 0 0 0 0 0 0 0 0 0 0 0 0 0 0 0 0 0 0 0 0 0 0 0 0 0 0 0 0 0 0 0 0 0 0 0 0 0 0 0 0 0 0 0 0 0 0 0 0 0 0 0 0 0 0 0 0 0 0 0 0 0 0 0 0 0 0 0 0 0 0 0 0 0 0 0 0 0 0 0 0 0 0 0 0 0 0 0 0 0 0 0 0 0 0 0 0 0 0 0 0 0 0 0 0 0 0 67108864
shrinkage=0.1


Tree=7
num_leaves=7
num_cat=3
split_feature=1 0 9 1 1 0
split_gain=6.56498e+06 311994 251092 222124 66234.2 64166.4
threshold=0 277487.50000000006 1.5000000000000002 1 2 220762.00000000003
decision_type=5 2 2 5 5 2
left_child=5 3 -3 -2 -4 -1
right_child=1 2 4 -5 -6 -7
leaf_value=0.094609622413834943 -0.065867114744888891 0.11481194517747606 -0.12731251975519806 -0.11771151263150277 -0.035168409048089821 0.13112115290846579
leaf_count=408673 4066546 66509 479745 17306885 1000733 87491
internal_value=0 -0.97548 -0.234799 -1.05713 -0.589262 1.16198
internal_count=23416582 22920418 1546987 21373431 1480478 496164
cat_boundaries=0 16 19 28
cat_threshold=537396257 1083517100 1573124 570431617 0 0 1024 0 0 0 0 0 0 0 0 2 1051392 268451841 263170 329298002 16830546 1610612746 8448 8388672 8388609 65536 256 1024
shrinkage=0.1


Tree=8
num_leaves=7
num_cat=4
split_feature=4 7 10 3 4 4
split_gain=3.56234e+06 1.07902e+06 485582 181320 147939 139186
threshold=0 40.500000000000007 8.5000000000000018 1 2 3
decision_type=5 2 2 5 5 5
left_child=2 5 -1 -3 -5 -2
right_child=1 3 -4 4 -6 -7
leaf_value=0.10420414819068197 -0.11294685126910918 0.10558430055444222 -0.045767056197256739 -0.048421303732837158 -0.10249420467257767 0.094931758290143164
leaf_count=651885 132327 16806 842758 2085559 19405103 282144
internal_value=0 -0.797741 0.836057 -0.935932 -0.955796 0.76798
internal_count=23416582 21921939 1494643 21507468 21490662 414471
cat_boundaries=0 15 19 35 51
cat_threshold=2097152 0 0 131104 0 0 2097152 524288 0 0 142606336 0 0 0 1073741824 555745281 671350848 4104 1 0 0 0 2147483648 131072 0 0 1048576 0 2684354560 16416 50331648 0 0 1 128 17309696 0 0 538444288 33558656 262144 1048576 2101248 4194828 0 537919808 2097664 131072 1073741826 536905728 1040
shrinkage=0.1


Tree=9
num_leaves=7
num_cat=5
split_feature=1 7 1 3 4 1
split_gain=4.97207e+06 429124 248326 113197 91839.6 71470.9
threshold=0 40.500000000000007 1 2 3 4
decision_type=5 2 5 5 5 5
left_child=4 5 3 -3 -1 -2
right_child=1 2 -4 -5 -6 -7
leaf_value=0.0302389829233588 -0.10643775877619617 -0.035398909408392097 -0.10833031479127049 -0.10998121196173186 0.11475606526771456 0.05510472575729411
leaf_count=179355 115476 3104840 18122250 1264734 299581 330346
internal_value=0 -0.875146 -0.948444 -0.536336 1.08169 0.361809
internal_count=23416582 22937646 22491824 4369574 478936 445822
cat_boundaries=0 16 19 24 39 45
cat_threshold=537396257 1075128492 1573124 570431617 0 0 1024 0 0 0 0 0 0 0 0 2 1051392 276824081 263171 38757632 0 8 2097153 512 0 0 0 16777216 0 0 0 0 0 536870912 8388608 167772160 0 32 2 1400926288 624989250 3774879770 256 8650752 1
shrinkage=0.1


Tree=10
num_leaves=7
num_cat=5
split_feature=1 8 1 3 4 4
split_gain=4.26986e+06 378610 241669 135428 88161 70501.7
threshold=0 6.5000000000000009 1 2 3 4
decision_type=5 2 5 5 5 5
left_child=4 -2 3 -3 -1 -4
right_child=1 2 5 -5 -6 -7
leaf_value=0.053904348298085283 0.064030791357776048 -0.03328199886302223 0.13403155672230987 -0.094877605526136347 0.11416230605847535 -0.10716723420132586
leaf_count=264213 203144 3808556 3441 2887717 214899 16034612
internal_value=0 -0.831283 -0.88835 -0.566344 1.03609 -1.06128
internal_count=23416582 22937470 22734326 6696273 479112 16038053
cat_boundaries=0 16 19 23 38 45
cat_threshold=537396257 1075128492 1573124 570431617 0 0 1024 0 0 0 0 0 0 0 0 2 135531264 276840465 263171 7168000 262144 8 1 0 0 0 16777216 0 0 0 0 0 536870912 142606336 167772160 0 0 2 0 0 0 0 0 0 2097152
shrinkage=0.1


Tree=11
num_leaves=7
num_cat=3
split_feature=12 4 4 4 12 11
split_gain=3.18342e+06 651980 178161 166236 94132 91394.5
threshold=38752.500000000007 0 1 2 8071.5000000000009 2.5000000000000004
decision_type=2 5 5 5 2 2
left_child=1 -1 4 5 -3 -2
right_child=3 2 -4 -5 -6 -7
leaf_value=-0.096126088995065181 -0.018770318972963121 -0.11255392955560017 0.10815196729958268 -0.096357079286428352 0.048075799311026478 -0.075541430338753421
leaf_count=1080396 2032555 162625 308951 16214449 367227 3250379
internal_value=0 0.724988 0.919272 -0.829412 0.303873 -0.511586
internal_count=23416582 1919199 838803 21497383 529852 5282934
cat_boundaries=0 16 31 47
cat_threshold=0 0 0 621808128 33685697 262144 0 0 8 0 0 524800 4194304 1073741824 2066 16 0 0 0 0 0 0 134217728 0 16777216 536870912 142606336 52428800 0 0 1075838976 1075838976 0 0 2164262912 131072 8192 11010048 1049600 1024 2147483648 134234144 16777216 4456448 536870944 1074003971 642
shrinkage=0.1


Tree=12
num_leaves=7
num_cat=4
split_feature=12 4 4 7 4 3
split_gain=2.72151e+06 577194 162353 161660 145258 115630
threshold=38752.500000000007 0 1 78.500000000000014 2 3
decision_type=2 5 5 2 5 5
left_child=1 -1 5 -2 -5 -3
right_child=3 2 -4 4 -6 -7
leaf_value=-0.091746397315045011 -0.0038091146897913891 0.055701513398706062 0.10437080578545868 -0.051382143137515962 -0.097210379262866659 -0.089908770309415714
leaf_count=1101753 857556 299398 307617 4588430 16050727 211101
internal_value=0 0.690151 0.881249 -0.786685 -0.844807 0.286064
internal_count=23416582 1919869 818116 21496713 20639157 510499
cat_boundaries=0 16 31 47 52
cat_threshold=0 0 0 621808128 33685697 262144 0 0 8 0 0 2621952 4194304 0 2066 16 0 0 0 0 0 0 134217728 0 16777216 536870912 142606336 184549376 0 0 1075838976 2097152 0 0 2147485696 135168 8192 10485760 1049600 1024 2147483648 134234144 0 4456448 536870912 1074003969 130 561586177 134479968 4104 1 8192
shrinkage=0.1


Tree=13
num_leaves=7
num_cat=5
split_feature=1 7 1 3 4 4
split_gain=2.75651e+06 288468 224364 96302.4 92758 63221
threshold=0 60.500000000000007 1 2 3 4
decision_type=5 2 5 5 5 5
left_child=4 5 3 -3 -1 -2
right_child=1 2 -4 -5 -6 -7
leaf_value=0.014423536368713892 -0.096158080843112059 -0.017517572648072653 -0.093586361867571591 -0.087552331305508366 0.10083458444164944 0.041840548572989994
leaf_count=197718 178047 2804595 17957347 1482998 289181 506696
internal_value=0 -0.707303 -0.785105 -0.373204 0.923925 0.241079
internal_count=23416582 22929683 22244940 4287593 486899 684743
cat_boundaries=0 16 19 23 38 54
cat_threshold=537396257 1083517068 1573126 33560705 0 0 1024 0 0 0 0 0 0 0 0 2 1051392 268451873 262145 40853504 262144 8 1 0 0 0 16777216 0 0 0 0 0 536870912 8388608 167772160 4194304 1073741824 2097154 17309696 0 0 604537344 4224 262144 1048576 2097152 4194820 0 537919808 2101760 272695300 1073741824 537397248 131072
shrinkage=0.1


Tree=14
num_leaves=7
num_cat=4
split_feature=1 7 1 3 7 1
split_gain=2.3623e+06 274950 211981 108602 90092.5 53833
threshold=0 40.500000000000007 1 2 110.50000000000001 3
decision_type=5 2 5 5 2 5
left_child=4 -2 3 -3 -1 -6
right_child=1 2 -4 -5 5 -7
leaf_value=0.11087721594219853 0.034640430664463345 -0.026116156481447148 -0.09326585555676549 -0.093106402458293935 -0.12681647354661518 0.062902585759584295
leaf_count=80050 444937 4663028 15856799 1986183 47500 338085
internal_value=0 -0.668768 -0.741174 -0.424108 0.892902 0.573602
internal_count=23416582 22950947 22506010 6649211 465635 385585
cat_boundaries=0 16 19 23 24
cat_threshold=537396257 1075128460 1573124 33560577 0 0 1024 0 0 0 0 0 0 0 0 2 135531264 276840497 262147 57632000 262144 0 1 32
shrinkage=0.1


Tree=15
num_leaves=7
num_cat=4
split_feature=1 4 0 1 4 10
split_gain=2.02758e+06 189704 131848 95448.8 85378.3 71229.2
threshold=0 1 277487.50000000006 2 3 1.5000000000000002
decision_type=5 5 2 5 5 2
left_child=4 -2 3 -3 -1 -4
right_child=1 2 5 -5 -6 -7
leaf_value=0.0098826479773261589 0.00090486572580766996 -0.053074637221803604 0.042095450149429045 -0.092009801656276466 0.094463486953404466 -0.049767309260344762
leaf_count=196720 1542812 5495833 288672 14448646 289710 1154189
internal_value=0 -0.631555 -0.714582 -0.787342 0.853299 -0.140669
internal_count=23416582 22930152 21387340 19944479 486430 1442861
cat_boundaries=0 16 32 35 50
cat_threshold=537396257 1083517068 1573126 33560577 0 0 1024 0 0 0 0 0 0 0 0 2 0 0 0 0 131072 0 2097152 1572864 0 2147483648 32 16777216 262144 32 1073741825 128 202640128 268451889 262145 0 0 0 16777216 0 0 0 0 0 536870912 8388608 33554432 4194304 32 2097154
shrinkage=0.1


Tree=16
num_leaves=7
num_cat=3
split_feature=1 7 1 3 7 12
split_gain=1.75086e+06 216574 183969 100875 98136.7 56707.7
threshold=0 60.500000000000007 1 2 110.50000000000001 3401.0000000000005
decision_type=5 2 5 5 2 2
left_child=4 -2 3 -3 -1 -4
right_child=1 2 5 -5 -6 -7
leaf_value=0.10674473557852338 0.022850569429218679 -0.018251795063202278 0.020442196108262957 -0.080430792347187141 0.048006923536916407 -0.089763221941099217
leaf_count=83409 684142 4083272 116758 2475096 402919 15570986
internal_value=0 -0.597517 -0.674334 -0.372882 0.82095 -0.869763
internal_count=23416582 22930254 22246112 6558368 486328 15687744
cat_boundaries=0 16 19 23
cat_threshold=537396257 1083517068 1573126 33560577 0 0 1024 0 0 0 0 0 0 0 0 2 2283014912 268451889 1025 24076288 262144 0 1
shrinkage=0.1


Tree=17
num_leaves=7
num_cat=4
split_feature=1 7 4 1 9 3
split_gain=1.51914e+06 220026 152815 111315 96335.9 60881.1
threshold=0 95.500000000000014 1 2 1.5000000000000002 3
decision_type=5 2 5 5 2 5
left_child=2 4 5 -3 -2 -1
right_child=1 3 -4 -5 -6 -7
leaf_value=0.026724462645431282 0.10032770722615102 -0.043298771703684846 0.088798901336518299 -0.085142539539489706 -0.017332313562819415 -0.096229765140026249
leaf_count=632313 71326 5737405 326146 15348181 1071233 229978
internal_value=0 -0.600594 0.697476 -0.697649 0.13118 0.0666731
internal_count=23416582 22228145 1188437 21085586 1142559 862291
cat_boundaries=0 16 31 34 62
cat_threshold=537396513 1075128460 1573126 33560705 0 0 1024 0 0 0 0 0 0 0 0 2 0 0 0 16777216 131072 0 0 0 8 536870912 8388608 167772160 0 1073741824 2097154 2283014656 268451889 263169 594502657 402915392 5248 73729 8192 0 0 0 0 0 0 0 0 0 0 0 0 0 0 0 0 0 0 0 0 0 0 4
shrinkage=0.1


Tree=18
num_leaves=7
num_cat=4
split_feature=1 8 7 1 3 1
split_gain=1.30397e+06 194108 139378 123456 78563.5 57551.1
threshold=0 6.5000000000000009 78.500000000000014 1 2 3
decision_type=5 2 2 5 5 5
left_child=2 -2 -1 4 -3 -4
right_child=1 3 5 -5 -6 -7
leaf_value=0.10239559485558154 0.054524386198290767 -0.019921986562373487 0.10512100612071758 -0.07880146794916823 -0.083462517175450904 0.021785154923303282
leaf_count=100858 199079 4103793 14299 16041732 1872114 1084707
internal_value=0 -0.566608 0.664684 -0.625654 -0.35482 0.344838
internal_count=23416582 22216718 1199864 22017639 5975907 1099006
cat_boundaries=0 16 19 23 27
cat_threshold=537396513 1083517068 1573124 33560577 0 0 1024 0 0 0 0 0 0 0 0 2 135531008 268451889 263171 56582400 262144 0 1 1 1376392 1048832 33556481
shrinkage=0.1


Tree=19
num_leaves=7
num_cat=3
split_feature=1 7 7 1 9 3
split_gain=1.13235e+06 178537 139635 91226 70213.3 60468.2
threshold=0 95.500000000000014 78.500000000000014 1 1.5000000000000002 2
decision_type=5 2 2 5 2 5
left_child=2 4 -1 5 -2 -3
right_child=1 3 -4 -5 -6 -7
leaf_value=0.099965962984982226 0.091378862179625181 -0.026080738379137824 0.031384274113977456 -0.079524158522993896 -0.013089467821644708 -0.085315924151994904
leaf_count=106567 70967 4176629 1252247 14916368 1060595 1833209
internal_value=0 -0.545216 0.614644 -0.639961 0.130621 -0.399709
internal_count=23416582 22057768 1358814 20926206 1131562 6009838
cat_boundaries=0 16 19 22
cat_threshold=538445089 1075128460 1574148 570447873 0 0 1024 0 0 0 0 0 0 0 0 2 2349074944 268451889 262147 55534848 262144 8
shrinkage=0.1


Tree=20
num_leaves=7
num_cat=5
split_feature=1 11 3 1 4 1
split_gain=946591 182827 218102 135678 90841.9 48856.1
threshold=0 2.5000000000000004 1 2 3 4
decision_type=5 2 5 5 5 5
left_child=4 2 3 -2 -1 -4
right_child=1 -3 5 -5 -6 -7
leaf_value=0.014399812746902652 -0.071361112819974606 -0.069940200748345838 -0.023282766860389173 0.047497365502235676 0.088068469449094439 -0.075388342758207327
leaf_count=263349 1154363 13448438 1798208 2256646 199678 4295900
internal_value=0 -0.461922 -0.197585 0.245131 0.70346 -0.555019
internal_count=23416582 22953555 9505117 3411009 463027 6094108
cat_boundaries=0 16 21 28 43 52
cat_threshold=537396257 269822092 1573124 33560577 0 0 0 0 0 0 0 0 0 0 0 2 560472193 671350848 4104 1 134217728 316682322 553816130 1614938136 538976512 8388608 1 65536 0 0 0 16777216 0 0 0 0 0 536870912 142606336 33554432 0 1073741824 2 135400200 75497488 2 536887424 64 0 8388608 256 1024
shrinkage=0.1


Tree=21
num_leaves=7
num_cat=2
split_feature=1 7 7 3 11 9
split_gain=822510 159886 134674 86061.9 106035 58818.7
threshold=0 95.500000000000014 60.500000000000007 1 1.5000000000000002 1.5000000000000002
decision_type=5 2 2 5 2 2
left_child=2 5 -1 4 -3 -2
right_child=1 3 -4 -5 -6 -7
leaf_value=0.097064931785408648 0.087282192628279034 0.0012796553935048268 0.026005819209940675 -0.08951150405190611 -0.060116596140676527 -0.0088522157899394525
leaf_count=94886 70023 2705399 1328176 6761061 11401480 1055557
internal_value=0 -0.487484 0.541304 -0.584571 -0.460091 0.155078
internal_count=23416582 21993520 1423062 20867940 14106879 1125580
cat_boundaries=0 16 21
cat_threshold=538445089 1386637 1573126 33560577 0 0 1024 0 0 0 0 0 0 0 0 2 594501889 134484032 8 8193 8388608
shrinkage=0.1


Tree=22
num_leaves=7
num_cat=4
split_feature=1 1 12 7 4 2
split_gain=703591 126480 148923 92104.2 59383.4 59029.5
threshold=0 1 3401.0000000000005 95.500000000000014 2 3
decision_type=5 5 2 2 5 5
left_child=3 5 4 -1 -3 -2
right_child=1 2 -4 -5 -6 -7
leaf_value=0.097418414190953401 -0.11713263907477173 -0.10894720041680608 -0.06327162161761328 0.030301556010095588 0.11877295946183297 -0.0056717621737187819
leaf_count=75051 350790 84551 18166248 383243 25948 4330751
internal_value=0 -0.414241 -0.570768 0.643723 0.780643 -0.116547
internal_count=23416582 22958288 18276747 458294 110499 4681541
cat_boundaries=0 16 20 36 157
cat_threshold=537396257 1386636 1573124 33560577 0 0 1024 0 0 0 0 0 0 0 0 2 135400192 1350582321 262147 536887296 2097152 0 0 131072 0 0 0 0 0 0 134217728 134742528 4194304 0 16 16 4 134217728 0 0 0 0 0 0 0 0 0 0 0 0 0 0 0 0 0 0 0 0 0 0 0 0 0 0 0 0 0 0 0 0 0 0 0 0 0 0 0 0 0 0 0 0 0 0 0 0 0 0 0 0 0 0 0 0 0 0 0 0 0 0 0 0 0 0 0 0 0 0 0 0 0 0 0 0 0 0 0 0 0 0 0 0 0 0 0 0 0 0 0 0 0 0 0 0 0 0 0 0 0 0 0 0 0 0 0 0 0 0 0 0 0 0 0 0 0 0 67108864
shrinkage=0.1


Tree=23
num_leaves=7
num_cat=3
split_feature=1 3 1 10 7 7
split_gain=595396 136438 146735 124312 91230.4 58654.4
threshold=0 1 2 5.5000000000000009 124.50000000000001 19.500000000000004
decision_type=5 5 5 2 2 2
left_child=4 2 -2 -4 -1 -3
right_child=1 5 3 -5 -6 -7
leaf_value=0.094416220986879532 -0.063567552475727124 0.022239563205368795 0.047079932102553068 -0.0247721616399517 0.025722121742615057 -0.071839823822599
leaf_count=84044 5959535 109945 1373479 4809576 374042 10705961
internal_value=0 -0.387782 -0.195296 0.0219641 0.61015 -0.657488
internal_count=23416582 22958496 12142590 6183055 458086 10815906
cat_boundaries=0 16 21 28
cat_threshold=537396257 1386636 1573124 33560577 0 0 1024 0 0 0 0 0 0 0 0 2 560554113 537139264 8 1 134217728 316731478 620924994 1610612760 2105600 8388608 1 65536
shrinkage=0.1


Tree=24
num_leaves=7
num_cat=3
split_feature=9 4 7 11 4 2
split_gain=468322 177911 96904.8 75007.9 66809.9 41599.1
threshold=2.5000000000000004 0 95.500000000000014 1.5000000000000002 1 2
decision_type=2 5 2 2 5 5
left_child=2 -2 -1 4 -3 -4
right_child=1 3 5 -5 -6 -7
leaf_value=0.090473400961713413 0.017329241943446164 -0.071327264878534177 -0.021684145687661076 -0.058594408102271893 0.0053547780620474073 0.056088751536863379
leaf_count=200162 1890049 1485186 1062598 15680177 3016585 81825
internal_value=0 -0.332819 0.595669 -0.467877 -0.158649 0.138964
internal_count=23416582 22071997 1344585 20181948 4501771 1144423
cat_boundaries=0 16 32 153
cat_threshold=2097152 0 0 0 131072 8192 2097152 1048576 1024 2147483648 8405024 16777216 0 32 1073741825 128 16785408 0 0 810680320 37748865 262144 1056768 262144 512 134217728 1048896 34083328 196612 2 526336 131088 38 134217728 0 0 0 0 0 0 0 0 0 0 0 0 0 0 0 0 0 0 0 0 0 0 0 0 0 0 0 0 0 0 0 0 0 0 0 0 0 0 0 0 0 0 0 0 0 0 0 0 0 0 0 0 0 0 0 0 0 0 0 0 0 0 0 0 0 0 0 0 0 0 0 0 0 0 0 0 0 0 0 0 0 0 0 0 0 0 0 0 0 0 0 0 0 0 0 0 0 0 0 0 0 0 0 0 0 0 0 0 0 0 0 0 0 0 0 0 0 0 67108864
shrinkage=0.1


Tree=25
num_leaves=7
num_cat=5
split_feature=1 4 7 3 4 3
split_gain=459664 117522 113422 82880.5 63817.5 60843.1
threshold=0 1 95.500000000000014 2 3 4
decision_type=5 5 2 5 5 5
left_child=1 5 -2 4 -4 -1
right_child=2 -3 3 -5 -6 -7
leaf_value=0.016524428400651835 0.016507867614057283 0.067307262214159974 -0.010881586995596033 -0.083444775261476103 -0.054897986665087196 -0.085873138041002342
leaf_count=902088 1112697 490436 4157399 6656478 9696657 400827
internal_value=0 0.414358 -0.398246 -0.491298 -0.361229 -0.028269
internal_count=23416582 1793351 21623231 20510534 13854056 1302915
cat_boundaries=0 16 32 36 52 80
cat_threshold=537398561 9791629 1573126 33576961 0 0 1024 0 0 0 0 0 0 0 0 2 0 0 0 16777216 131584 8192 0 0 8 2684354560 8388640 50331648 4194304 0 2 130 594501889 134483968 8 8193 2228224 0 0 2231372288 131140 4194304 11010048 1049856 1024 0 16384 52428800 262144 545259520 1074036753 512 561980417 134484032 16782336 32769 8736 0 0 0 0 0 0 0 0 0 0 0 0 0 0 0 0 0 0 0 0 0 0 4
shrinkage=0.1


Tree=26
num_leaves=7
num_cat=4
split_feature=1 4 7 8 4 1
split_gain=394492 112108 105750 102763 57446.9 51700
threshold=0 1 40.500000000000007 29.500000000000004 2 3
decision_type=5 5 2 2 5 5
left_child=2 -2 -1 4 -3 -4
right_child=1 3 5 -5 -6 -7
leaf_value=0.091861988750794737 -0.081875696440766726 -0.03649941217343055 0.09926632036251179 -0.03618977465120763 0.055239154502020195 0.008569194024632654
leaf_count=75987 5951611 628754 12073 14845507 637656 1264994
internal_value=0 -0.359698 0.423843 -0.247236 0.266583 0.189639
internal_count=23416582 22063528 1353054 16111917 1266410 1277067
cat_boundaries=0 16 32 48 52
cat_threshold=538445089 1386636 1573126 570447873 0 0 0 0 0 0 0 0 0 0 0 2 16785408 0 0 807010304 37752961 262144 1056768 2097152 4194824 0 135266628 528896 268435456 1073741824 0 132112 2752512 0 0 100665856 516 0 134217728 12288 0 2281701376 536870944 52428800 33751044 524290 539527168 129 1 327816 1048832 33554433
shrinkage=0.1


Tree=27
num_leaves=7
num_cat=5
split_feature=1 11 4 1 4 4
split_gain=319304 145327 105275 92568.9 82105 46312.7
threshold=0 2.5000000000000004 1 2 3 4
decision_type=5 2 5 5 5 5
left_child=4 2 -2 -4 -1 -3
right_child=1 5 3 -5 -6 -7
leaf_value=-0.0042728759638913155 -0.069789129492124596 -0.031179479290718765 -0.047692314216483879 0.026644751704968245 0.073503531550778295 -0.071149813733391479
leaf_count=264300 2594566 4312085 2538651 4369985 197344 9139651
internal_value=0 -0.285405 -0.0354011 0.100838 0.505594 -0.533778
internal_count=23416582 22954938 9503202 6908636 461644 13451736
cat_boundaries=0 16 32 39 54 70
cat_threshold=537396257 1386636 1835268 33560577 0 0 0 0 0 0 0 0 0 0 0 2 16785408 0 0 806354944 33554561 262144 1056768 2105344 520 671088640 135266628 4608 4390912 1073741826 0 132112 77656146 872546320 541066241 2097408 0 1 65536 0 0 0 16777216 0 0 0 0 0 536870912 142606336 167772160 0 0 2 1073872896 0 0 2214627328 131588 8192 145227776 1312000 0 2147483648 16416 2097152 262144 8388610 1074003985 642
shrinkage=0.1


Tree=28
num_leaves=7
num_cat=3
split_feature=7 4 12 2 12 4
split_gain=287870 114343 91684.2 52869.4 45741.5 44959.6
threshold=19.500000000000004 0 3401.0000000000005 1 38752.500000000007 2
decision_type=2 5 2 5 2 5
left_child=4 3 -3 -2 -1 -4
right_child=1 2 5 -5 -6 -7
leaf_value=0.093856474430864242 -0.12398525881704683 0.068126198524368214 -0.074947551370950674 0.011790121316010189 0.014914154542060163 -0.034330419561646418
leaf_count=66760 228696 87388 5642485 3089974 182342 14118937
internal_value=0 -0.229348 -0.379675 0.0703147 0.719362 -0.430803
internal_count=23416582 23167480 19848810 3318670 249102 19761422
cat_boundaries=0 16 137 153
cat_threshold=2097152 0 0 2147614720 131072 8192 2097152 1572864 1024 2147483648 142606368 18874368 262144 536870912 1074003969 128 4 134217728 0 0 0 0 0 0 0 0 0 0 0 0 0 0 0 0 0 0 0 0 0 0 0 0 0 0 0 0 0 0 0 0 0 0 0 0 0 0 0 0 0 0 0 0 0 0 0 0 0 0 0 0 0 0 0 0 0 0 0 0 0 0 0 0 0 0 0 0 0 0 0 0 0 0 0 0 0 0 0 0 0 0 0 0 0 0 0 0 0 0 0 0 0 0 0 0 0 0 0 0 0 0 0 0 0 0 0 0 0 0 0 0 0 0 0 0 0 0 67108864 16785416 0 0 811073536 37748865 262144 1056768 2105344 512 0 1048900 528896 4194304 1073741856 2048 132112
shrinkage=0.1


Tree=29
num_leaves=7
num_cat=4
split_feature=9 1 0 3 3 1
split_gain=255056 149650 67298.4 59566.7 57963.4 49646.3
threshold=2.5000000000000004 0 277487.50000000006 1 2 3
decision_type=2 5 2 5 5 5
left_child=2 3 -1 -2 5 -3
right_child=1 4 -4 -5 -6 -7
leaf_value=0.014630589402016239 0.017334971371714875 -0.080683508618004454 0.084216738732293975 -0.040257264039465231 -0.082416976363720112 -0.022919391219218935
leaf_count=1158046 2750733 2969739 186156 1652307 5444979 9254622
internal_value=0 -0.251643 0.503942 0.0379488 -0.479524 -0.346987
internal_count=23416582 22072380 1344202 4403040 17669340 12224361
cat_boundaries=0 7 11 16 23
cat_threshold=2685931265 1343563949 1310983 33560577 0 0 1024 594289665 537133120 4096 8193 594502657 537139200 4198408 1 8388608 312479856 553812034 1610612760 2105728 8388608 1 65536
shrinkage=0.1


Tree=30
num_leaves=7
num_cat=2
split_feature=7 1 11 12 2 12
split_gain=222896 148422 94669.5 47771.8 46319 41261.6
threshold=19.500000000000004 0 3.5000000000000004 3401.0000000000005 1 38752.500000000007
decision_type=2 5 2 2 5 2
left_child=5 2 4 -3 -2 -1
right_child=1 3 -4 -5 -6 -7
leaf_value=0.090876555651220589 -0.12845517566075396 0.038629242632228757 -0.034201079555024883 -0.053316377443490048 0.024490802187534483 0.014129669017203313
leaf_count=66861 163344 151673 3342193 15997507 3512676 182328
internal_value=0 -0.201267 0.0168503 -0.481387 0.210007 0.67437
internal_count=23416582 23167393 7018213 16149180 3676020 249189
cat_boundaries=0 7 128
cat_threshold=672927489 1343580301 1048839 33560577 0 0 1024 4 134217728 0 0 0 0 0 0 0 0 0 0 0 0 0 0 0 0 0 0 0 0 0 0 0 0 0 0 0 0 0 0 0 0 0 0 0 0 0 0 0 0 0 0 0 0 0 0 0 0 0 0 0 0 0 0 0 0 0 0 0 0 0 0 0 0 0 0 0 0 0 0 0 0 0 0 0 0 0 0 0 0 0 0 0 0 0 0 0 0 0 0 0 0 0 0 0 0 0 0 0 0 0 0 0 0 0 0 0 0 0 0 0 0 0 0 0 0 0 0 67108864
shrinkage=0.1


Tree=31
num_leaves=7
num_cat=4
split_feature=8 3 1 1 10 1
split_gain=196316 140269 83327.2 60681.9 42194.3 40203.5
threshold=15.500000000000002 0 1 2 4.5000000000000009 3
decision_type=2 5 5 5 2 5
left_child=3 2 4 -1 -2 -3
right_child=1 5 -4 -5 -6 -7
leaf_value=0.08199162881409848 0.042166018405099703 -0.035641926705398438 -0.032643598736896338 0.0056223365346540098 -0.0018208670189871386 -0.081653432864935496
leaf_count=175113 713085 4772457 8800187 579627 3009322 5366791
internal_value=0 -0.209417 -0.0288497 0.522508 0.160436 -0.553992
internal_count=23416582 22661842 12522594 754740 3722407 10139248
cat_boundaries=0 5 12 28 35
cat_threshold=594108417 671352896 4104 8193 8192 555486977 1410664617 1310982 33576961 0 0 1024 671745065 8743100 5768452 570445953 0 0 0 0 0 0 0 0 0 0 0 2 203164457 67463308 1049859 570437633 8388608 0 1024
shrinkage=0.1


Tree=32
num_leaves=7
num_cat=4
split_feature=11 3 1 7 1 1
split_gain=193680 165146 64673.2 58052.4 48534 47792
threshold=3.5000000000000004 0 1 19.500000000000004 2 3
decision_type=2 5 5 2 5 5
left_child=1 2 -1 -3 -4 -5
right_child=-2 3 4 5 -6 -7
leaf_value=-0.059515888813133216 -0.045760644752505089 0.04409072001452452 0.0067677406044324472 -0.006969679570138468 0.057600005814220173 -0.06272381842721976
leaf_count=1076488 11123383 112767 2171778 2600301 1789783 4542082
internal_value=0 0.116151 0.374666 -0.250128 0.439886 -0.366546
internal_count=23416582 12293199 5038049 7255150 3961561 7142383
cat_boundaries=0 4 11 14 21
cat_threshold=1634214033 671352912 4104 8193 316674128 558010434 1614942232 538976640 8650752 1 65536 2350049318 75497520 787457 1835785 67444876 1048834 570429441 64 0 8388608
shrinkage=0.1


Tree=33
num_leaves=7
num_cat=5
split_feature=11 3 1 4 3 1
split_gain=155441 98947 71363.5 63682.6 38402.5 35505.2
threshold=1.5000000000000002 0 1 2 3 4
decision_type=2 5 5 5 5 5
left_child=1 3 -2 -1 -4 -3
right_child=2 5 4 -5 -6 -7
leaf_value=-0.034722335932240361 0.0082551360830774856 0.086299373796102419 -0.030746804684977497 0.054058267769568957 -0.074957987088974373 -0.035183547443807701
leaf_count=913114 1235040 8311 11640700 2230001 4468245 2921171
internal_value=0 0.224091 -0.277124 0.426746 -0.405631 -0.248752
internal_count=23416582 6072597 17343985 3143115 16108945 2929482
cat_boundaries=0 5 9 25 30 34
cat_threshold=1634429073 671385713 4104 1 134225920 672795905 338108 1310981 33574913 17301504 0 0 609222656 37748865 4194304 1056768 262144 512 536870912 1048896 34083328 65536 1073741826 526336 132112 594502033 537135104 20971528 136314881 8388608 524289 336012 1048832 570429440
shrinkage=0.1


Tree=34
num_leaves=7
num_cat=3
split_feature=8 3 1 12 12 4
split_gain=133685 107958 82959.5 52265.6 40200.2 39461.5
threshold=6.5000000000000009 0 1 3401.0000000000005 38752.500000000007 2
decision_type=2 5 5 2 2 5
left_child=4 2 -2 -4 -1 -3
right_child=1 5 3 -5 -6 -7
leaf_value=0.085310850691210999 -0.070465081664104978 0.056105142867129913 0.077693509116060003 0.00045710341560261676 0.0024332511741251648 -0.059810109710184245
leaf_count=70973 3010764 111092 62477 12144864 186341 7830071
internal_value=0 -0.142781 -0.019758 0.0508822 0.596873 -0.53154
internal_count=23416582 23159268 15218105 12207341 257314 7941163
cat_boundaries=0 5 21 34
cat_threshold=594501777 671356992 4104 1 8192 316674160 553832514 1615331352 538976512 8388608 1 65536 0 0 0 0 0 0 0 0 2 0 0 0 131072 0 0 2097152 0 1024 0 0 0 262144
shrinkage=0.1


Tree=35
num_leaves=7
num_cat=5
split_feature=11 4 1 1 1 1
split_gain=144645 84858.3 71204.4 41013.6 37495.8 36197.3
threshold=2.5000000000000004 0 1 2 3 4
decision_type=2 5 5 5 5 5
left_child=1 5 -3 -2 -4 -1
right_child=3 2 4 -5 -6 -7
leaf_value=-0.019953927710370547 -0.013775409845556797 0.025566098770018586 -0.10659091511205471 -0.053203431276702511 -0.018133016677457505 0.064404533874059561
leaf_count=383638 3282131 2815729 892687 10301250 5104416 636731
internal_value=0 0.149879 -0.00820979 -0.338336 -0.276725 0.525935
internal_count=23416582 9833201 8812832 13583381 5997103 1020369
cat_boundaries=0 16 20 24 31 47
cat_threshold=1075838976 0 0 2147614752 131072 0 2097152 525312 0 0 0 0 262144 536870944 2 512 152830728 1140777 524290 570443777 672796545 1619339452 1573125 33558657 1084227680 291542082 2701269020 8 10747904 1 65536 2290147536 1879187489 4457472 2097536 0 1 66560 0 0 0 0 0 0 0 0 2
shrinkage=0.1


Tree=36
num_leaves=7
num_cat=4
split_feature=11 4 7 1 4 4
split_gain=119371 81287 60269.6 32841 28412.7 27035.9
threshold=3.5000000000000004 0 19.500000000000004 1 2 3
decision_type=2 5 2 5 5 5
left_child=1 -1 5 -4 -2 -3
right_child=4 2 3 -5 -6 -7
leaf_value=-0.042741824616030863 -0.0067119030763038035 -0.046264577570030496 0.092005223262192681 0.0070484996943125326 -0.048395710436063631 0.077102970822208836
leaf_count=3864104 2201916 46238 11449 8250082 8920320 122473
internal_value=0 0.103939 0.197346 0.105107 -0.366095 0.666442
internal_count=23416582 12294346 8430242 8261531 11122236 168711
cat_boundaries=0 16 20 36 52
cat_threshold=16785408 0 0 542113792 33554561 262144 1056768 0 4194824 0 1048900 34083328 4390912 1074266112 536872960 132112 1 278664 1048832 33554433 131072 0 0 2214594560 37749252 8192 136839168 1310720 0 2684354560 8405024 33554432 327680 0 1073741841 130 0 0 0 84445696 135168 8192 142606336 2372864 1028 2281701376 16416 2097152 4 536870914 1076363265 128
shrinkage=0.1


Tree=37
num_leaves=7
num_cat=4
split_feature=11 1 4 1 4 12
split_gain=94255.9 57217.3 46647.5 39432.4 29538.5 28795.9
threshold=1.5000000000000002 0 1 2 3 3401.0000000000005
decision_type=2 5 5 5 5 2
left_child=1 4 -3 -2 -1 -4
right_child=3 2 5 -5 -6 -7
leaf_value=0.0053051239949632248 0.013795352444106002 -0.062304381292331734 0.082705712857058453 -0.02946714217861739 0.063852170991300652 0.0026557160451507484
leaf_count=643501 630363 1499749 41991 16713689 608668 3278621
internal_value=0 0.186951 -0.02356 -0.216919 0.467112 0.116906
internal_count=23416582 6072530 4820361 17344052 1252169 3320612
cat_boundaries=0 4 20 36 52
cat_threshold=17303305 1400972 1048834 570431489 19406848 0 0 554697216 33689729 4194304 8192 270592 516 536870912 135266368 34083328 0 1073742080 0 131088 672795649 537225404 1048837 33577089 0 0 0 0 0 0 0 0 0 0 0 2 0 0 0 2168979456 33555076 4464640 8921088 1048576 16777228 536870912 16388 34078720 0 1073742082 1 1026
shrinkage=0.1


Tree=38
num_leaves=7
num_cat=3
split_feature=7 1 12 2 1 11
split_gain=87552.3 67499.1 47460.3 42545 30113.2 22461.9
threshold=78.500000000000014 0 38752.500000000007 1 2 3.5000000000000004
decision_type=2 5 2 5 5 2
left_child=2 3 -1 -2 -5 -3
right_child=1 5 -4 4 -6 -7
leaf_value=0.072484236477384251 -0.097882860587931025 -0.022822258124076941 0.0044632260056360782 0.089257029265616725 0.0015012136290627001 -0.058808874317920194
leaf_count=140999 463973 7438634 856870 11804 7351761 7152541
internal_value=0 -0.131638 0.376377 0.00994928 0.0447561 -0.375707
internal_count=23416582 22418713 997869 7827538 7363565 14591175
cat_boundaries=0 7 128 132
cat_threshold=622595969 269838477 1048835 33560577 0 0 1024 4 134234112 0 0 0 0 0 0 0 0 0 0 0 0 0 0 0 0 0 0 0 0 0 0 0 0 0 0 0 0 0 0 0 0 0 0 0 0 0 0 0 0 0 0 0 0 0 0 0 0 0 0 0 0 0 0 0 0 0 0 0 0 0 0 0 0 0 0 0 0 0 0 0 0 0 0 0 0 0 0 0 0 0 0 0 0 0 0 0 0 0 0 0 0 0 0 0 0 0 0 0 0 0 0 0 0 0 0 0 0 0 0 0 0 0 0 0 0 0 0 67108864 1 262280 1048834 1
shrinkage=0.1


Tree=39
num_leaves=7
num_cat=5
split_feature=3 11 4 1 4 1
split_gain=103196 96043.7 42945.1 50945.3 35278.2 30122.6
threshold=0 5.5000000000000009 1 2 3 4
decision_type=5 2 5 5 5 5
left_child=1 4 -2 5 -1 -4
right_child=2 -3 3 -5 -6 -7
leaf_value=-0.015459748091376364 0.056129989098024739 -0.029577609078120716 0.082668257237684298 -0.069970919961603636 0.035516270022910655 -0.023825337408952776
leaf_count=1666507 152692 5415351 10755 5792134 4869015 5510128
internal_value=0 0.12153 -0.314779 -0.371741 0.278648 -0.179488
internal_count=23416582 11950873 11465709 11313017 6535522 5520883
cat_boundaries=0 5 19 26 42 46
cat_threshold=560472209 537139280 4104 8193 134225920 0 0 0 131072 0 0 2097152 0 1024 0 0 0 0 2 136186761 67184796 1048837 570429440 0 0 1024 17301504 0 0 609222656 33554561 262144 1056768 0 4195332 134217728 134218052 528896 131076 1074266112 1073743873 1040 1 73868 1048832 33558528
shrinkage=0.1


Tree=40
num_leaves=7
num_cat=5
split_feature=3 8 1 4 3 1
split_gain=82763.4 44450.8 34651 32954.8 28611.2 28276.5
threshold=0 29.500000000000004 1 2 3 4
decision_type=5 2 5 5 5 5
left_child=1 -1 -2 -3 5 -4
right_child=2 3 4 -5 -6 -7
leaf_value=0.042665405616355151 0.035530096760802959 -0.048384701814512598 -0.06614836483386953 0.0066704868741793329 -0.061759697732810551 -0.008112713509049822
leaf_count=964361 209399 2779638 2450945 8357679 4597699 4056861
internal_value=0 0.101035 -0.294431 0.00795923 -0.358845 -0.212038
internal_count=23416582 12101678 11314904 11137317 11105505 6507806
cat_boundaries=0 5 9 25 29 45
cat_threshold=560474257 537135184 8 1 134225920 135790625 338076 1049856 33558529 1090527240 0 0 559022080 33554561 262144 1056768 0 20971520 0 1048836 528896 306184192 1073742114 0 1040 35112256 134222080 0 8192 2480993362 1636876288 541065225 8192 8388608 1 65536 0 0 0 0 0 0 0 0 2
shrinkage=0.1


Tree=41
num_leaves=7
num_cat=3
split_feature=11 3 3 15 11 1
split_gain=74025.7 49199.4 38831.2 33533.2 30523.2 26778.8
threshold=1.5000000000000002 0 1 22509785.000000004 5.5000000000000009 2
decision_type=2 5 5 2 2 5
left_child=1 3 4 -1 -2 -5
right_child=2 -3 -4 5 -6 -7
leaf_value=0.043694014535882716 0.0039351232659009883 -0.031280128066929071 -0.051431650034576996 -0.070896951939259559 -0.030699152716081798 0.014027128405116976
leaf_count=2569999 5629349 1958888 5514046 730794 6199435 814071
internal_value=0 0.175315 -0.192511 0.284582 -0.102782 -0.00743948
internal_count=23416582 6073752 17342830 4114864 11828784 1544865
cat_boundaries=0 5 9 16
cat_threshold=595551633 671389809 8 8193 134225920 561734033 537139264 4096 1 367046738 1904381968 541328385 2097536 0 1 66560
shrinkage=0.1


Tree=42
num_leaves=7
num_cat=5
split_feature=2 1 12 3 1 3
split_gain=68909.9 70643.7 63309.7 51037.4 24103.9 8099.81
threshold=0 1 3401.0000000000005 2 3 4
decision_type=5 5 2 5 5 5
left_child=-1 5 4 -4 -3 -2
right_child=1 2 3 -5 -6 -7
leaf_value=-0.094221312983247027 -0.043528786305141766 -0.013205487833798591 0.0085024830258332122 -0.03491350901291574 0.091601099750349663 -0.088861235327720209
leaf_count=1306399 2244150 47738 12704236 5055826 57411 2000822
internal_value=0 0.00628343 0.0572149 0.00898365 0.70936 -0.631897
internal_count=23416582 22110183 17865211 17760062 105149 4244972
cat_boundaries=0 121 128 156 172 177
cat_threshold=36 134217728 0 0 0 0 0 0 0 0 0 0 0 0 0 0 0 0 0 0 0 0 0 0 0 0 0 0 0 0 0 0 0 0 0 0 0 0 0 0 0 0 0 0 0 0 0 0 0 0 0 0 0 0 0 0 0 0 0 0 0 0 0 0 0 0 0 0 0 0 0 0 0 0 0 0 0 0 0 0 0 0 0 0 0 0 0 0 0 0 0 0 0 0 0 0 0 0 0 0 0 0 0 0 0 0 0 0 0 0 0 0 0 0 0 0 0 0 0 0 67108864 2464157776 620924994 1615204376 2105600 8388608 1 65536 1669294225 671352913 4096 8193 8192 0 0 0 0 0 0 0 0 0 0 0 0 0 0 0 0 0 0 0 0 0 0 4 0 1357908016 2164786176 536871048 262144 0 1024 0 0 0 0 0 0 0 0 2 2152226816 2097152 2703392 136388626 134227488
shrinkage=0.1


Tree=43
num_leaves=7
num_cat=4
split_feature=3 1 0 1 2 8
split_gain=59747.9 51085.8 43966 27448.7 24196.2 20646.4
threshold=0 1 277487.50000000006 2 3 6.5000000000000009
decision_type=5 5 2 5 5 2
left_child=1 -1 4 -4 -3 -2
right_child=5 2 3 -5 -6 -7
leaf_value=-0.053287478534325333 0.026143608636138134 -0.081070387369464425 0.015524952544810983 0.073970681776114044 0.0019509140122905553 -0.058626076179502266
leaf_count=3979937 53472 541478 954946 79266 13280462 4527021
internal_value=0 0.0261704 0.0727253 0.403501 -0.000631011 -0.480766
internal_count=23416582 18836089 14856152 1034212 13821940 4580493
cat_boundaries=0 4 11 18 139
cat_threshold=1669295569 671357041 8 8193 312488016 553816130 1614942232 538976640 8388608 1 65536 89574286 1410351121 3 2048 0 0 1024 4 134217728 0 0 0 0 0 0 0 0 0 0 0 0 0 0 0 0 0 0 0 0 0 0 0 0 0 0 0 0 0 0 0 0 0 0 0 0 0 0 0 0 0 0 0 0 0 0 0 0 0 0 0 0 0 0 0 0 0 0 0 0 0 0 0 0 0 0 0 0 0 0 0 0 0 0 0 0 0 0 0 0 0 0 0 0 0 0 0 0 0 0 0 0 0 0 0 0 0 0 0 0 0 0 0 0 0 0 0 0 0 0 0 0 0 0 0 0 0 0 67108864
shrinkage=0.1


Tree=44
num_leaves=7
num_cat=4
split_feature=11 3 4 1 7 4
split_gain=58111 52059.4 32396.5 31337.4 26240.1 26772.2
threshold=4.5000000000000009 0 1 2 1481.5000000000002 3
decision_type=2 5 5 5 2 5
left_child=1 -1 -3 -4 -2 -6
right_child=4 2 3 -5 5 -7
leaf_value=0.021251572075701306 -0.052349257675426003 -0.07339396955922127 0.064777236664819937 -0.014664007466124469 0.025951974829783387 -0.033925502678098539
leaf_count=5868354 4409074 1712844 54051 6342023 1444521 3585715
internal_value=0 0.0683289 -0.155216 -0.0668204 -0.299019 -0.0999413
internal_count=23416582 13977272 8108918 6396074 9439310 5030236
cat_boundaries=0 5 21 25 41
cat_threshold=1634214033 537135168 4104 8193 8192 16785408 0 0 538477056 37748736 262144 0 2363392 12 536870912 135266368 33558528 272695296 1073758208 34816 132114 134743073 8659084 1048832 570429441 655360 0 0 2214627328 33686017 8192 143130624 262400 12 2684354560 8405088 33554432 393216 0 1073741825 642
shrinkage=0.1


Tree=45
num_leaves=7
num_cat=4
split_feature=7 3 1 1 12 1
split_gain=52949.4 59974.8 39847.9 31389.1 27403.8 15968.7
threshold=19.500000000000004 0 1 2 38752.500000000007 3
decision_type=2 5 5 5 2 5
left_child=4 2 -2 -4 -1 -3
right_child=1 5 3 -5 -6 -7
leaf_value=0.0758590663981034 -0.077462416381290811 0.021445101075599236 -0.02609329888469035 0.0086305343292191351 0.0036047392622507099 -0.061900348086211546
leaf_count=66669 1423576 112180 7364674 9294978 182143 4972362
internal_value=0 -0.0791054 -0.0122267 0.0182097 0.444993 -0.534453
internal_count=23416582 23167770 18083228 16659652 248812 5084542
cat_boundaries=0 5 21 26 31
cat_threshold=595584449 671352896 4104 8193 8192 316670064 16969794 1615462424 538976640 8388608 1 65536 0 0 0 0 0 0 0 0 2 192518 551551024 2164528128 8 262144 135921697 338056 1310977 33558529 8388608
shrinkage=0.1


Tree=46
num_leaves=7
num_cat=4
split_feature=11 4 1 9 3 1
split_gain=55166.2 37615.4 33559.5 31315.4 26968 21472.8
threshold=1.5000000000000002 0 1 41.500000000000007 2 3
decision_type=2 5 5 2 5 5
left_child=1 -1 -3 -4 -2 -6
right_child=4 2 3 -5 5 -7
leaf_value=0.045394215771861382 0.0010477666364666798 0.031074564016059705 -0.033575861344884557 0.041615114170950374 -0.017837198051540725 -0.056817207922871052
leaf_count=1417924 5510890 1293711 3021915 339038 6195720 5637384
internal_value=0 0.170495 0.0195377 -0.181358 -0.154844 -0.282269
internal_count=23416582 6072588 4654664 3360953 17343994 11833104
cat_boundaries=0 16 20 24 31
cat_threshold=1074397192 0 0 2152333344 131072 0 144703488 525312 16778240 0 0 0 33816576 612368416 262160 513 51151624 1138696 2 570427393 560463873 537139264 8 1 538841001 67446972 261 33577088 0 0 1024
shrinkage=0.1


Tree=47
num_leaves=7
num_cat=5
split_feature=11 3 4 5 4 1
split_gain=44605.4 40459.7 32310 23537.4 21029.9 19954.2
threshold=4.5000000000000009 0 1 2 3 4
decision_type=2 5 5 1 5 5
left_child=1 2 -1 -4 -3 -2
right_child=5 4 3 -5 -6 -7
leaf_value=-0.022549286194585745 0.052076965798405331 0.053032662311728963 0.036594735425190268 0.0068417065901092882 -0.033526658733360061 -0.030537373028892034
leaf_count=2256003 135369 122517 3423392 3465049 4710559 9303693
internal_value=0 0.0678568 0.148394 0.217041 -0.250673 -0.259999
internal_count=23416582 13977520 9144444 6888441 4833076 9439062
cat_boundaries=0 5 21 22 37 40
cat_threshold=729752721 671352917 4104 1 134225920 17309696 0 0 542113792 37748865 262144 8192 262144 512 2684354560 134218084 34083328 4194304 1073741824 2049 1041 496 0 0 0 4325376 0 4194304 2097152 0 1024 0 0 0 262144 32 524289 672270337 8192 1572864
shrinkage=0.1


Tree=48
num_leaves=7
num_cat=4
split_feature=12 1 4 3 8 4
split_gain=40973.8 43077.5 26349.3 25800.2 25484 21780.6
threshold=3401.0000000000005 0 1 2 23.500000000000004 3
decision_type=2 5 5 5 2 5
left_child=-1 2 3 -2 -4 -3
right_child=1 5 4 -5 -6 -7
leaf_value=0.051102874924553815 -0.005771903409776678 0.2159048481225872 0.04849135700924323 -0.072398214557078205 0.0052589294419870935 -0.034502024169372224
leaf_count=214019 5363609 1099 300562 1032833 4821126 11683334
internal_value=0 -0.0595431 0.0216643 -0.116144 0.147033 -0.326159
internal_count=23416582 23202563 11518130 6396442 5121688 11684433
cat_boundaries=0 3 19 47 54
cat_threshold=672927656 67108865 1 2097152 0 0 122161152 512 0 8396800 0 16777220 2684354560 142622724 50855936 33554432 603980034 264192 1155 595584841 267072 20975616 40960 8704 0 0 0 0 0 0 0 0 0 0 0 0 0 0 0 0 0 0 0 0 0 0 4 0 0 0 0 0 0 2097152
shrinkage=0.1


Tree=49
num_leaves=7
num_cat=3
split_feature=2 7 3 7 9 4
split_gain=47925.7 37406 48325.3 43831 26594 21986.6
threshold=0 78.500000000000014 1 1287.5000000000002 1.5000000000000002 2
decision_type=5 2 5 2 2 5
left_child=-1 4 3 -3 5 -2
right_child=1 2 -4 -5 -6 -7
leaf_value=-0.0847774124913519 -0.07183286498581623 -0.011362188539506641 -0.055046917901662509 0.024310517676504318 0.012405029599590315 0.08684972840539136
leaf_count=1305569 30576 10910590 3994285 6270920 852987 51655
internal_value=0 0.0119741 -0.0482074 0.00827728 0.316685 0.727042
internal_count=23416582 22111013 21175795 17181510 935218 82231
cat_boundaries=0 121 149 164
cat_threshold=36 134217728 0 0 0 0 0 0 0 0 0 0 0 0 0 0 0 0 0 0 0 0 0 0 0 0 0 0 0 0 0 0 0 0 0 0 0 0 0 0 0 0 0 0 0 0 0 0 0 0 0 0 0 0 0 0 0 0 0 0 0 0 0 0 0 0 0 0 0 0 0 0 0 0 0 0 0 0 0 0 0 0 0 0 0 0 0 0 0 0 0 0 0 0 0 0 0 0 0 0 0 0 0 0 0 0 0 0 0 0 0 0 0 0 0 0 0 0 0 0 67108864 595584833 537133120 8 8193 8192 0 0 0 0 0 0 0 0 0 0 0 0 0 0 0 0 0 0 0 0 0 0 4 18874376 0 0 536873472 135300 262144 0 3155200 1544 536870912 16384 2621440 0 1073742112 539754498
shrinkage=0.1


Tree=50
num_leaves=7
num_cat=3
split_feature=2 1 11 13 8 3
split_gain=40877.5 41425.1 40624.6 25820.2 22540.5 11239.8
threshold=0 1 1.5000000000000002 623.50000000000011 15696.000000000002 2
decision_type=5 5 2 2 2 5
left_child=-1 5 3 -3 -4 -2
right_child=1 2 4 -5 -6 -7
leaf_value=-0.080500239546461683 -0.012232935893493028 0.036931136112197907 -0.0092917113997886096 -0.0015730984069259617 0.082519636142275699 -0.065552239889617545
leaf_count=1304856 1633004 2459549 12633025 1525976 243359 3616813
internal_value=0 0.00972245 0.053164 0.23127 -0.0699344 -0.461468
internal_count=23416582 22111726 16861909 3985525 12876384 5249817
cat_boundaries=0 121 128 133
cat_threshold=36 134217728 0 0 0 0 0 0 0 0 0 0 0 0 0 0 0 0 0 0 0 0 0 0 0 0 0 0 0 0 0 0 0 0 0 0 0 0 0 0 0 0 0 0 0 0 0 0 0 0 0 0 0 0 0 0 0 0 0 0 0 0 0 0 0 0 0 0 0 0 0 0 0 0 0 0 0 0 0 0 0 0 0 0 0 0 0 0 0 0 0 0 0 0 0 0 0 0 0 0 0 0 0 0 0 0 0 0 0 0 0 0 0 0 0 0 0 0 0 0 67108864 2459971666 21139522 1615466520 2105608 8388608 1 65536 2152218624 270532612 16656 136380434 8736
shrinkage=0.1


Tree=51
num_leaves=7
num_cat=3
split_feature=11 13 3 1 7 1
split_gain=40078.1 31694.8 28405.9 19573.4 18572.4 16811.5
threshold=5.5000000000000009 525.50000000000011 0 1 1615.5000000000002 2
decision_type=2 2 5 5 2 5
left_child=1 5 3 -3 -2 -1
right_child=4 2 -4 -5 -6 -7
leaf_value=0.036115459124409728 -0.04955917873111737 -0.051305584492330261 -0.032788149599358739 0.012204155110252541 -0.0092442035689759058 0.0066481084118735507
leaf_count=2333277 3725627 883593 4335308 2989801 4489465 4659511
internal_value=0 0.0644185 -0.0699788 0.0609373 -0.268932 0.210335
internal_count=23416582 15201490 8208702 3873394 8215092 6992788
cat_boundaries=0 5 12 19
cat_threshold=694773889 671356992 4104 1 134225920 396394608 1166184480 541066264 2105728 8388608 1 66560 83889929 1083467916 5506310 33577089 0 0 1024
shrinkage=0.1


Tree=52
num_leaves=7
num_cat=4
split_feature=2 4 8 1 8 1
split_gain=35284.3 32696.7 25424.8 31303.7 26936.2 12617.7
threshold=0 1 6.5000000000000009 2 207.50000000000003 3
decision_type=5 5 2 5 2 5
left_child=-1 5 3 -3 -4 -2
right_child=1 2 4 -5 -6 -7
leaf_value=-0.076829610384700223 -0.083627699454750404 -0.041990152562390845 -0.0073720306916692166 0.068625863019419794 0.020221740560702126 -0.021566241772571861
leaf_count=1306081 929118 89693 8749912 85760 5953067 6302951
internal_value=0 0.00847671 0.063028 0.451719 0.0244705 -0.290282
internal_count=23416582 22110501 14878432 175453 14702979 7232069
cat_boundaries=0 121 137 144 147
cat_threshold=36 134217728 0 0 0 0 0 0 0 0 0 0 0 0 0 0 0 0 0 0 0 0 0 0 0 0 0 0 0 0 0 0 0 0 0 0 0 0 0 0 0 0 0 0 0 0 0 0 0 0 0 0 0 0 0 0 0 0 0 0 0 0 0 0 0 0 0 0 0 0 0 0 0 0 0 0 0 0 0 0 0 0 0 0 0 0 0 0 0 0 0 0 0 0 0 0 0 0 0 0 0 0 0 0 0 0 0 0 0 0 0 0 0 0 0 0 0 0 0 0 67108864 16785408 0 0 538443776 33554561 262144 1056768 2109440 16777216 134217728 1048836 34083328 272760832 1073741824 536872960 132112 2274652944 1947336721 4457482 2099456 0 1 65536 545407584 16809984 536870914
shrinkage=0.1


Tree=53
num_leaves=7
num_cat=2
split_feature=12 3 11 8 7 1
split_gain=32478 30505.3 22627 24000.4 17499.3 17439.5
threshold=3401.0000000000005 0 5.5000000000000009 273.50000000000006 1412.5000000000002 1
decision_type=2 5 2 2 2 5
left_child=-1 2 3 -2 -4 -3
right_child=1 5 4 -5 -6 -7
leaf_value=0.04772198340517661 0.0022611249824146746 -0.017211238963376122 -0.045328823915798101 0.04208502017973223 -0.0023392916687549879 -0.06560695716131823
leaf_count=214087 7734118 3733426 2770228 1529084 3656575 3779064
internal_value=0 -0.048358 0.0136078 0.0845261 -0.192298 -0.304098
internal_count=23416582 23202495 15690005 9263202 6426803 7512490
cat_boundaries=0 5 8
cat_threshold=1635739793 537139280 4096 1 134225920 672927656 75497488 1
shrinkage=0.1


Tree=54
num_leaves=7
num_cat=5
split_feature=2 7 3 1 1 1
split_gain=32540.8 27465.8 37453.9 36810 23163.7 15307.2
threshold=0 40.500000000000007 1 2 3 4
decision_type=5 2 5 5 5 5
left_child=-1 4 3 -3 -2 -6
right_child=1 2 -4 -5 5 -7
leaf_value=-0.076030202875870978 -0.041473279507303284 -0.099513940300118522 -0.052703785096513113 0.003251284920067462 0.029877210489404577 0.093163879045748937
leaf_count=1305628 168959 818073 3392207 17433412 276459 21844
internal_value=0 0.00995946 -0.0342294 0.00953922 0.323722 0.451969
internal_count=23416582 22110954 21643692 18251485 467262 298303
cat_boundaries=0 121 149 165 172 175
cat_threshold=36 134217728 0 0 0 0 0 0 0 0 0 0 0 0 0 0 0 0 0 0 0 0 0 0 0 0 0 0 0 0 0 0 0 0 0 0 0 0 0 0 0 0 0 0 0 0 0 0 0 0 0 0 0 0 0 0 0 0 0 0 0 0 0 0 0 0 0 0 0 0 0 0 0 0 0 0 0 0 0 0 0 0 0 0 0 0 0 0 0 0 0 0 0 0 0 0 0 0 0 0 0 0 0 0 0 0 0 0 0 0 0 0 0 0 0 0 0 0 0 0 67108864 595584841 537137728 4104 8193 8192 0 0 0 0 0 0 0 0 0 0 0 0 0 0 0 0 0 0 0 0 0 0 4 276824176 16949312 541720600 538976640 8388608 1 65536 0 0 0 0 0 0 0 0 2 399569234 1962934273 1610612739 2099456 8388608 1 66560 539888269 9748512 1310720
shrinkage=0.1


Tree=55
num_leaves=7
num_cat=4
split_feature=11 15 4 4 4 4
split_gain=27502.8 27496.8 25295.9 19802 19574.2 15853.8
threshold=5.5000000000000009 19120471.500000004 0 1 2 3
decision_type=2 2 5 5 5 5
left_child=1 3 -3 -1 -5 -2
right_child=5 2 -4 4 -6 -7
leaf_value=-0.021218633238659933 0.0073422098092986894 -0.057852118564982194 -0.0016585348552630088 0.0065584785811369341 0.03846424251499652 -0.034348455673517041
leaf_count=2006047 1838699 1854708 5248750 3179006 2913237 6376135
internal_value=0 0.0576301 -0.0913704 0.174407 0.23222 -0.223701
internal_count=23416582 15201748 7103458 8098290 6092243 8214834
cat_boundaries=0 16 32 48 64
cat_threshold=532480 0 0 873497088 1 4456448 0 2097152 520 671088640 1048640 34083328 272629764 1073758240 536870912 1042 17309696 0 0 872415232 37748864 0 1056768 2101248 512 0 672137540 134222336 301989888 1073742080 526338 1040 131080 0 0 51382304 1 0 8388608 1056768 20971520 2818572288 8405024 52428800 196608 67108864 1076133889 129 655360 0 0 67143680 33559045 0 136839168 1280 4194304 2684354560 8405024 167772160 327680 16384 1075871745 130
shrinkage=0.1


Tree=56
num_leaves=7
num_cat=5
split_feature=2 12 3 1 1 1
split_gain=28277.7 26010.8 23231.9 21028 19455.4 15013.5
threshold=0 3401.0000000000005 1 2 3 4
decision_type=5 2 5 5 5 5
left_child=-1 3 -3 -2 -4 -5
right_child=1 2 4 5 -6 -7
leaf_value=-0.07148699460757027 -0.062536029620400238 0.0073777371981448327 -0.060710642114881266 -0.0085461955249165351 -0.0093015284046262317 0.086354732756653896
leaf_count=1306013 62923 11329220 3235773 43457 7393967 45229
internal_value=0 0.0219342 -0.00636463 0.488864 -0.162551 0.656574
internal_count=23416582 22110569 21958960 151609 10629740 88686
cat_boundaries=0 121 149 165 170 177
cat_threshold=36 134217728 0 0 0 0 0 0 0 0 0 0 0 0 0 0 0 0 0 0 0 0 0 0 0 0 0 0 0 0 0 0 0 0 0 0 0 0 0 0 0 0 0 0 0 0 0 0 0 0 0 0 0 0 0 0 0 0 0 0 0 0 0 0 0 0 0 0 0 0 0 0 0 0 0 0 0 0 0 0 0 0 0 0 0 0 0 0 0 0 0 0 0 0 0 0 0 0 0 0 0 0 0 0 0 0 0 0 0 0 0 0 0 0 0 0 0 0 0 0 67108864 560472193 671356944 4096 8193 8192 0 0 0 0 0 0 0 0 0 0 0 0 0 0 0 0 0 0 0 0 0 0 4 2147483664 627216498 1615466520 2105736 8388608 1 65536 0 0 0 0 0 0 0 0 2 316829778 16809985 536870913 0 8388608 131072 1351682048 2164524033 536872960 262144 0 1024
shrinkage=0.1


Tree=57
num_leaves=7
num_cat=1
split_feature=11 13 7 1 7 11
split_gain=23065.3 20432.8 18726.8 26115.7 20567.5 18572.3
threshold=1.5000000000000002 623.50000000000011 1615.5000000000002 0 110.50000000000001 12.500000000000002
decision_type=2 2 2 5 2 2
left_child=1 -1 4 5 -2 -4
right_child=2 -3 3 -5 -6 -7
leaf_value=0.024775867975930736 0.014659999495005856 -0.0081083409537730574 0.050102768954895377 -0.026439827048458309 -0.025922694816363157 -0.0037175810558606154
leaf_count=3606443 846623 2467334 1667692 3254817 9942174 1631499
internal_value=0 0.128295 -0.0898934 0.0860297 -0.179291 0.271772
internal_count=23416582 6073777 17342805 6554008 10788797 3299191
cat_boundaries=0 4
cat_threshold=722733961 1141196857 1048833 22656
shrinkage=0.1


Tree=58
num_leaves=7
num_cat=3
split_feature=11 4 4 1 8 8
split_gain=20796.2 20621.5 19771.9 18552.7 19810.5 17066.1
threshold=1.5000000000000002 0 1 2 357.50000000000006 15696.000000000002
decision_type=2 5 5 5 2 2
left_child=2 -2 -1 -4 -5 -3
right_child=1 5 3 4 -6 -7
leaf_value=0.042524917607087938 -0.042121444754667281 -0.0063007787125848357 -0.099535731429062177 0.0002151297767642239 0.057011176512779177 0.070563449145116128
leaf_count=608974 4629416 12395569 272377 4570953 622210 317083
internal_value=0 -0.093766 0.113655 0.0360169 0.0635079 -0.040531
internal_count=23416582 17342068 6074514 5465540 5193163 12712652
cat_boundaries=0 16 32 39
cat_threshold=16785416 0 0 542638080 1 0 1056768 2633728 16777220 134217728 260 17305600 306315264 1140850976 0 1040 1090519040 0 0 131072 131072 0 2097152 787456 4195328 0 536870912 0 33882112 536871200 262160 2 1082130480 560075842 2705463320 538968456 10747904 1 65536
shrinkage=0.1


Tree=59
num_leaves=7
num_cat=4
split_feature=7 3 8 1 1 1
split_gain=20241.8 38999.3 30364.2 28423.8 24588.3 20377.3
threshold=124.50000000000001 0 186.50000000000003 1 2 3
decision_type=2 5 2 5 5 5
left_child=4 2 5 -4 -1 -2
right_child=1 -3 3 -5 -6 -7
leaf_value=0.049348542137928102 -0.0039258089791155762 -0.059280115285499958 0.031134929625408821 -0.011543723629599104 -0.0015090693030456832 -0.038438291420455718
leaf_count=375298 5782842 3408990 3452488 5355707 1370937 3670320
internal_value=0 -0.0600532 -0.0141493 0.14565 0.193307 -0.143567
internal_count=23416582 21670347 18261357 8808195 1746235 9453162
cat_boundaries=0 5 12 28 32
cat_threshold=595584841 671355464 8 8192 8396800 722766721 1409550521 262403 18561 0 0 1024 671745065 8726684 1079772420 570445953 0 0 0 0 0 0 0 0 0 0 0 2 67928845 537198732 1048836 33558529
shrinkage=0.1


Tree=60
num_leaves=7
num_cat=4
split_feature=2 12 7 4 4 4
split_gain=22597.5 20546.4 16438.1 29702.5 29548.9 12260.3
threshold=0 3401.0000000000005 1615.5000000000002 1 2 3
decision_type=5 2 2 5 5 5
left_child=-1 5 3 -3 -4 -2
right_child=1 2 4 -5 -6 -7
leaf_value=-0.066360300970304972 -0.0069366424511894441 0.03832410396386296 0.053111118860276266 -0.011947483858431444 -0.0017043304217582577 0.066730555218256105
leaf_count=1305724 90144 391997 1527810 14863710 5176234 60963
internal_value=0 0.0096147 -0.0151963 -0.0711901 0.145685 0.438626
internal_count=23416582 22110858 21959751 15255707 6704044 151107
cat_boundaries=0 121 137 153 168
cat_threshold=36 150994944 0 0 0 0 0 0 0 0 0 0 0 0 0 0 0 0 0 0 0 0 0 0 0 0 0 0 0 0 0 0 0 0 0 0 0 0 0 0 0 0 0 0 0 0 0 0 0 0 0 0 0 0 0 0 0 0 0 0 0 0 0 0 0 0 0 0 0 0 0 0 0 0 0 0 0 0 0 0 0 0 0 0 0 0 0 0 0 0 0 0 0 0 0 0 0 0 0 0 0 0 0 0 0 0 0 0 0 0 0 0 0 0 0 0 0 0 0 0 67108864 1073741824 0 0 16908288 0 4194304 2097152 262144 1024 0 0 0 262144 16416 2 131072 131072 0 0 2483061248 4330117 8192 134217728 0 12 2147483648 16480 18874368 0 540674 1076398080 128 2097152 0 0 16777216 64 0 134217728 0 16777216 0 134217728 136839680 4194304 1073741856 2097154
shrinkage=0.1


Tree=61
num_leaves=7
num_cat=5
split_feature=3 4 1 4 9 4
split_gain=20434.3 17612.1 17128.2 15226.4 16118 14960.3
threshold=0 1 2 3 1.5000000000000002 4
decision_type=5 5 5 5 2 5
left_child=1 -1 3 -2 -5 -4
right_child=2 -3 5 4 -6 -7
leaf_value=-0.017679662383906024 -0.011155935613130288 0.019189133940411458 0.023264972874183401 0.07665397584720185 0.0081145886352525978 -0.035794514449233282
leaf_count=1758849 5271122 5038016 460855 53704 2756497 8077539
internal_value=0 0.118787 -0.0879202 -0.00801659 0.173859 -0.273144
internal_count=23416582 6796865 16619717 8081323 2810201 8538394
cat_boundaries=0 5 21 25 41 56
cat_threshold=560464001 536877060 4104 1 8192 8200 0 0 541065216 641 8192 1056768 0 20971528 2684354560 135266596 528896 33554436 1073742080 1073741824 1169 136056745 352396 1075314945 570429441 0 0 0 122161152 131584 8192 8396800 1048832 16777220 2684354560 134234148 50331648 0 67109152 264194 1538 131072 0 0 67143712 0 0 2097152 0 1024 0 0 0 65536 16384 1073741824
shrinkage=0.1


Tree=62
num_leaves=7
num_cat=4
split_feature=3 11 7 1 4 4
split_gain=19603.2 17037.1 21181.7 25619.2 18995.8 16589.3
threshold=0 9.5000000000000018 2472.5000000000005 1 2 3
decision_type=5 2 2 5 5 5
left_child=1 2 4 -4 -1 -3
right_child=-2 5 3 -5 -6 -7
leaf_value=-0.02642877071592567 -0.017771973849997361 0.036503650178244237 0.1244043917899233 0.019601893188438552 0.011278957858569857 -0.03139889983816143
leaf_count=2210295 8603178 635371 298524 563648 7586440 3519126
internal_value=0 0.0544624 0.101689 0.523581 0.0611829 -0.189364
internal_count=23416582 14813404 10658907 862172 9796735 4154497
cat_boundaries=0 5 12 28 44
cat_threshold=560604561 537139248 4104 8193 134225920 2601781386 335806505 262147 0 0 0 1024 16777216 0 0 873463808 33554561 4194304 134217728 9216 4194312 2684354560 1048676 4608 268566528 1074266112 1073743872 132240 524288 0 0 352321536 33554565 4194304 143130624 5120 4194312 2684354560 8405088 33554432 131072 8404992 1073741825 130
shrinkage=0.1


Tree=63
num_leaves=7
num_cat=5
split_feature=5 8 4 4 4 1
split_gain=19083.5 17374.3 19666.7 13253.8 15449.4 13087.1
threshold=0 15696.000000000002 1 2 3 4
decision_type=1 2 5 5 5 5
left_child=3 2 -2 -1 -5 -4
right_child=1 -3 5 4 -6 -7
leaf_value=-0.018662728800740332 -0.052483339995723494 0.065446437673301092 0.0019864017585226007 0.0040712836663642366 0.032888184382263055 -0.023370847724673037
leaf_count=2433903 2656057 332049 5148589 5593587 2850568 4401829
internal_value=0 -0.102468 -0.125235 0.0951325 0.144723 -0.0749509
internal_count=23416582 12538524 12206475 10878058 8444155 9550418
cat_boundaries=0 1 17 33 49 53
cat_threshold=496 16916480 0 0 542114304 1 4456448 8192 2105344 16777216 671088640 1048868 34078720 272629764 1610612768 536870912 1168 16785416 0 0 559415296 37748864 0 1056768 536576 0 0 672137476 134222336 33554432 1140850688 1073743874 1040 524288 0 0 100665344 131136 270336 8388608 3147008 16777224 2684354560 8405024 52953088 131072 8913152 537657344 2 156108333 10821773 1573121 33558529
shrinkage=0.1


Tree=64
num_leaves=7
num_cat=4
split_feature=11 5 1 1 8 1
split_gain=19017.5 21117.5 12519.6 13992 11354.8 8598.85
threshold=4.5000000000000009 0 1 2 15696.000000000002 3
decision_type=2 1 5 5 2 5
left_child=1 5 -3 -4 -2 -1
right_child=4 2 3 -5 -6 -7
leaf_value=0.012948076689606139 -0.021583782809038263 -0.085139302580401172 -0.007248679065419119 0.018976955200377014 0.041579487520664288 -0.02579976795760662
leaf_count=390273 9064303 481543 3743574 6122284 375941 3238664
internal_value=0 0.0474922 0.113746 0.125412 -0.177953 -0.172919
internal_count=23416582 13976338 10347401 9865858 9440244 3628937
cat_boundaries=0 1 17 25 34
cat_threshold=26624 1082130512 86152258 2705987608 2097416 10747904 1 65536 0 0 0 0 0 0 0 0 2 2992666754 1891696688 262151 10368 64 8389632 8388608 256 786433 68509836 1048833 570429441 64 0 8388608 256 1024
shrinkage=0.1


Tree=65
num_leaves=7
num_cat=5
split_feature=3 3 1 12 4 1
split_gain=18627.6 14639.2 15972.9 16213.4 11219.5 9440.61
threshold=0 1 2 3401.0000000000005 3 4
decision_type=5 5 5 2 5 5
left_child=4 2 -2 -4 -1 -6
right_child=1 -3 3 -5 5 -7
leaf_value=-0.015006679581969412 -0.049742919272438541 -0.064087636511060142 0.054319099149188137 -0.0059446866322609062 -0.023831344323755586 0.019712891332835058
leaf_count=1601054 3491908 1107180 57290 11891034 603083 4665033
internal_value=0 -0.0888971 -0.0654666 -0.0314128 0.109321 0.162342
internal_count=23416582 16547412 15440232 11948324 6869170 5268116
cat_boundaries=0 5 8 24 40 56
cat_threshold=560464001 536872980 8 8193 134225920 1251475290 134648681 4096 2464157778 1897041920 541328392 538978560 8388608 1 65536 0 0 0 0 0 0 0 0 2 1073750024 0 0 537395200 129 262144 1056768 0 20972544 2684354560 134217988 2626048 302055424 1610612768 1073774592 1040 245366960 620955696 524288 538986880 0 1 65536 0 0 0 0 0 0 0 0 2
shrinkage=0.1


Tree=66
num_leaves=7
num_cat=4
split_feature=2 12 5 7 4 4
split_gain=17506.3 14915.8 13582.6 17278.1 11433 10631
threshold=0 3401.0000000000005 1 963.50000000000011 2 3
decision_type=5 2 1 2 5 5
left_child=5 -2 4 -4 -3 -1
right_child=1 2 3 -5 -6 -7
leaf_value=0.012422529547369996 0.038304875833517507 0.061612162693856526 -0.024957152011104683 0.0062388466253532372 0.0035166505346626836 -0.091715141100892128
leaf_count=283696 151258 329887 5053620 4542754 12033485 1021882
internal_value=0 0.00245589 -0.0183152 -0.122589 0.0544883 -0.612816
internal_count=23416582 22111004 21959746 9596374 12363372 1305578
cat_boundaries=0 121 122 138 153
cat_threshold=36 134234112 0 0 0 0 256 0 0 0 0 0 0 0 0 0 0 0 0 0 0 0 0 0 0 0 0 0 0 0 0 0 0 0 0 0 0 0 0 0 0 0 0 0 0 0 0 0 0 0 0 0 0 0 0 0 0 0 0 0 0 0 0 0 0 0 0 0 0 0 0 0 0 0 0 0 0 0 0 0 0 0 0 0 0 0 0 0 0 0 0 0 0 0 0 0 0 0 0 0 0 0 0 0 0 0 0 0 0 0 0 0 0 0 0 0 0 0 0 0 67108864 1520 1073741824 0 0 164352 0 0 0 262144 0 0 0 512 327680 536870944 524288 131072 1075838984 0 0 570425376 4194305 8192 524288 794624 16777216 536870912 9437184 167772160 0 256 524291
shrinkage=0.1


Tree=67
num_leaves=7
num_cat=4
split_feature=3 11 7 4 4 4
split_gain=16199.8 16748.3 19464.2 21909.1 17926.6 13462.6
threshold=0 7.5000000000000009 2472.5000000000005 1 2 3
decision_type=5 2 2 5 5 5
left_child=1 2 4 -4 -1 -3
right_child=-2 5 3 -5 -6 -7
leaf_value=-0.025805067918763178 -0.025422127873161362 0.010555601937553991 0.13193482098271134 0.025393380587001569 0.0089598480955134438 -0.033089700767199713
leaf_count=2234175 5074466 1419300 296414 843192 9380029 4169006
internal_value=0 0.033614 0.0800317 0.45429 0.0429917 -0.176945
internal_count=23416582 18342116 12753810 1139606 11614204 5588306
cat_boundaries=0 5 21 37 53
cat_threshold=728755601 537139313 4104 1 134225920 0 0 0 336069120 4194944 8192 134217728 274432 4194312 2147483648 1048608 2097664 302055424 76022016 2623505 128 16916480 0 0 621805568 37748865 0 8192 4096 1024 2684354560 9437540 4608 4194304 1073742080 1073741824 1169 524288 0 0 335546368 4161 4202496 134217728 1049600 520 2684354560 142622816 33554432 393216 540672 1073774593 642
shrinkage=0.1


Tree=68
num_leaves=7
num_cat=4
split_feature=0 8 4 1 4 3
split_gain=17249.2 23822.9 27182.2 21722.8 19982.3 16989.8
threshold=277487.50000000006 207.50000000000003 0 1 2 3
decision_type=2 2 5 5 5 5
left_child=1 -1 3 -3 -2 -4
right_child=4 2 5 -5 -6 -7
leaf_value=-0.014206096503734101 -0.048636041519429379 -0.42906922466675951 0.026194448159591845 -0.033781259806676067 0.0300865654962299 -0.021719674790340687
leaf_count=12015107 304832 7835 6131797 2377420 1319496 1260095
internal_value=0 -0.041065 0.105489 -0.398511 0.212247 0.187618
internal_count=23416582 21792254 9777147 2385255 1624328 7391892
cat_boundaries=0 16 18 34 39
cat_threshold=1090527240 0 0 541229056 4194304 4194304 3153920 794624 16778240 134217728 4 528896 272629764 32 536870914 132112 1056 8196 532480 0 0 806912512 135168 0 9437184 2109440 4194308 2818572288 536871232 35651584 196612 1073741824 1074266112 1024 2531256128 776 8 0 8192
shrinkage=0.1


Tree=69
num_leaves=7
num_cat=4
split_feature=11 13 4 4 4 1
split_gain=18731.6 16098 19670.4 14072.9 12467.1 11981.5
threshold=2.5000000000000004 697.50000000000011 0 1 2 3
decision_type=2 2 5 5 5 5
left_child=1 4 -3 -2 -1 -6
right_child=3 2 -4 -5 5 -7
leaf_value=-0.013675997331062791 -0.04587647630648177 -0.077172475415019856 -0.0015930034219098091 -0.006494421629991665 -0.020038190901089617 0.024397428009832339
leaf_count=1268661 3928060 624960 2224799 9653188 674590 5042324
internal_value=0 0.0835158 -0.123076 -0.116474 0.152237 0.202935
internal_count=23416582 9835334 2849759 13581248 6985575 5716914
cat_boundaries=0 16 32 48 64
cat_threshold=2228224 0 0 806388224 641 4202496 0 262144 16777216 536870912 1048672 33554432 272891908 16674 536870913 131202 8200 0 0 542245376 0 262144 1056768 524288 16778240 134217728 260 528896 301989892 1073742112 536872962 132113 524288 0 0 624951296 33554432 0 1581056 266240 4194308 536870912 135283012 528896 4390912 1073741826 1074266112 1040 2191655120 1888692256 4718599 538986880 0 1 65536 0 0 0 0 0 0 0 0 2
shrinkage=0.1


Tree=70
num_leaves=7
num_cat=4
split_feature=2 1 12 8 1 2
split_gain=14433.6 15938.7 21173.9 12791 10234.3 7475.77
threshold=0 1 3401.0000000000005 246.50000000000003 2 3
decision_type=5 5 2 2 5 5
left_child=-1 5 4 -4 -3 -2
right_child=1 2 3 -5 -6 -7
leaf_value=-0.055230426007214097 -0.054699697002120552 -0.027133215431304088 -0.0045680744917212792 0.014047548960820846 0.06956663613772758 -0.55405237865970725
leaf_count=1305683 1361241 31594 13286695 7367904 61394 2071
internal_value=0 0.0190224 0.0331316 0.0102443 0.537013 -0.582143
internal_count=23416582 22110899 20747587 20654599 92988 1363312
cat_boundaries=0 121 137 144 149
cat_threshold=36 134217728 0 0 0 0 0 0 0 0 0 0 0 0 0 0 0 0 0 0 0 0 0 0 0 0 0 0 0 0 0 0 0 0 0 0 0 0 0 0 0 0 0 0 0 0 0 0 0 0 0 0 0 0 0 0 0 0 0 0 0 0 0 0 0 0 0 0 0 0 0 0 0 0 0 0 0 0 0 0 0 0 0 0 0 0 0 0 0 0 0 0 0 0 0 0 0 0 0 0 0 0 0 0 0 0 0 0 0 0 0 0 0 0 0 0 0 0 0 0 67108864 2426404944 352458850 541724696 2122112 8388608 1 65536 0 0 0 0 0 0 0 0 2 0 1616920592 3238265859 536872968 262144 0 1024 262147 16777248 8 0 67108864
shrinkage=0.1


Tree=71
num_leaves=7
num_cat=3
split_feature=11 9 4 4 0 4
split_gain=15059.5 18232.3 18929.9 14400.1 14231.6 17557.3
threshold=11.500000000000002 132.50000000000003 0 1 277487.50000000006 2
decision_type=2 2 5 5 2 5
left_child=1 4 -3 -2 -1 -6
right_child=3 2 -4 -5 5 -7
leaf_value=-0.0035347822396210038 0.014058961468430893 0.12978267803494059 0.017612610261603923 -0.040723262125575643 -0.04723954002526342 0.028711390164445634
leaf_count=16825664 936521 177963 388332 3616167 302259 1169676
internal_value=0 0.0314929 0.533894 -0.242274 0.0100587 0.203076
internal_count=23416582 18863894 566295 4552688 18297599 1471935
cat_boundaries=0 16 32 48
cat_threshold=0 0 0 559648 512 270336 142614528 2109440 16777736 2147483648 32 0 131072 612385024 1076398080 131074 131072 0 0 369098752 33558529 0 143130624 1053696 520 2684354560 142622752 169869312 4194304 16384 1076363265 130 532480 0 0 604537344 4096 0 8388608 2098176 4194304 536870912 536887360 36179968 37814276 1141374976 526336 1153
shrinkage=0.1


Tree=72
num_leaves=7
num_cat=3
split_feature=11 3 1 7 3 8
split_gain=16385.9 12151.2 11812.7 13361.9 11629.8 11420.1
threshold=1.5000000000000002 0 1 19.500000000000004 2 120.50000000000001
decision_type=2 5 5 2 5 2
left_child=2 -2 4 -4 -1 -5
right_child=1 -3 3 5 -6 -7
leaf_value=0.030072027816512456 -0.0036517896540164299 -0.03155778218017858 0.046143308900550371 -0.022915119687776406 -0.030239791024557917 0.012452133168151205
leaf_count=1834973 12340211 5002883 73718 2096778 544157 1523862
internal_value=0 -0.082528 0.105851 -0.0068184 0.240394 -0.074102
internal_count=23416582 17343094 6073488 3694358 2379130 3620640
cat_boundaries=0 4 8 36
cat_threshold=1702617345 671488064 20975628 1 17351437 67387528 1048834 570445825 863991627 536877896 4096 1 134217728 0 0 0 0 0 0 0 0 0 0 0 0 0 0 0 0 0 0 0 0 0 0 4
shrinkage=0.1


Tree=73
num_leaves=7
num_cat=3
split_feature=7 1 3 4 11 7
split_gain=13645.3 21278.2 15031.9 14055.6 13077.5 11822.2
threshold=76072.500000000015 0 1 2 18.500000000000004 2472.5000000000005
decision_type=2 5 5 5 2 2
left_child=2 -2 4 -4 5 -1
right_child=1 -3 3 -5 -6 -7
leaf_value=0.0034604613521738593 0.21145770168498657 0.022214646596906258 -0.058706692773115111 -0.0096836797961020304 -0.029237601891435969 0.035028306715189944
leaf_count=10593886 44299 372921 2155124 6893373 2154654 1202325
internal_value=0 0.594334 -0.0139304 -0.166296 0.0388331 0.0672629
internal_count=23416582 417220 22999362 9048497 13950865 11796211
cat_boundaries=0 4 9 25
cat_threshold=372378752 16 2 536870912 1634429057 536872965 8 1 134225920 18882560 0 0 857244160 0 8192 1056768 12288 516 536870912 1048640 33559040 4194304 0 536905730 132098
shrinkage=0.1


Tree=74
num_leaves=7
num_cat=5
split_feature=1 13 1 1 4 4
split_gain=14590.6 13896.3 19171.8 13066.1 17882.2 12491.7
threshold=0 573.50000000000011 1 2 3 4
decision_type=5 2 5 5 5 5
left_child=-1 3 -3 -2 -5 -4
right_child=1 2 5 4 -6 -7
leaf_value=-0.11078549797075653 -0.0078272870833289987 -0.039409149458575092 -0.023755812634630419 0.050648206466702927 0.0086176596716534149 0.0063829033466269698
leaf_count=493690 4033945 4860470 2312077 1204637 6476782 4034981
internal_value=0 0.00359893 -0.0894772 0.0825638 0.161982 -0.0169521
internal_count=23416582 22922892 11207528 11715364 7681419 6347058
cat_boundaries=0 16 25 34 50 66
cat_threshold=1082130448 560075842 2701269016 2105608 8650752 8388609 8454144 256 0 0 0 0 0 0 0 2 526446818 1083211792 1078199302 2176 64 1024 1024 0 1024 2989359302 68257841 1074528256 570431488 2097216 1024 1024 0 1024 1075838976 0 0 2147650080 4160 4194304 136314880 786432 512 0 671088640 524288 4325376 536870946 524288 2 1073741824 0 0 34078720 131585 4194304 9445376 8192 16777220 2684354560 16420 50860032 262144 537411872 536870913 1026
shrinkage=0.1


Tree=75
num_leaves=7
num_cat=4
split_feature=1 2 1 11 13 4
split_gain=12307.9 10585.5 11192.2 10440.2 11551.6 10135.3
threshold=0 1 2 1.5000000000000002 808.50000000000011 3
decision_type=5 5 5 2 2 5
left_child=-1 2 -2 4 -3 -5
right_child=1 3 -4 5 -6 -7
leaf_value=-0.10236398890427928 -0.096405152945144082 0.014804555894215091 0.0076630342509765087 -0.031789354642068793 -0.026274068796960533 -0.0012516371910993879
leaf_count=538877 842714 4829336 408528 4120001 719103 11958023
internal_value=0 0.00440176 -0.493666 0.0156585 0.106411 -0.0466505
internal_count=23416582 22877705 1251242 21626463 5548439 16078024
cat_boundaries=0 8 129 133 149
cat_threshold=1082130448 23237698 2705464344 2105600 8650752 8389633 65536 256 36 134217728 0 0 0 0 0 0 0 0 0 0 0 0 0 0 0 0 0 0 0 0 0 0 0 0 0 0 0 0 0 0 0 0 0 0 0 0 0 0 0 0 0 0 0 0 0 0 0 0 0 0 0 0 0 0 0 0 0 0 0 0 0 0 0 0 0 0 0 0 0 0 0 0 0 0 0 0 0 0 0 0 0 0 0 0 0 0 0 0 0 0 0 0 0 0 0 0 0 0 0 0 0 0 0 0 0 0 0 0 0 0 0 0 0 0 0 0 0 0 67108864 252755814 1150288017 262150 6144 16785416 0 0 542638080 0 0 1056768 2633728 16777216 134217728 1048900 16781312 306184196 1073742112 526336 1025
shrinkage=0.1


Tree=76
num_leaves=7
num_cat=3
split_feature=7 7 1 5 1 11
split_gain=11495.1 20718.4 22392.8 15245.2 14620.8 14956.7
threshold=137.50000000000003 853.50000000000011 0 1 2 4.5000000000000009
decision_type=2 2 5 1 5 2
left_child=3 4 -3 -1 5 -2
right_child=1 2 -4 -5 -6 -7
leaf_value=-0.0073135193809772368 -0.00083400822973255819 -0.10382283357238559 0.010307498897760248 0.032607740601957605 -0.042002323439165386 -0.041035819479527065
leaf_count=1072294 5830571 398479 10649283 916591 1889349 2660015
internal_value=0 -0.0432796 0.0759299 0.149788 -0.158826 -0.0855368
internal_count=23416582 21427697 11047762 1988885 10379935 8490586
cat_boundaries=0 7 8 17
cat_threshold=276824112 566440006 1615331356 35680512 8388608 8388609 65536 26688 67957517 603988105 1048576 536870920 64 1024 8388608 0 1024
shrinkage=0.1


Tree=77
num_leaves=7
num_cat=4
split_feature=1 11 1 4 7 4
split_gain=11979.1 10846.5 10319.2 12239.9 10171 13680.4
threshold=0 1.5000000000000002 1 2 76072.500000000015 3
decision_type=5 2 5 5 2 5
left_child=-1 2 3 -2 -3 -6
right_child=1 4 -4 -5 5 -7
leaf_value=-0.10986016322638209 0.0090872624116449599 -0.0069888871990134317 0.015571104093248543 -0.052252702518744067 0.15159268410960072 0.010163518226577815
leaf_count=520292 1105247 16665498 4092745 630608 122788 279404
internal_value=0 0.0104514 0.10178 -0.147014 -0.0526485 0.477366
internal_count=23416582 22896290 5828600 1735855 17067690 402192
cat_boundaries=0 8 24 40 56
cat_threshold=1082130448 23204930 3779074072 2105608 10747968 8388609 65536 256 2519871520 1954646064 918535 536871040 0 0 8389632 0 0 0 0 0 0 0 0 2 524288 0 0 272760864 1 262144 136323072 0 1544 0 256 2097152 33619968 256 1610614784 131586 0 0 0 34078752 33554945 0 135266304 0 8 2818572288 64 33554432 0 67108864 1612709888 129
shrinkage=0.1


Tree=78
num_leaves=7
num_cat=6
split_feature=3 3 4 4 4 4
split_gain=12214.5 10072.3 9450.45 9255.37 7893.57 4153.5
threshold=0 1 2 3 4 5
decision_type=5 5 5 5 5 5
left_child=-1 4 -3 -4 -2 -6
right_child=1 2 3 -5 5 -7
leaf_value=-0.1122488761546461 -0.016469279992354948 -0.032229783511563935 -0.012085573501574477 0.0061383783781792135 0.0055416723728656933 0.023182250349837633
leaf_count=319468 1314067 2909592 7105262 7398711 2015869 2353613
internal_value=0 0.00683366 -0.0453604 -0.0179672 0.109548 0.155017
internal_count=23416582 23097114 17413565 14503973 5683549 4369482
cat_boundaries=0 5 9 25 41 57 73
cat_threshold=36 3615498368 69846003 136314966 1024 556269696 671090688 8 1 18882560 0 0 878182912 4194304 0 1056768 2109440 4 671088640 4 528384 4390916 1073758208 2050 1040 8 0 0 50333696 33559041 0 134217728 1048576 16777728 2147483648 143655264 52428800 262144 524576 1612709888 642 16916488 0 0 541065216 128 4456448 1056768 0 16778248 2684354560 135266628 528896 268500992 524322 0 132112 1073741824 0 0 117964800 33686085 8192 143130624 1024 0 0 16416 184549376 0 612368384 1073743889 641
shrinkage=0.1


Tree=79
num_leaves=7
num_cat=4
split_feature=2 12 1 1 3 7
split_gain=11988.5 11188.4 11523.1 11015.6 10676.1 10656.5
threshold=0 3401.0000000000005 1 2 3 1175.5000000000002
decision_type=5 2 5 5 5 2
left_child=-1 2 -2 -4 -3 -6
right_child=1 4 3 -5 5 -7
leaf_value=-0.055010836187490565 -0.04493516143397381 -0.11377727377008261 -0.014714660011671855 0.073328576057745662 -0.006350873858299232 0.010349382314900209
leaf_count=1305817 66920 287083 41546 42913 13595835 8076468
internal_value=0 0.00295265 0.347226 0.508264 -0.0147036 -0.00927401
internal_count=23416582 22110765 151379 84459 21959386 21672303
cat_boundaries=0 121 137 141 146
cat_threshold=36 134217728 0 0 0 0 0 0 0 0 0 0 0 0 0 0 0 0 0 0 0 0 0 0 0 0 0 0 0 0 0 0 0 0 0 0 0 0 0 0 0 0 0 0 0 0 0 0 0 0 0 0 0 0 0 0 0 0 0 0 0 0 0 0 0 0 0 0 0 0 0 0 0 0 0 0 0 0 0 0 0 0 0 0 0 0 0 0 0 0 0 0 0 0 0 0 0 0 0 0 0 0 0 0 0 0 0 0 0 0 0 0 0 0 0 0 0 0 0 0 67108864 2147614736 85069938 1627787288 2105736 8650752 1 66560 0 0 0 0 0 0 0 0 2 0 1893746692 2152203265 536872960 36 3616539776 69853925 2097220 8390176
shrinkage=0.1


Tree=80
num_leaves=7
num_cat=2
split_feature=3 8 11 8 3 7
split_gain=9963.31 8880.38 12596.1 10800.4 7669.28 4976.57
threshold=0 15696.000000000002 16.500000000000004 180.50000000000003 1 150.50000000000003
decision_type=5 2 2 2 5 2
left_child=5 2 3 -2 -3 -1
right_child=1 4 -4 -5 -6 -7
leaf_value=0.027042118345508306 -0.010831839500662268 0.12820378968676627 -0.046488417465739812 0.009623178740872422 0.011058096167259231 0.0055109902055142821
leaf_count=554636 9242042 122185 1879838 6286138 179489 5152254
internal_value=0 -0.0524053 -0.0641915 -0.0384567 0.552646 0.101538
internal_count=23416582 17709692 17408018 15528180 301674 5706890
cat_boundaries=0 4 32
cat_threshold=556269696 536877056 8 8193 46519888 67109680 4096 0 0 0 0 0 0 0 0 0 0 0 0 0 0 0 0 0 0 0 0 0 0 0 0 4
shrinkage=0.1


Tree=81
num_leaves=7
num_cat=3
split_feature=3 11 9 1 1 7
split_gain=10101.4 9677.35 14116 13522.8 11017.4 9479.21
threshold=0 11.500000000000002 132.50000000000003 1 2 2472.5000000000005
decision_type=5 2 2 5 5 2
left_child=-1 2 4 -4 -2 -3
right_child=1 5 3 -5 -6 -7
leaf_value=-0.11130665329811232 0.0093318642413174457 -0.046769523848808503 0.10306021331325169 0.012840275769537467 -0.0074841671153103861 -0.0030953583627155376
leaf_count=307464 7418437 1881189 175378 387474 10601529 2645111
internal_value=0 0.0130927 0.0391845 0.478788 0.0197609 -0.185169
internal_count=23416582 23109118 18582818 562852 18019966 4526300
cat_boundaries=0 5 9 13
cat_threshold=4 3616546944 69846003 2097238 1056 18258060 1343227944 786435 536889344 526125 270472 263424 570445825
shrinkage=0.1


Tree=82
num_leaves=7
num_cat=4
split_feature=3 11 4 4 4 15
split_gain=10528.6 11178.8 10859.9 12100.7 10239.1 9520.91
threshold=0 1.5000000000000002 1 2 3 31903379.000000004
decision_type=5 2 5 5 5 2
left_child=1 5 -2 -4 -5 -1
right_child=2 -3 3 4 -6 -7
leaf_value=0.016128851706412612 -0.09888366506792709 -0.0044757185382371719 -0.049960457122435353 -0.020774176844318343 0.044458534572993029 -0.024043741988743098
leaf_count=3833504 894131 14547741 1762950 1330727 473939 573590
internal_value=0 0.0205275 -0.234758 -0.154107 0.0629525 0.121688
internal_count=23416582 18954835 4461747 3567616 1804666 4407094
cat_boundaries=0 4 20 36 52
cat_threshold=1668277721 671357296 4104 1 2236416 0 0 806912000 37748740 0 0 2363392 0 134217728 1048640 2101760 268566528 1074266112 539000848 132240 524288 0 0 100665856 4160 8192 134742016 1581312 520 536870912 545276192 33554432 37748740 75497472 524290 3 0 0 0 2147483680 131073 4456448 9445376 1024 16777216 2147483648 134217728 151519232 0 288 262145 512
shrinkage=0.1


Tree=83
num_leaves=7
num_cat=5
split_feature=2 4 7 4 3 4
split_gain=9837.79 10281.1 8662.49 25519.1 23343.1 18111.6
threshold=0 1 137.50000000000003 2 3 4
decision_type=5 5 2 5 5 5
left_child=1 -1 3 -2 -4 -5
right_child=2 -3 4 5 -6 -7
leaf_value=0.020877742567783429 -0.044480776445179504 -0.086858197226226688 0.0006669011307635839 -0.012769452910036084 -0.049421265341082515 0.041217903088994846
leaf_count=303917 502398 1001757 17270341 583224 2945930 809015
internal_value=0 -0.498706 0.00702299 0.143755 -0.0276243 0.261033
internal_count=23416582 1305674 22110908 1894637 20216271 1392239
cat_boundaries=0 121 136 152 180 196
cat_threshold=36 134234112 0 0 0 0 0 0 0 0 0 0 0 0 0 0 0 0 0 0 0 0 0 0 0 0 0 0 0 0 0 0 0 0 0 0 0 0 0 0 0 0 0 0 0 0 0 0 0 0 0 0 0 0 0 0 0 0 0 0 0 0 0 0 0 0 0 0 0 0 0 0 0 0 0 0 0 0 0 0 0 0 0 0 0 0 0 0 0 0 0 0 0 0 0 0 0 0 0 0 0 0 0 0 0 0 0 0 0 0 0 0 0 0 0 0 0 0 0 0 67108864 1075838984 0 0 33554464 4194305 0 524288 787456 16777220 536870912 9437188 134217728 0 536871168 526338 131072 0 0 67142144 33689600 0 1048576 2102272 4194312 536870912 8388676 35656192 65540 1073741824 1611171856 3 595584841 537006664 12 8193 8192 0 0 0 0 0 0 0 0 0 0 0 0 0 0 0 0 0 0 0 0 0 0 4 18882568 0 0 576194560 641 0 143130624 1056768 516 2147483648 1065248 16777216 268435456 67633152 1 144
shrinkage=0.1


Tree=84
num_leaves=7
num_cat=4
split_feature=3 1 12 1 8 1
split_gain=9543.69 8683.2 9190.71 11926 10714.4 3574.8
threshold=0 1 3401.0000000000005 2 246.50000000000003 3
decision_type=5 5 2 5 2 5
left_child=5 -2 3 -3 -4 -1
right_child=1 2 4 -5 -6 -7
leaf_value=0.081755123641581939 -0.09967556808503325 -0.02674537672906066 -0.0056838658840619284 0.05657245606853948 0.011220348202102656 -0.10272637473186426
leaf_count=21218 506364 54593 14017626 82907 8252110 481764
internal_value=0 0.00628189 0.0109625 0.331938 -0.00459154 -0.860698
internal_count=23416582 22913600 22407236 137500 22269736 502982
cat_boundaries=0 4 11 20 22
cat_threshold=36 3550487680 69846003 136314966 1082130448 23204930 3775010840 2105600 10747904 8389633 8455168 2147483648 1141999664 4719622 536873096 64 0 0 256 1024 69206016 8192
shrinkage=0.1


Tree=85
num_leaves=7
num_cat=4
split_feature=11 4 4 3 4 8
split_gain=9886.46 13041.9 10691.5 20702 9527.02 8692.8
threshold=3.5000000000000004 0 1 2 3 1582.0000000000002
decision_type=2 5 5 5 5 2
left_child=1 5 3 -3 -2 -1
right_child=4 2 -4 -5 -6 -7
leaf_value=-0.020337759130998168 -0.047756706235921584 0.0064380114832070876 0.022458845444445999 -0.063871546373544599 -0.00667157346701726 0.075766944014856896
leaf_count=2367938 2370704 4917470 3880236 1035723 8753116 91395
internal_value=0 0.0458515 0.0945273 0.0151754 -0.11154 -0.164105
internal_count=23416582 12292762 9833429 5953193 11123820 2459333
cat_boundaries=0 16 31 35 51
cat_threshold=532480 0 0 603980288 4194433 0 532480 0 4194304 536870912 135282788 168301056 4194304 1074266112 1073741825 1170 2228224 0 0 55576608 33686084 4202496 142606336 1060864 16777224 2147483648 8388608 16777216 268500992 8405024 537133056 864024395 134484552 4198400 1 2105352 0 0 827457536 0 0 1048576 2621440 20972544 0 260 19403264 268435460 67125282 526336 1040
shrinkage=0.1


Tree=86
num_leaves=7
num_cat=3
split_feature=15 1 9 1 8 3
split_gain=10340.7 9608.62 14103.2 15607.5 11217.6 10900.3
threshold=16855997.500000004 0 1.5000000000000002 1 136.50000000000003 2
decision_type=2 5 2 5 2 5
left_child=-1 4 3 -3 5 -2
right_child=1 2 -4 -5 -6 -7
leaf_value=0.0077055275030906952 -0.0024766773609083003 -0.098775164332203347 -0.029897548716697378 0.091856816747771144 0.013019717322025932 -0.041633777446510596
leaf_count=10619549 1681855 96544 5952324 30338 3754773 1281199
internal_value=0 -0.0723497 -0.228816 0.492359 -0.00852986 -0.126838
internal_count=23416582 12797033 6079206 126882 6717827 2963054
cat_boundaries=0 4 11 39
cat_threshold=538837773 69214380 1075314945 570429440 2216734720 1884428355 2168720414 2115840 0 0 1024 627581193 672419916 20984836 2138113 134218240 0 0 0 0 0 0 0 0 0 0 0 0 0 0 0 0 0 0 0 0 0 0 4
shrinkage=0.1


Tree=87
num_leaves=7
num_cat=3
split_feature=7 11 1 13 1 1
split_gain=10344.7 13053.6 10777.4 10220.2 9174.99 9088.84
threshold=76072.500000000015 5.5000000000000009 0 802.50000000000011 1 2
decision_type=2 2 5 2 5 5
left_child=1 3 -2 5 -5 -1
right_child=2 -3 -4 4 -6 -7
leaf_value=0.015251692442742465 0.15721602330119699 -0.018040415143822451 0.024755413984773451 -0.086308176509163781 -0.011914796096049965 -0.0016179747996948428
leaf_count=4995356 40760 7823339 376198 358559 1737868 8084502
internal_value=0 -0.0112005 0.515017 0.0313506 -0.20498 0.0612014
internal_count=23416582 22999624 416958 15176285 2096427 13079858
cat_boundaries=0 4 11 15
cat_threshold=322047104 16400 3 536870912 396363920 1900435475 541066243 2099456 0 1 65536 155191052 278536 4194560 536887296
shrinkage=0.1


Tree=88
num_leaves=7
num_cat=4
split_feature=1 12 1 1 5 7
split_gain=7532.84 7959.98 9419.31 8556.54 7929.83 9293.58
threshold=0 3401.0000000000005 1 2 3 963.50000000000011
decision_type=5 2 5 5 1 2
left_child=-1 2 -2 -4 -3 -6
right_child=1 4 3 -5 5 -7
leaf_value=-0.099006846355366135 -0.029905431642869434 0.012323853958341791 -0.013174362183012781 0.070194006874173764 -0.010540180468795561 0.0063274093051614889
leaf_count=493348 63538 4441439 26425 51963 10213854 8126015
internal_value=0 0.00683238 0.306341 0.490062 -0.00757945 -0.0420317
internal_count=23416582 22923234 141926 78388 22781308 18339869
cat_boundaries=0 8 24 28 29
cat_threshold=3229614096 560075842 2701137944 2105608 10747904 8388609 8454144 256 131072 1150388240 1078329351 128 64 1024 0 0 1024 0 0 0 0 0 0 2 1 268697760 1572864 33560576 144
shrinkage=0.1


Tree=89
num_leaves=7
num_cat=4
split_feature=11 7 4 4 1 4
split_gain=8405.83 16601.3 21213.9 14177.6 10868.3 10084.4
threshold=16.500000000000004 3209.5000000000005 0 1 2 3
decision_type=2 2 5 5 5 5
left_child=1 3 -3 -1 -5 -4
right_child=-2 2 5 4 -6 -7
leaf_value=-0.023840249420369535 -0.021645616557707654 0.086823772461219237 -0.14134663762242153 0.064645793698535223 0.0019794635956638194 0.014824546708300197
leaf_count=2617647 3357037 814932 164586 22228 15201771 1238381
internal_value=0 0.0259522 0.326815 -0.00666022 0.033417 0.0900011
internal_count=23416582 20059545 2217899 17841646 15223999 1402967
cat_boundaries=0 16 32 34 50
cat_threshold=131072 0 0 2483030048 37748736 8192 135266304 0 20972040 0 288 18874368 33751040 67109122 1076133888 131201 16785408 0 0 893386752 1 4194304 134217728 0 12 2684354560 545259620 33559040 272760832 16384 1073741824 132242 1056 8 16785416 0 0 5373952 0 4194304 0 262144 0 134217728 68 4096 268435460 1073741824 3 1040
shrinkage=0.1


Tree=90
num_leaves=7
num_cat=1
split_feature=3 11 7 0 14 14
split_gain=8203.89 6778.36 7573.83 7992.63 6501.7 7724.24
threshold=0 7.5000000000000009 1000.5000000000001 108944.00000000001 -49.499999999999993 -1.0000000180025095e-35
decision_type=5 2 2 2 2 2
left_child=1 4 -3 -4 -1 -6
right_child=-2 2 3 -5 5 -7
leaf_value=-0.00962976852238525 -0.012295995670209415 -0.044219585687472376 0.0054381405283629083 -0.051978193749359636 0.027093140655200351 0.0048352886537979525
leaf_count=2125039 9383411 1360453 2880145 557430 2032301 5077803
internal_value=0 0.0275332 -0.119142 -0.0272845 0.061926 0.0996777
internal_count=23416582 14033171 4798028 3437575 9235143 7110104
cat_boundaries=0 5
cat_threshold=560735361 671258629 8 1 134225920
shrinkage=0.1


Tree=91
num_leaves=7
num_cat=5
split_feature=1 0 4 3 1 4
split_gain=7651.52 7625.57 14933.2 11706.6 15796 12477.6
threshold=0 294398.00000000006 1 2 3 4
decision_type=5 2 5 5 5 5
left_child=-1 3 -3 4 -2 -5
right_child=1 2 -4 5 -6 -7
leaf_value=-0.079584559870391341 -0.068519603828610817 -0.038813048573630514 0.026926269303273964 0.066185972019536368 0.0020218881304844981 -0.047621490411662956
leaf_count=717957 401769 361028 996332 101864 17987019 2850613
internal_value=0 0.00863575 0.166535 -0.0177636 0.00462841 -0.351328
internal_count=23416582 22698625 1357360 21341265 18388788 2952477
cat_boundaries=0 7 22 50 58 73
cat_threshold=1115684880 560108610 2705332250 2105600 8650752 8389633 65536 17440776 0 0 524800 135296 0 142606336 2105344 4194308 671088640 536887616 36175872 65536 1140867072 537397248 595584843 537199432 8 8193 8192 0 0 0 0 0 0 0 0 0 0 0 0 0 0 0 0 0 0 0 0 0 0 4 131168 9447444 1705220 570429449 2097216 0 8388608 256 16777216 0 0 4325376 0 0 0 1024 4195328 0 0 524288 272629760 0 1073741824
shrinkage=0.1


Tree=92
num_leaves=7
num_cat=2
split_feature=11 7 1 1 0 9
split_gain=6927.11 7521.14 12807.8 9961.4 8516.98 9859.36
threshold=1.5000000000000002 788.50000000000011 0 1 220762.00000000003 1.5000000000000002
decision_type=2 2 5 5 2 2
left_child=1 4 -3 -4 -1 -6
right_child=-2 2 3 -5 5 -7
leaf_value=-0.0085418419747034634 -0.0056868769883377419 0.044873057003685254 -0.58653501130664532 -0.0028277759284364191 0.047867079777425353 -0.00018637940120897574
leaf_count=3367454 17343662 1176371 2057 801005 113515 612518
internal_value=0 0.0682147 0.227861 -0.0464316 0.00501044 0.181393
internal_count=23416582 6072920 1979433 803062 4093487 726033
cat_boundaries=0 4 6
cat_threshold=2473642895 1343504409 1073741825 2048 0 8192
shrinkage=0.1


Tree=93
num_leaves=7
num_cat=3
split_feature=3 4 4 7 8 11
split_gain=8644.54 11905 7881.22 6622.88 6506.84 5915.33
threshold=0 1 2 95.500000000000014 186.50000000000003 18.500000000000004
decision_type=5 5 5 2 2 2
left_child=5 -2 4 -4 -3 -1
right_child=1 2 3 -5 -6 -7
leaf_value=0.0052750689419935413 -0.064217498330066722 -0.046016170782542928 0.041181599979235303 -0.005242828741712501 0.0019492354995176476 -0.017066374752323275
leaf_count=14029137 1638105 1559108 143664 2109319 1323562 2613687
internal_value=0 -0.149241 -0.0715048 0.079568 -0.265878 0.0337701
internal_count=23416582 6773758 5135653 2252983 2882670 16642824
cat_boundaries=0 5 21 37
cat_threshold=2709465537 537139220 4104 8193 134217728 2097160 0 0 907575296 4194304 0 134217728 2101248 516 671088640 1048576 33559040 272629760 1074266370 536903696 132096 524288 0 0 20974080 135365 0 8921088 1056768 16778248 0 32 0 33685508 603996160 1075838976 643
shrinkage=0.1


Tree=94
num_leaves=7
num_cat=5
split_feature=3 8 4 4 3 4
split_gain=10064.4 8152.78 8773.34 7814.96 9174.41 7060.89
threshold=0 15696.000000000002 1 2 3 4
decision_type=5 2 5 5 5 5
left_child=-1 2 -2 4 -3 -4
right_child=1 3 5 -5 -6 -7
leaf_value=0.0065112180169721633 -0.040843798820673377 0.84971993911261068 -0.017205204098853795 0.049664391198182209 0.032652892117116888 0.0045172436499278058
leaf_count=12057189 1933295 4104 4769297 183973 11550 4457174
internal_value=0 -0.0874866 -0.103599 0.63874 4.29536 -0.0613765
internal_count=23416582 11359393 11159766 199627 15654 9226471
cat_boundaries=0 5 21 37 39 55
cat_threshold=556295296 671094820 4104 8193 134225920 19398664 0 0 538444288 4096 0 1048576 0 12 2818572288 537936160 36180480 4259844 0 526336 18 0 0 0 524288 128 0 1048576 0 0 0 0 0 33554432 67109120 0 17 12812304 256 0 0 0 33554464 131140 4456448 134225920 3420416 512 0 142606336 16777216 33685504 536887328 539230224 132225
shrinkage=0.1


Tree=95
num_leaves=7
num_cat=2
split_feature=11 10 13 7 1 1
split_gain=7803.54 10520.6 9443.34 7374.87 6813.01 6450.01
threshold=2.5000000000000004 13.500000000000002 468.50000000000006 76072.500000000015 0 1
decision_type=2 2 2 2 5 5
left_child=1 2 -1 4 -2 -5
right_child=3 -3 -4 5 -6 -7
leaf_value=0.013350735301076897 -0.00098129423900385118 0.029283715295992226 -0.0071821692268254512 0.12525722735764513 -0.02055092346075954 0.016201904052862117
leaf_count=2733278 5609031 2418771 4683854 24202 7564936 382510
internal_value=0 0.0551667 0.014147 -0.0775287 -0.0995847 0.367099
internal_count=23416582 9835903 7417132 13580679 13173967 406712
cat_boundaries=0 5 9
cat_threshold=131976 8495161 1073741825 20616 2097152 437259392 0 1 536870912
shrinkage=0.1


Tree=96
num_leaves=7
num_cat=4
split_feature=2 1 7 1 11 1
split_gain=8490.28 9342.22 8794.19 16192.2 12103.1 12919.2
threshold=0 1 2472.5000000000005 2 9.5000000000000018 3
decision_type=5 5 2 5 2 5
left_child=1 -1 4 -4 5 -2
right_child=2 -3 3 -5 -6 -7
leaf_value=-0.100695459177781 0.0080093425682414895 0.00016954511266885773 0.066161219560207526 0.0060537048795376407 -0.036525042519066159 -0.011853837182314053
leaf_count=838266 9056844 467931 489200 3882012 2368964 6313365
internal_value=0 -0.471236 0.0134646 0.168222 -0.0182277 0.00520717
internal_count=23416582 1306197 22110385 4371212 17739173 15370209
cat_boundaries=0 121 127 134 138
cat_threshold=36 150994944 0 0 0 0 0 0 0 0 0 0 0 0 0 0 0 0 0 0 0 0 0 0 0 0 0 0 0 0 0 0 0 0 0 0 0 0 0 0 0 0 0 0 0 0 0 0 0 0 0 0 0 0 0 0 0 0 0 0 0 0 0 0 0 0 0 0 0 0 0 0 0 0 0 0 0 0 0 0 0 0 0 0 0 0 0 0 0 0 0 0 0 0 0 0 0 0 0 0 0 0 0 0 0 0 0 0 0 0 0 0 0 0 0 0 0 0 0 0 67108864 117617526 1150333139 7 2048 0 8388609 2301757568 1409599545 262147 18560 0 0 1024 17340205 8332 1284 33558528
shrinkage=0.1


Tree=97
num_leaves=7
num_cat=5
split_feature=3 1 3 11 1 3
split_gain=7777.37 6517.64 6526.78 5594.27 6502.89 5525.87
threshold=0 1 2 1.5000000000000002 3 4
decision_type=5 5 5 2 5 5
left_child=1 2 -1 4 -3 -2
right_child=5 3 -4 -5 -6 -7
leaf_value=0.077580022073904395 -0.095389572277166532 0.0032073630250098028 -0.054478292144540467 0.0014793683447853999 0.030000663373528039 -0.0071416404887622714
leaf_count=20257 347194 743752 812844 9429714 1055295 11007526
internal_value=0 0.0532432 -0.37818 0.0670265 0.167868 -0.0801069
internal_count=23416582 12061862 833101 11228761 1799047 11354720
cat_boundaries=0 5 12 14 30 34
cat_threshold=1627923136 537139204 8 8193 8192 2426536048 17021008 541328392 538980736 8388608 1 65536 1073741952 536872964 739787394 1621098663 1074401300 33554433 0 0 0 0 0 0 0 0 0 0 0 2 36 3581952128 69847027 136380502
shrinkage=0.1


Tree=98
num_leaves=7
num_cat=4
split_feature=0 4 8 4 4 1
split_gain=6801.38 10498.7 9003.48 17841 11994.5 11476.3
threshold=294398.00000000006 0 186.50000000000003 1 2 3
decision_type=2 5 2 5 5 5
left_child=2 -2 4 -4 -1 -6
right_child=1 -3 3 -5 5 -7
leaf_value=0.074309029199007517 0.047523585034503865 0.0024451679545348264 -0.039829497282564574 0.011643776951243943 -0.068685892545355981 -0.0086792866983776955
leaf_count=147331 271028 1132041 1989935 8492449 515024 10868774
internal_value=0 0.147729 -0.0268986 0.0593537 -0.0935048 -0.109715
internal_count=23416582 1403069 22013513 10482384 11531129 11383798
cat_boundaries=0 16 32 46 53
cat_threshold=1073741824 0 0 2147614720 580 270336 2097152 786432 1024 0 256 4608 262144 545275904 2129922 131072 1090527240 0 0 559022080 0 4194304 2097152 794624 16778240 0 1048900 528896 4194304 1073758240 18 132112 1090658304 0 0 4325376 0 4194304 0 262144 1024 0 0 524288 262144 32 2458910768 1426214978 1078461467 538970496 8388608 1 65536
shrinkage=0.1


Tree=99
num_leaves=7
num_cat=4
split_feature=3 7 4 11 4 4
split_gain=7078.15 6699.46 14666.1 10914.4 11054.1 9680.82
threshold=0 3209.5000000000005 1 11.500000000000002 2 3
decision_type=5 2 5 2 5 5
left_child=-1 3 -3 4 -2 -4
right_child=1 2 5 -5 -6 -7
leaf_value=-0.10406747173102582 -0.019125569609833831 0.047059725158922851 -0.13383236714700036 -0.039342017598107515 0.0036045453487881687 0.0021844704274014757
leaf_count=338170 3396512 1062179 248978 2083152 13373967 2913624
internal_value=0 0.00222649 0.146047 -0.0234149 -0.00428266 -0.0183447
internal_count=23416582 23078412 4224781 18853631 16770479 3162602
cat_boundaries=0 5 21 37 53
cat_threshold=36 3514827904 69854195 2162774 1536 2621440 0 0 2483030016 33554433 8192 135790592 0 12 2147483648 8388960 50331648 33751040 16640 1073774592 131217 16777216 0 0 626524160 33554433 0 134217728 12288 4194308 2818572288 142606432 4608 268435456 540672 1075838976 1170 16785416 0 0 5373952 4194304 0 0 262144 0 134217728 4 528384 268435460 0 0 1024
shrinkage=0.1


Tree=100
num_leaves=7
num_cat=5
split_feature=4 15 1 1 4 4
split_gain=7427.29 6228.55 9696.64 9018.23 9798.32 8834.53
threshold=0 16477475.500000002 1 2 3 4
decision_type=5 2 5 5 5 5
left_child=-1 3 -3 -2 -5 -4
right_child=1 2 5 4 -6 -7
leaf_value=-0.012128339027276726 -0.011295692545159674 -0.025391660736282663 -0.0070986986648498597 0.0032239901264614133 0.031647245499684382 0.01723532495764003
leaf_count=5184828 1568748 3989285 3986804 2837077 3088166 2761674
internal_value=0 0.030959 -0.0291197 0.104647 0.170229 0.0265356
internal_count=23416582 18231754 10737763 7493991 5925243 6748478
cat_boundaries=0 16 23 39 55 71
cat_threshold=18882568 0 0 554696704 0 0 9437184 2105344 16777216 536870912 135266660 50860032 4259844 1073741824 1074003968 1041 396541136 68356116 262151 2099456 0 1 66560 982253650 278069380 1075576834 572528896 0 1 66560 0 0 0 0 0 0 0 0 2 524288 0 0 34111488 33690240 262144 8192 1577984 0 2281701376 16384 136314880 33554432 75497474 2654226 131712 1073741824 0 0 2420770816 131140 4194304 134750208 1048576 12 0 545275904 0 393216 537395488 2097153 514
shrinkage=0.1


Tree=101
num_leaves=7
num_cat=4
split_feature=3 4 1 8 7 1
