tree
version=v2
num_class=1
num_tree_per_iteration=1
label_index=0
max_feature_idx=12
objective=binary sigmoid:1
feature_names=ip app device os channel hour minute nip_day_test_hh n_ip n_ip_os n_ip_app n_ip_app_os n_app
feature_infos=[6:364772] 3:12:9:2:18:15:14:1:8:7:11:21:13:26:23:6:19:20:25:28:27:29:24:22:17:10:32:64:5:47:4:35:36:56:151:94:58:55:93:45:37:72:62:183:60:46:44:66:107:39:33:83:65:160:38:82:109:43:110:134:96:125:84:95:215:79:108:67:68:121:117:30:104:54:75:0:42:266:145:88:53:52:100:103:61:50:16:202:232:170:76:92:74:85:86:31:175:148:49:128 1:2:0:3866:5:59:6:40:21:16:78:67:11:30:154:114:37:7:76:50:82:33:136:18:137:203:8:97:103:124:89:88:60:3867:56:100:182:187:189:127:211:36:95:343:53 19:13:17:18:22:8:10:6:9:15:25:20:16:37:3:41:14:1:12:23:27:32:35:47:11:53:28:30:26:31:36:49:2:40:24:0:4:866:42:43:46:58:34:7:38:21:44:5:29:48:50:39:56:65:79:64:70:55:52:77:66:97:45:73:62:59:100:90:63:76:61:98:96:109:85:71:57:69:74:60:83:92:141:80:133:84:607:72:78:102:95:134:138:113:81:67:118:112:155:184 280:107:477:265:153:101:259:178:134:121:145:466:379:205:245:232:442:237:489:439:127:135:128:137:480:469:219:122:435:459:140:236:334:409:244:328:452:215:211:377:173:424:130:115:347:213:19:315:212:401:340:376:125:349:266:445:105:386:113:319:3:116:258:481:243:478:463:278:430:412:234:467:111:371:343:30:364:402:497:124:400:449:487:21:325:326:118:417:406:182:13:317:484:120:17:242:150:448:446:361:322:490:421:24:110:360 4:5:6:13:14:12:10:0:3:7:11:1:2:9:15:8:16:23:22:17:18:21:20:19 [0:59] [1:208661] [1:43958] [1:9382] [1:7370] [1:2167] [1:895281]
tree_sizes=721 720 786 881 825 883 871 823 1125 868 780 825 864 909 835 907 904 798 852 989 805 1017 936 920 1039 995 856 851 1086 908 859 1003 891 966 786 1052 1029 995 768 917 974 961 810 994 869 942 777 905 972 775 889 1158 1044 1035 975 912 842 798 1066 849 922 974 746 1015 920 825 1031 871 814 853 1046 741 821 979 973 1070 871 747 988 712 990 768 1130 915 868 900 988 991 1101 1023 943 967 844 772 836 803 1156 880 830 702 929 931 1046 857 1085 838 836 699 806 952 703 999 802 847 828 1115 732 786 945 904 973 970 868 835 923 941 892 813 1073 1062 778 838 843 806 726 1047 995 824 699 889 740 828 694 770 1147 777 755 888 779 914 829 890 1016 727 994 871 1073 966 783 1057 1015 938 1138 1046 1015 1054 861 777 1076 1063 935 880 1008 1030 933 1118 789 1017 1027 872 723 713 764 732 1283 899 860 911 820 1116 816 1193 724 784 922 1116 835 843 858 815 985 998 873 960 811 851 969 1010 899 1085 1050 1114 919 771 813 1023 941 932 743 878 1080 768 846 1101 730 1006 781 786 849 749 1021 995 877 729 1036 783 894 780 1105 1076 711 691 694 743 815 845 1024 858 1243 691 1173 1070 718 943 988 778 746 940 819 743 823 1005 1015 725 835 1200 1002 892 933 1020 1014 1053 695 861 849 709 818 926 860 886 722 837 1412 735 782 726 804 823 787 790 796 1011 784 984 735 956 1010 1061 930 936 748 848 827 946 1076 747 983 840 769 818 720 821 691 703 974 963 1003 703 1008 911 1208 996 690 890 818 1107 794 853 693 815 842 879 799 955 1082 727 831 891 973 1012 772 690 732 995 987 854 801 1130 751 867 748 794 942 709 993 912 784 1169 756 859 835 758 889 742 940 1164 750 724 873 824 948 709 972 724 751 936 788 1026 964 909 725 766 687 787 865 896 928 902 924 806 1047 789 919 862 685 819 752 844 972 954 720 722 1049 970 909 874 1034 852 840 869 836 973 886 795 847 1041 934 820 809 687 849 796 989 917 867 800 694 815 829 1050 1289 856 899 996 1045 864 1049 857 715 790 900 995 988 865 945 820 828 767 1023 871 888 736 868 871 943 805 712 896 890 741 1047 1024 832 837 850 717 987 822 991 901 819 736 1018 839 795 800 868 894 752 1025 931 733 1019 755 804 926 988 910 862 861 932 1115 684 738 984 1027 970 744 881 1024 933 741 813 805 858 916 733 814 818 800 893 916 767 813 834 815 1060 720 813 896 877 909 770 1008 705 860 1060 808 1036 872 759 823 787 865 869 877 805 978 714 792 875 806 902 1101 956 1120 917 799 1011 1044 830 887 714 899 800 910 930 946 988 791 894 815 708 880 806 925 813 1202 887 785 922 874 973 750 944 1009 817 734 846 1161 944 768 876 939 1010 889 785 1026 976 913 872 772 826 874 822 743 742 890 832 835 839 908 704 763 726 1112 958 950 911 881 931 782 926 896 798 847 855 801 744 939 992 800 801 929 785 860 946 919 826 977 827 827 864 709 802 752 837 1004 833 1053 902 742 915 794 972 885 970 1084 781 944 881 872 736 848 1045 934 899 704 906 964 806 797 835 877 856 733 908 828 803 987 982 989 693 803 723 1036 830 721 883 794 823 806 1007 741 817 812 795 1010 852 745 922 702 1262 953 1041 860 964 816 745 891 845 727 930 825 879 806 1001 1475 1011 750 933 857 734 740 782 699 749 820 842 878 722 790 744 824 891 943 754 872 723 847 951 862 816 844 767 893 927 779 988 1102 759 808 699 1026 974 900 888 894 852 826 860 813 907 849 812 915 860 858 983 843 957 876 880 888 875 983 810 843 837 812 831 801 937 758 784 904 689 842 905 924 714 872 772 921 788 978 754 700 826 827 925 925 819 766 732 1021 906 836 710 798 900 947 927 862 890 742 764 881 936 866 948 929 921 785 766 936 976 1033 872 861 942 879 740 1094 996 969 1208 1080 796 1010 808 799 811 769 1075 843 738 1022 928 837 793 942 861 840 752 911 862 790 931 961 910 928 927 906 938 900 726 904 1054 933 775 872 847 914 827 816 1099 997 938 925 893 665 733 751 848 846 884 945 1023 985 815 1000 971 941 849 855 896 800 717 853 687 852 717 952 910 931 971 882 806 792 697 790 919 826 901 941 754 888 883 847 697 1018 830 950 700 846 788 887 926 984 939 747 915 842 924 945 834 838 977 835 743 945 963 891 818 794 721 687 1037 988 1016 969 701 819 909 734 685 751 961 904 959 843 887 751 1022 742 966 871 950 698 748 944 871 952 974 941 889 965 863 967 991 797 758 892 983 809 867 788 1078 890 814 982 838 709 891 850 796 933 942 989 775 798 856 903 787 890 1003 763 963 968 1017 996 836 956 780 841 799 1064 801 835 1077 960 975 1057 804 816 702 863 1041 904 1076 810 1051 801 804 908 808 808 963 888 886 1003 819 1033 933 862 867 900 842 724 897 961 970 921 999 1089 852 858 754 884 943 954 903 837 1007 993 910 880 902 919 909 681 929 808 752 933 852 702 790 786 918 1088 819 931 1062 862 764 698 793 951 964 787 852 982 955 752 916 706 1026 751 1054 930 735 890 892 848 703 862 781 929 920 890 984 915 809 1056 877 910 743 989 921 962 800 935 895 786 924 918 746 1004 859 903 1021 814 848 1078 984 824 862 679 976 870 905 931 914 791 983 821 956 742 1020 802 805 886 880 892 708 785 989 955 1033 901 710 1084 987 931 948 925 810 1093 1045 752 934 706 854 780 829 925 1005 918 880 851 896 743 1080 1080 889 1026 920 784 1028

Tree=0
num_leaves=7
num_cat=1
split_feature=12 7 5 9 12 12
split_gain=4.87766e+07 3.83116e+06 2.07287e+06 878164 1.1127e+06 617256
threshold=39745.500000000007 35.500000000000007 0 7.5000000000000009 19957.000000000004 312951.50000000006
decision_type=2 2 1 2 2 2
left_child=3 -2 -3 -1 -5 -4
right_child=1 2 5 4 -6 -7
leaf_value=0.19423883094199657 0.12593555936467243 0.19998951287294847 -0.10576567997863273 0.16065023108725315 0.0019412465565260947 -0.15809810473105762
leaf_count=830953 487743 3814 13185487 1122844 1049258 16946585
internal_value=0 -1.09808 -1.26273 1.80455 1.34955 -1.3316
internal_count=33626684 30623629 30135886 3003055 2172102 30132072
cat_boundaries=0 1
cat_threshold=15663104
shrinkage=0.1


Tree=1
num_leaves=7
num_cat=1
split_feature=12 7 5 9 12 12
split_gain=3.97638e+07 3.15335e+06 1.61656e+06 736572 882909 515450
threshold=39745.500000000007 57.500000000000007 0 8.5000000000000018 19957.000000000004 330692.00000000006
decision_type=2 2 1 2 2 2
left_child=3 -2 -3 -1 -5 -4
right_child=1 2 5 4 -6 -7
leaf_value=0.1762253444174158 0.091981451386095286 0.18210104680606465 -0.098602390771747872 0.14470251514375648 0.0013835200257451149 -0.14687380974464756
leaf_count=877244 809770 3604 14230741 1097267 1027338 15580720
internal_value=0 -0.991275 -1.15912 1.63821 1.20972 -1.21914
internal_count=33626684 30624835 29815065 3001849 2124605 29811461
cat_boundaries=0 1
cat_threshold=16711680
shrinkage=0.1


Tree=2
num_leaves=7
num_cat=3
split_feature=1 7 1 12 5 8
split_gain=3.30841e+07 5.09574e+06 2.49687e+06 1.34598e+06 1.22346e+06 217519
threshold=0 35.500000000000007 1 336324.50000000006 2 5.5000000000000009
decision_type=5 2 5 2 1 2
left_child=-1 5 3 -3 -4 -2
right_child=1 2 4 -5 -6 -7
leaf_value=0.16541641474400409 0.1571145227081317 0.037476657042960243 0.17193310862189515 -0.1195728083546497 -0.13003258168391055 0.059249482895846396
leaf_count=815041 154612 3120152 3027 2789743 26358316 385793
internal_value=0 -0.731776 -0.955636 -0.104849 -1.24565 1.29381
internal_count=33626684 32811643 32271238 5909895 26361343 540405
cat_boundaries=0 7 10 11
cat_threshold=537461793 1343498408 270303492 570431617 1179648 32768 1024 2148535040 545275921 4195331 16711680
shrinkage=0.1


Tree=3
num_leaves=7
num_cat=3
split_feature=4 8 11 4 5 11
split_gain=1.75557e+07 6.70382e+06 2.43035e+06 1.48389e+06 1.03197e+06 577472
threshold=0 18.500000000000004 1.5000000000000002 1 2 7.5000000000000009
decision_type=5 2 2 5 1 2
left_child=5 -2 3 -3 -4 -1
right_child=1 2 4 -5 -6 -7
leaf_value=0.14900597978535676 0.1200367639432951 -0.13184319323753743 0.16660115734018399 0.032160247449936827 -0.10834274893213221 0.013529187659848479
leaf_count=1402975 1266060 2486712 2928 4928912 22937396 601701
internal_value=0 -0.324045 -0.673973 0.000818998 -1.02635 1.44646
internal_count=33626684 31622008 30355948 7415624 22940324 2004676
cat_boundaries=0 15 31 32
cat_threshold=2097152 0 0 147488 0 0 2097152 524288 0 536870912 142606336 0 0 0 1073741824 1090658304 0 0 806879232 37748865 0 1581056 266240 512 0 1048896 528896 4194308 0 537397248 132112 16711680
shrinkage=0.1


Tree=4
num_leaves=7
num_cat=4
split_feature=1 7 1 1 3 0
split_gain=2.46652e+07 3.51264e+06 1.97616e+06 993892 591221 198201
threshold=0 35.500000000000007 1 2 3 292640.00000000006
decision_type=5 2 5 5 5 2
left_child=-1 5 4 -4 -3 -2
right_child=1 2 3 -5 -6 -7
leaf_value=0.14712548433806696 0.1417191354538356 0.019612319896054557 -0.11579797101502057 0.099024654317425048 -0.096935980283396408 0.050054704411752617
leaf_count=834638 130920 4047305 26195774 164380 1846106 407561
internal_value=0 -0.643696 -0.829282 -1.09258 -0.063992 1.10066
internal_count=33626684 32792046 32253565 26360154 5893411 538481
cat_boundaries=0 7 10 19 23
cat_threshold=537461793 1351887016 1868036 570431617 1179648 32768 1024 2148535040 536887313 272630787 535228622 83918848 1610612736 16384 0 1 0 0 1024 594502656 0 0 8193
shrinkage=0.1


Tree=5
num_leaves=7
num_cat=3
split_feature=12 4 5 4 10 12
split_gain=2.08064e+07 2.27312e+06 1.81681e+06 1.16264e+06 559349 495720
threshold=34532.500000000007 0 1 2 1.5000000000000002 274666.00000000006
decision_type=2 5 1 5 2 2
left_child=1 -1 -2 5 -5 -4
right_child=2 -3 3 4 -6 -7
leaf_value=-0.082440060077917113 0.15795522579185703 0.13751701961853083 0.041199964489603905 0.0010718683874479376 -0.10514705558547817 -0.062356928877793663
leaf_count=1413011 7241 1259503 1748694 1112348 25299469 2786418
internal_value=0 1.28434 -0.7069 -0.791368 -0.972688 -0.0845574
internal_count=33626684 2672514 30954170 30946929 26411817 4535112
cat_boundaries=0 16 17 33
cat_threshold=0 0 0 2232418816 33554624 262144 0 0 8 0 0 17302016 4194304 0 2048 16 16711680 0 0 0 16793600 131136 0 10485760 1049600 1028 2684354560 142622752 16777216 262144 536870944 1074003968 130
shrinkage=0.1


Tree=6
num_leaves=7
num_cat=4
split_feature=12 4 5 8 4 5
split_gain=1.7776e+07 2.37817e+06 1.51244e+06 862015 849806 328474
threshold=39745.500000000007 0 1 14.500000000000002 2 3
decision_type=2 5 1 2 5 1
left_child=1 5 -2 -4 -5 -1
right_child=2 -3 3 4 -6 -7
leaf_value=0.17681033680443681 0.14925067056911387 0.13100274224261799 0.043759317524505334 -0.043654385375063241 -0.10986228270935405 -0.098380279846800922
leaf_count=1045 7054 1303674 825636 9944220 19845183 1699872
internal_value=0 1.20455 -0.674307 -0.752058 -0.835669 -0.761443
internal_count=33626684 3004591 30622093 30615039 29789403 1700917
cat_boundaries=0 16 17 33 34
cat_threshold=0 0 0 2769289728 33554625 262144 0 0 8 0 0 17302016 4194304 0 2048 16 16711680 0 0 0 100681728 135232 8192 144703488 1049856 1028 2684354560 134234144 16777216 4194304 545259520 1076103170 130 16711680
shrinkage=0.1


Tree=7
num_leaves=7
num_cat=4
split_feature=1 8 1 3 1 7
split_gain=1.58455e+07 2.26201e+06 1.45552e+06 650079 542736 139046
threshold=0 10.500000000000002 1 2 3 15.500000000000002
decision_type=5 2 5 5 5 2
left_child=-1 5 3 -3 -4 -2
right_child=1 2 4 -5 -6 -7
leaf_value=0.12846653183079934 0.11957304291059999 0.01127634359310137 -0.10328595397324931 -0.08721013431651653 0.066797247899745699 0.032540052885037023
leaf_count=835237 182922 5925420 22873602 3251443 164956 393104
internal_value=0 -0.515123 -0.666827 -0.15069 -0.975169 0.963507
internal_count=33626684 32791447 32215421 9176863 23038558 576026
cat_boundaries=0 7 10 14 23
cat_threshold=537461793 1351887016 1868036 570431617 1179648 32768 1024 2299792128 17 272630787 38756352 0 131072 8193 383971534 620806144 1610612736 16384 0 1 0 0 1024
shrinkage=0.1


Tree=8
num_leaves=7
num_cat=4
split_feature=12 4 5 7 4 2
split_gain=1.33586e+07 2.61518e+06 1.0551e+06 693995 472812 313099
threshold=58989.000000000007 0 1 95.500000000000014 2 3
decision_type=2 5 1 2 5 5
left_child=1 -1 -2 -4 -5 -3
right_child=2 5 3 4 -6 -7
leaf_value=-0.064677774210457034 0.14202081395226679 -0.30487217514973347 0.021787877723551018 -0.041168275261604603 -0.096719659113447265 0.1224804940888187
leaf_count=2571811 5897 78228 1420917 7137540 21067788 1344503
internal_value=0 1.07464 -0.630657 -0.694326 -0.791403 1.21734
internal_count=33626684 3994542 29632142 29626245 28205328 1422731
cat_boundaries=0 16 17 33 154
cat_threshold=1073741824 0 0 621806080 33554561 262144 0 256 16777224 0 0 17302016 4194304 0 536872960 16 16711680 0 0 0 2048 131136 0 10485760 1049856 4 2684354560 134234144 16777216 4194304 545259520 262144 640 0 0 0 0 0 4194304 0 0 0 0 0 0 0 0 0 0 0 0 0 0 0 0 0 0 0 0 0 0 0 0 0 0 0 0 0 0 0 0 0 0 0 0 0 0 0 0 0 0 0 0 0 0 0 0 0 0 0 0 0 0 0 0 0 0 0 0 0 0 0 0 0 0 0 0 0 0 0 0 0 0 0 0 0 0 0 0 0 0 0 0 0 0 0 0 0 0 0 0 0 0 0 0 0 0 0 0 0 0 0 0 0 0 0 0 0 0 0 0 0 0 67108864
shrinkage=0.1


Tree=9
num_leaves=7
num_cat=4
split_feature=12 4 5 8 4 5
split_gain=1.147e+07 2.32921e+06 904932 589634 431634 348899
threshold=58989.000000000007 0 1 22.500000000000004 2 3
decision_type=2 5 1 2 5 1
left_child=1 5 -2 -4 -5 -1
right_child=2 -3 3 4 -6 -7
leaf_value=0.15693917723609352 0.13643239530884391 0.1184857530408467 0.017443818540783512 -0.02501759009249744 -0.086648786604619818 -0.066630002534147068
leaf_count=1841 5982 1293882 1551824 4266592 23804609 2701954
internal_value=0 1.03129 -0.582625 -0.641797 -0.736559 -0.482103
internal_count=33626684 3997677 29629007 29623025 28071201 2703795
cat_boundaries=0 16 17 33 34
cat_threshold=1073741824 0 0 621806080 33554625 262144 0 256 16777224 0 0 50856448 4194304 0 536872960 16 16711680 0 0 0 0 131136 0 10485760 1049600 4 2684354560 134234144 16777216 4194304 545259520 262144 128 16711680
shrinkage=0.1


Tree=10
num_leaves=7
num_cat=4
split_feature=1 7 1 5 3 0
split_gain=1.05053e+07 1.48283e+06 1.15751e+06 461083 408146 231127
threshold=0 57.500000000000007 1 2 3 292640.00000000006
decision_type=5 2 5 1 5 2
left_child=-1 5 4 -4 -3 -2
right_child=1 2 3 -5 -6 -7
leaf_value=0.11657252112885937 0.108624491541124 0.024534012726848659 0.13703287788173069 -0.082366061287877476 -0.080880609040648241 0.010331137777038219
leaf_count=829279 291405 4217933 2749 25985808 1703014 596496
internal_value=0 -0.410553 -0.551327 -0.787514 0.0415315 0.72291
internal_count=33626684 32797405 31909504 25988557 5920947 887901
cat_boundaries=0 7 10 11 15
cat_threshold=537461793 1083451560 270303492 570431617 1179648 32768 1024 2165312256 268435457 1027 16711680 38757632 0 0 8193
shrinkage=0.1


Tree=11
num_leaves=7
num_cat=5
split_feature=1 7 1 3 5 4
split_gain=9.17955e+06 1.30565e+06 1.04035e+06 503235 410592 147038
threshold=0 15.500000000000002 1 2 3 4
decision_type=5 2 5 5 1 5
left_child=5 -2 3 -3 -4 -1
right_child=1 2 4 -5 -6 -7
leaf_value=0.015626085706938121 0.10181959978704336 0.017956066893949608 0.13258601514464072 -0.071009267691681671 -0.080642692117511516 0.11540232416455572
leaf_count=175323 217660 5966698 2743 3290891 23317417 655952
internal_value=0 -0.380519 -0.483735 -0.0490805 -0.767921 1.1331
internal_count=33626684 32795409 32577749 9257589 23320160 831275
cat_boundaries=0 7 10 14 15 30
cat_threshold=537461793 1351887016 270041348 570431617 1179648 32768 1024 2299792128 1 263171 38756352 0 131072 8192 16711680 0 0 0 20987904 0 0 0 0 0 536870912 0 33554432 4194304 0 2
shrinkage=0.1


Tree=12
num_leaves=7
num_cat=4
split_feature=1 10 1 12 1 1
split_gain=8.08938e+06 1.20385e+06 690682 901790 387878 459819
threshold=0 2.5000000000000004 1 274666.00000000006 2 3
decision_type=5 2 5 2 5 5
left_child=-1 4 3 -3 -2 -6
right_child=1 2 -4 -5 5 -7
leaf_value=0.11045012833280624 -0.13499717171492556 0.052260200942695414 -0.0811207287651666 -0.065462933000631204 -0.041912041521680293 0.072687751524645169
leaf_count=829833 601770 2155578 20945435 5990909 1542423 1560736
internal_value=0 -0.354778 -0.555342 -0.158732 0.326547 0.442017
internal_count=33626684 32796851 29091922 8146487 3704929 3103159
cat_boundaries=0 7 10 16 25
cat_threshold=537461793 1083451560 270303492 570431617 1179648 32768 1024 135531264 805306369 3 1384120400 23237698 2703235096 2105616 8388608 8389633 2221043842 536870912 1077936129 0 64 0 8388608 256 1024
shrinkage=0.1


Tree=13
num_leaves=7
num_cat=3
split_feature=12 4 11 4 5 7
split_gain=6.69435e+06 1.67864e+06 602390 307120 297167 268845
threshold=58989.000000000007 0 2.5000000000000004 1 2 15.500000000000002
decision_type=2 5 2 5 1 2
left_child=1 4 3 -2 -1 -5
right_child=2 -3 -4 5 -6 -7
leaf_value=0.14274260759897517 0.039709069357640583 0.10781749011582409 -0.072067219698480053 0.077485350337752057 -0.049627594843719959 -0.041143787737769784
leaf_count=2421 1804588 1141846 18144670 125721 2850856 9556582
internal_value=0 0.901414 -0.446779 -0.133137 -0.322806 -0.310325
internal_count=33626684 3995123 29631561 11486891 2853277 9682303
cat_boundaries=0 16 32 33
cat_threshold=1073741824 0 0 621806080 33554625 262144 0 256 16777224 536870912 0 50856448 4194304 0 1610614784 16 1073741824 0 0 16793600 131136 4194304 10485760 1049600 4 536870912 134234112 524288 262144 603979810 262146 512 16711680
shrinkage=0.1


Tree=14
num_leaves=7
num_cat=4
split_feature=12 4 5 3 9 5
split_gain=5.81979e+06 1.52368e+06 566203 451775 312535 248186
threshold=58989.000000000007 0 1 2 17.500000000000004 3
decision_type=2 5 1 5 2 1
left_child=1 5 -2 4 -4 -1
right_child=2 -3 3 -5 -6 -7
leaf_value=0.13742982270038331 0.12770766570072031 0.10499087952625329 0.015462604941909762 -0.078029402411512849 -0.044390981585168528 -0.04532998586219323
leaf_count=2367 5861 1141764 4076335 13222254 12328252 2849851
internal_value=0 0.871043 -0.413806 -0.462773 -0.248675 -0.299579
internal_count=33626684 3993982 29632702 29626841 16404587 2852218
cat_boundaries=0 16 17 22 23
cat_threshold=1073741824 0 0 621806080 33554625 262144 0 256 16777224 536870912 0 50856448 4194304 0 1610614784 16 16711680 38363264 536872960 268566528 4194305 134217792 16711680
shrinkage=0.1


Tree=15
num_leaves=7
num_cat=4
split_feature=1 11 3 1 4 8
split_gain=5.54779e+06 850859 515477 364689 273942 265366
threshold=0 1.5000000000000002 1 2 3 5.5000000000000009
decision_type=5 2 5 5 5 2
left_child=-1 2 4 -3 -2 -4
right_child=1 3 5 -5 -6 -7
leaf_value=0.10306755725510426 -0.037266638066389211 -0.020406018029257872 0.086340972098770938 -0.074555418906374279 0.068508077413673846 -0.050910070370120464
leaf_count=833926 1232483 7070522 84197 17353729 2372225 4679602
internal_value=0 -0.281976 0.142397 -0.527561 0.501884 -0.336741
internal_count=33626684 32792758 8368507 24424251 3604708 4763799
cat_boundaries=0 7 12 15 31
cat_threshold=537461793 1351887016 1868036 570431617 1179648 32768 1024 560554177 671351136 1052680 4325377 134217792 68422400 1 268435457 16916480 0 0 537919488 37749381 0 1048576 262144 4194816 134217728 1048900 512 4259840 1073741826 537397249 132112
shrinkage=0.1


Tree=16
num_leaves=7
num_cat=5
split_feature=1 5 11 3 4 3
split_gain=4.91143e+06 773674 600764 678654 227241 126223
threshold=0 1 3.5000000000000004 2 3 4
decision_type=5 1 2 5 5 5
left_child=4 -2 3 -3 -1 -4
right_child=1 2 5 -5 -6 -7
leaf_value=0.030914356938997457 0.12509845860455601 0.024507902106821154 -0.055534982937583889 -0.05225680831983727 0.10540761393377679 -0.10035387618128491
leaf_count=515448 11003 7154751 10070240 9776828 556671 5541743
internal_value=0 -0.276259 -0.341013 -0.117489 0.98793 -0.699138
internal_count=33626684 32554565 32543562 16931579 1072119 15611983
cat_boundaries=0 7 8 27 42 47
cat_threshold=538510369 1083451560 270041348 570431617 1179648 32768 1024 16711680 560554113 671352896 1052680 4325377 0 0 0 0 0 0 0 0 0 0 0 0 0 0 2147483648 0 0 0 20987904 0 0 0 0 8 536870912 8388608 33554432 4194304 0 1073741826 543776768 2048 2147500032 131073 1088
shrinkage=0.1


Tree=17
num_leaves=7
num_cat=4
split_feature=1 5 8 1 1 8
split_gain=4.3523e+06 732225 573746 629060 52962.6 52776.4
threshold=0 1 5.5000000000000009 2 3 28.500000000000004
decision_type=5 1 2 5 5 2
left_child=5 -2 4 -4 -3 -1
right_child=1 2 3 -5 -6 -7
leaf_value=0.10771798211702865 0.12346029421634107 -0.073564439488264896 -0.0010107450837326573 -0.061752236124486048 0.091751733756513229 0.085728384629283699
leaf_count=238197 11750 52112 8879127 23675070 184688 585740
internal_value=0 -0.243149 -0.306441 -0.373318 0.83636 0.98826
internal_count=33626684 32802747 32790997 32554197 236800 823937
cat_boundaries=0 7 8 11 16
cat_threshold=537461793 1083451560 270041348 570431617 1179648 32768 1024 16711680 1313536 268435457 262147 1459630416 6460482 2166364186 2097424 8388608
shrinkage=0.1


Tree=18
num_leaves=7
num_cat=3
split_feature=10 9 3 5 3 11
split_gain=2.86249e+06 709938 471807 283985 260827 282679
threshold=4.5000000000000009 3.5000000000000004 0 1 2 2.5000000000000004
decision_type=2 2 5 1 5 2
left_child=1 -1 -3 -2 5 -5
right_child=3 2 -4 4 -6 -7
leaf_value=0.094362931812088158 0.12221025808169893 0.048657871092064556 -0.05012696131366029 0.018585676304004747 -0.075140827425388274 -0.04141718836361441
leaf_count=1305943 4320 4012473 2234308 3974702 8125097 13969841
internal_value=0 0.645463 0.278092 -0.342948 -0.37688 -0.243823
internal_count=33626684 7552724 6246781 26073960 26069640 17944543
cat_boundaries=0 19 20 39
cat_threshold=560865281 671350848 269619200 4202497 134217728 0 0 0 0 0 0 0 0 0 0 0 0 0 2147483648 16711680 594502801 671352912 2148536320 131073 64 0 0 0 0 0 0 0 0 0 0 0 0 0 2147483648
shrinkage=0.1


Tree=19
num_leaves=7
num_cat=4
split_feature=12 4 11 3 3 4
split_gain=3.11971e+06 1.18411e+06 329809 321127 273976 218688
threshold=58989.000000000007 0 2.5000000000000004 1 2 3
decision_type=2 5 2 5 5 5
left_child=1 4 3 -2 5 -1
right_child=2 -3 -4 -5 -6 -7
leaf_value=-0.068482529843900825 0.011390711534675699 0.10170822634067903 -0.052900140410803799 -0.066692927946657848 -0.073600690212603279 0.049005743774762793
leaf_count=928369 7787182 718854 18147514 3696345 1551022 797398
internal_value=0 0.743281 -0.302038 -0.0644587 -0.0643971 0.236524
internal_count=33626684 3995643 29631041 11483527 3276789 1725767
cat_boundaries=0 16 21 40 56
cat_threshold=1073741824 0 0 621806080 33685697 262144 0 256 16777224 536870912 142606336 50856448 4194304 1073741824 1610614784 16 39806416 536873232 0 4194305 134217728 560472065 134479968 2148667400 8193 134217728 0 0 0 0 0 0 0 0 0 0 0 0 0 2147483648 1073741824 0 0 537919488 33554561 0 0 256 0 0 0 524800 4194304 0 2048 16
shrinkage=0.1


Tree=20
num_leaves=7
num_cat=3
split_feature=1 7 1 12 3 9
split_gain=3.1499e+06 495305 632651 543357 171401 153611
threshold=0 95.500000000000014 1 274666.00000000006 2 2.5000000000000004
decision_type=5 2 5 2 5 2
left_child=-1 5 3 -3 -4 -2
right_child=1 2 4 -5 -6 -7
leaf_value=0.093657762877396161 0.090483100072539416 0.0449799446472555 -0.044324887839660349 -0.041939782652023617 -0.09238006619064576 0.011893933697336307
leaf_count=802252 227034 3328628 14321384 5962368 7606621 1378397
internal_value=0 -0.200488 -0.304318 0.0417337 -0.591396 0.444762
internal_count=33626684 32824432 31219001 9290996 21928005 1605431
cat_boundaries=0 7 10 15
cat_threshold=537461793 1075062952 1605892 570431489 1179648 32768 1024 85199616 276824065 268697603 594501633 262144 1048584 4325377 8256
shrinkage=0.1


Tree=21
num_leaves=7
num_cat=4
split_feature=12 4 4 12 4 3
split_gain=2.33863e+06 1.0938e+06 292157 383849 245009 211229
threshold=58989.000000000007 0 1 274666.00000000006 2 3
decision_type=2 5 5 2 5 5
left_child=1 5 3 4 -2 -1
right_child=2 -3 -4 -5 -6 -7
leaf_value=0.018101319119789849 0.020082108023467899 0.098701100971906444 -0.037436648521628764 -0.023733698413603059 0.16731858943415812 -0.068849156608559503
leaf_count=1747305 827946 698858 25409701 3292008 100648 1550218
internal_value=0 0.689642 -0.256199 0.164592 0.90593 -0.0914033
internal_count=33626684 3996381 29630303 4220602 928594 3297523
cat_boundaries=0 16 32 48 67
cat_threshold=1073741824 0 0 621822464 33685697 262144 0 256 16777224 536870912 142606336 50856448 4194304 1073741824 1610614786 16 0 0 0 16793600 64 0 10485760 1049600 4 536870912 134234112 524288 4456448 545259552 262146 512 0 0 0 16777216 64 0 0 0 0 0 0 524288 0 8388608 2 512 560472065 134480224 269619208 8193 134217728 0 0 0 0 0 0 0 0 0 0 0 0 0 2147483648
shrinkage=0.1


Tree=22
num_leaves=7
num_cat=6
split_feature=1 5 4 1 4 1
split_gain=2.47534e+06 521996 394291 407746 164980 139071
threshold=0 1 2 3 4 5
decision_type=5 1 5 5 5 5
left_child=4 -2 -3 -4 5 -1
right_child=1 2 3 -5 -6 -7
leaf_value=0.029249641219999914 0.11887517170052456 -0.076775215772653116 -0.063233044905519703 0.0020238630454512672 0.096575534968957918 -0.27956507578058892
leaf_count=187459 12133 7604319 7280129 17943791 535868 62985
internal_value=0 -0.169431 -0.223338 -0.117722 0.901035 0.0784734
internal_count=33626684 32840372 32828239 25223920 786312 250444
cat_boundaries=0 7 8 24 30 45 46
cat_threshold=537461793 1075062920 1605892 570431489 1179648 32768 1024 16711680 17440768 0 0 807010304 37748865 262144 1056768 262144 512 134217728 135266564 4608 4194304 1073741824 524288 132113 2460020946 537002000 541328384 2097408 0 1 0 0 0 16793600 0 0 0 0 0 536870912 8388608 33554432 0 1073741824 2 537396224
shrinkage=0.1


Tree=23
num_leaves=7
num_cat=5
split_feature=1 5 11 4 1 4
split_gain=2.18781e+06 456308 372885 284791 203510 170337
threshold=0 1 1.5000000000000002 2 3 4
decision_type=5 1 2 5 5 5
left_child=5 -2 3 -3 -4 -1
right_child=1 2 4 -5 -6 -7
leaf_value=0.027419262007703872 0.11690631553930171 -0.057255278875255312 -0.013072122946172701 0.026745053194148161 -0.057359032241243481 0.097953528900192779
leaf_count=357516 12155 2778291 6766656 5618806 17666033 427227
internal_value=0 -0.155773 -0.204817 0.0995922 -0.385698 0.881529
internal_count=33626684 32841941 32829786 8397097 24432689 784743
cat_boundaries=0 7 8 24 27 42
cat_threshold=537461793 1075062920 1605892 33560577 1179648 32768 1024 16711680 16916480 0 0 538476544 37749377 262144 0 262144 512 134217728 135266628 134222336 272629760 0 537397248 132112 2148797184 268435489 268435457 0 0 0 16793600 0 0 0 0 0 536870912 142606336 33554432 0 32 2
shrinkage=0.1


Tree=24
num_leaves=7
num_cat=5
split_feature=1 11 4 1 4 4
split_gain=1.92212e+06 380046 287065 308177 159143 106010
threshold=0 3.5000000000000004 1 2 3 4
decision_type=5 2 5 5 5 5
left_child=4 2 -2 -4 -1 -3
right_child=1 5 3 -5 -6 -7
leaf_value=0.0044614503984242403 -0.052877348391974922 -0.0012431449637658343 -0.044937243758587112 0.028443039433979352 0.093482470962360398 -0.055895708206591413
leaf_count=250070 4597099 1920238 3554975 8999519 534178 13770605
internal_value=0 -0.141269 0.0309332 0.145282 0.861175 -0.461116
internal_count=33626684 32842436 17151593 12554494 784248 15690843
cat_boundaries=0 7 23 29 44 60
cat_threshold=537461793 1075062920 1605892 33560577 1179648 32768 1024 16916480 0 0 806879232 33554561 262144 1048576 262144 512 0 135266628 33559040 272629764 1073741824 537397249 1040 2527228114 537002000 541066240 2097408 0 1 0 0 0 20987904 0 0 0 0 0 536870912 8388608 33554432 0 1073741824 2 131072 0 0 67158016 64 8192 144703488 1311744 4 2684354560 16416 0 327680 536870912 1075838976 130
shrinkage=0.1


Tree=25
num_leaves=7
num_cat=3
split_feature=12 4 11 4 4 7
split_gain=1.42319e+06 830995 203385 156213 132158 128099
threshold=58989.000000000007 0 4.5000000000000009 1 2 110.50000000000001
decision_type=2 5 2 5 5 2
left_child=1 4 3 -2 -1 -5
right_child=2 -3 -4 5 -6 -7
leaf_value=-0.068758614727992676 -0.051434921617591195 0.092272809920554824 -0.047675240936892557 0.043995251203104532 0.0095869711149583186 -0.0074054718528687741
leaf_count=1628331 3898117 716120 12731751 1085847 1650404 11916114
internal_value=0 0.59924 -0.200631 -0.0669987 -0.089534 0.0270134
internal_count=33626684 3994855 29631829 16900078 3278735 13001961
cat_boundaries=0 16 32 48
cat_threshold=1073741824 0 0 621806080 33685697 262144 0 256 16777224 536870912 142606336 185074176 4194304 1073741824 1610614786 16 19013640 0 0 805306912 4194817 262144 532480 0 4194824 2147483648 1048928 4096 268435460 1073741824 524289 1154 1073741824 0 0 537919488 33554560 0 0 256 0 0 0 524800 4194304 0 2048 16
shrinkage=0.1


Tree=26
num_leaves=7
num_cat=4
split_feature=1 3 7 1 12 5
split_gain=1.52057e+06 403176 287777 275578 196932 165085
threshold=0 1 15.500000000000002 2 325769.00000000006 3
decision_type=5 5 2 5 2 1
left_child=-1 3 -3 -2 -5 -4
right_child=1 2 5 4 -6 -7
leaf_value=0.0820459458678858 -0.062685295564769289 0.072356530919170978 0.12076756874402178 0.0335500001758385 -0.016598103252970179 -0.056283444556481502
leaf_count=784416 3448591 120131 2276 7325291 6711999 15233980
internal_value=0 -0.125219 -0.429184 0.0732809 0.170652 -0.523755
internal_count=33626684 32842268 15356387 17485881 14037290 15236256
cat_boundaries=0 7 26 32 33
cat_threshold=537461793 1075062920 1605892 33560577 1179648 32768 1024 560554113 537133312 8 4333569 134217728 0 0 0 0 0 0 0 0 0 0 0 0 0 2147483648 312610896 560123986 3774877720 2105616 8388608 1 16711680
shrinkage=0.1


Tree=27
num_leaves=7
num_cat=4
split_feature=1 5 3 1 7 8
split_gain=1.3423e+06 353841 348106 295089 179420 86507
threshold=0 1 2 3 15.500000000000002 25.500000000000004
decision_type=5 1 5 5 2 2
left_child=5 -2 3 -3 -4 -1
right_child=1 2 4 -5 -6 -7
leaf_value=0.097980605785792541 0.11424904189660648 -0.069001320635252092 0.063159549865289669 0.0054491491146668007 -0.070819789382934387 0.057364135949557873
leaf_count=223247 12146 4667917 77557 18969393 9114816 561608
internal_value=0 -0.116607 -0.159309 -0.0360867 -0.603137 0.79815
internal_count=33626684 32841829 32829683 23637310 9192373 784855
cat_boundaries=0 7 8 27 33
cat_threshold=537461793 1075062920 1605892 33560577 1179648 32768 1024 16711680 595551361 537139232 1048584 4333569 64 0 0 0 0 0 0 0 0 0 0 0 0 0 2147483648 316674128 560107602 3774878744 2105616 8388608 1
shrinkage=0.1


Tree=28
num_leaves=7
num_cat=4
split_feature=4 7 5 2 4 10
split_gain=908622 467498 327894 242638 59220 58431
threshold=0 15.500000000000002 1 2 3 11.500000000000002
decision_type=5 2 1 5 5 2
left_child=5 4 -3 -4 -2 -1
right_child=1 2 3 -5 -6 -7
leaf_value=0.091693866418413025 -0.015571026180798886 0.11177582176567594 -0.11571599527718004 -0.011532318357430729 0.092103556223331245 -0.011258361963997453
leaf_count=369472 90250 14732 1628308 31073408 166215 284299
internal_value=0 -0.0363231 -0.112768 -0.153308 0.817638 0.871377
internal_count=33626684 32972913 32716448 32701716 256465 653771
cat_boundaries=0 13 14 135 151
cat_threshold=2097152 0 0 131072 0 0 2097152 524288 0 0 0 0 262144 16711680 36 134217728 0 0 0 4194304 0 0 0 0 0 0 0 0 0 0 0 0 0 0 0 0 0 0 0 0 0 0 0 0 0 0 0 0 0 0 0 0 0 0 0 0 0 0 0 0 0 0 0 0 0 0 0 0 0 0 0 0 0 0 0 0 0 0 0 0 0 0 0 0 0 0 0 0 0 0 0 0 0 0 0 0 0 0 0 0 0 0 0 0 0 0 0 0 0 0 0 0 0 0 0 0 0 0 0 0 0 0 0 0 0 0 0 0 0 0 0 0 0 0 67108864 16785408 0 0 38799872 135168 262144 1048576 2109696 520 0 1048676 512 65536 1073741824 539756544 1168
shrinkage=0.1


Tree=29
num_leaves=7
num_cat=4
split_feature=1 3 11 1 7 4
split_gain=1.05712e+06 308873 283535 195196 181269 168213
threshold=0 1 4.5000000000000009 2 15.500000000000002 3
decision_type=5 5 2 5 2 5
left_child=5 2 3 -2 -3 -1
right_child=1 4 -4 -5 -6 -7
leaf_value=-0.012092646123134742 -0.060836372397926324 0.060549853461553761 -0.030333721844331279 0.034777348108368515 -0.045333499663535219 0.086243476512380651
leaf_count=251993 1398812 119772 8846105 7243927 15241911 524164
internal_value=0 -0.0993686 0.0730675 0.262861 -0.378248 0.758961
internal_count=33626684 32850527 17488844 8642739 15361683 776157
cat_boundaries=0 7 26 32 47
cat_threshold=537461793 1321096 1605892 33560577 1179648 32768 1024 560554113 537133312 8 4325377 134217792 0 0 0 0 0 0 0 0 0 0 0 0 0 2147483648 316670034 560107602 3779072024 2105616 8388608 1 0 0 0 20987904 0 0 0 0 0 536870912 8388608 167772160 0 0 2
shrinkage=0.1


Tree=30
num_leaves=7
num_cat=3
split_feature=1 3 11 1 8 8
split_gain=917307 288862 267969 204824 164778 91426.3
threshold=0 1 3.5000000000000004 2 5.5000000000000009 25.500000000000004
decision_type=5 5 2 5 2 2
left_child=5 2 3 -2 -3 -1
right_child=1 4 -4 -5 -6 -7
leaf_value=0.0952922713903014 -0.078804504695041536 0.068557041812418645 -0.029126526928999304 0.023625882073021062 -0.071472998568260004 0.0491490374228832
leaf_count=222607 1406682 60230 13443494 10994313 6946512 552846
internal_value=0 -0.0855842 0.00589989 0.174083 -0.583002 0.736863
internal_count=33626684 32851231 25844489 12400995 7006742 775453
cat_boundaries=0 6 25 31
cat_threshold=537461793 1321096 1605892 33560577 1179648 32768 595584449 537139456 268566536 4333569 134217728 0 0 0 0 0 0 0 0 0 0 0 0 0 2147483648 2464153680 560107602 2705331224 2105616 8388608 1
shrinkage=0.1


Tree=31
num_leaves=7
num_cat=4
split_feature=1 12 4 7 3 4
split_gain=821559 707571 259757 230176 242964 148461
threshold=0 336324.50000000006 1 15.500000000000002 2 3
decision_type=5 2 5 2 5 5
left_child=1 2 -1 -2 5 -5
right_child=3 -3 -4 4 -6 -7
leaf_value=0.0077476339032978517 0.066494825759096154 -0.051449038748579513 0.090238189335121857 -0.051032895106238034 -0.06831963559845515 -0.00094820721420601746
leaf_count=686130 192019 2836209 1433874 5701613 7688981 15087858
internal_value=0 0.500485 0.737394 -0.166708 -0.222615 -0.108893
internal_count=33626684 4956213 2120004 28670471 28478452 20789471
cat_boundaries=0 7 23 42 58
cat_threshold=538510881 1075062920 1605892 33560577 1179648 32768 1024 0 0 0 4212736 0 0 0 0 8 536870912 142606340 167772160 0 1073741856 1073741825 1026 595551489 536875008 269484040 4325377 134217792 0 0 0 0 0 0 0 0 0 0 0 0 0 2147483648 1090527240 0 0 542769184 37748865 4456448 1056768 256 0 134217728 143655168 4608 4194304 1140850688 524288 528
shrinkage=0.1


Tree=32
num_leaves=7
num_cat=6
split_feature=1 5 4 1 4 1
split_gain=704128 257223 220947 190531 188794 122081
threshold=0 1 2 3 4 5
decision_type=5 1 5 5 5 5
left_child=4 -2 -3 -4 5 -1
right_child=1 2 3 -5 -6 -7
leaf_value=-0.27438934020435352 0.11162966193233577 -0.053737871130619064 -0.039954849582572678 0.007663164612743795 0.086349096915704693 0.012549209669620538
leaf_count=62298 12159 8440161 7309259 17090195 418600 294012
internal_value=0 -0.0766489 -0.1115 -0.0251945 0.686771 -0.0248222
internal_count=33626684 32851774 32839615 24399454 774910 356310
cat_boundaries=0 6 7 23 29 44 45
cat_threshold=537461793 1321096 1605892 33560577 1179648 32768 16711680 16916488 0 0 542769184 37748865 262144 1056768 0 4194816 0 135266564 4608 4194304 1073742080 524288 1041 2543906882 805306416 541328384 0 0 1 0 0 0 20987904 0 0 0 0 0 536870912 142606336 33554432 0 0 2 32
shrinkage=0.1


Tree=33
num_leaves=7
num_cat=5
split_feature=1 11 3 4 3 1
split_gain=606357 239133 161289 148451 144406 111227
threshold=0 1.5000000000000002 1 2 3 4
decision_type=5 2 5 5 5 5
left_child=3 4 -3 -1 5 -2
right_child=1 2 -4 -5 -6 -7
leaf_value=-0.016936503287489867 -0.060110006893912563 -0.0072623556551691618 -0.050955077084757688 0.078950553577779761 -0.034493013236897997 0.036065034692515388
leaf_count=250951 886345 13923409 10510645 524627 2593823 4936884
internal_value=0 -0.064849 -0.222223 0.662798 0.182732 0.29747
internal_count=33626684 32851106 24434054 775578 8417052 5823229
cat_boundaries=0 6 25 40 59 65
cat_threshold=537461793 1321096 1605892 33560577 1179648 32768 560537600 536870912 268435464 131073 0 0 0 0 0 0 0 0 0 0 0 0 0 0 2147483648 0 0 0 16793600 0 0 0 0 0 536870912 8388608 33554432 0 1073741824 2 863987009 671351137 1052680 4325377 0 0 0 0 0 0 0 0 0 0 0 0 0 0 2147483648 2464284752 560107586 2705331224 2105616 8388608 1
shrinkage=0.1


Tree=34
num_leaves=7
num_cat=3
split_feature=1 12 5 12 12 3
split_gain=537818 564676 185203 160336 157784 153466
threshold=0 336324.50000000006 1 319340.50000000006 274666.00000000006 2
decision_type=5 2 1 2 2 5
left_child=1 3 -2 4 -1 -4
right_child=2 -3 5 -5 -6 -7
leaf_value=0.071850978927398848 0.11010025956398371 -0.049922897791956883 -0.0063623099419102729 0.2841801506322047 -0.0077433535357036651 -0.048200564453839634
leaf_count=1438763 9375 2838407 18659690 773 922895 9756781
internal_value=0 0.419072 -0.140182 0.645391 0.611903 -0.172039
internal_count=33626684 5200838 28425846 2362431 2361658 28416471
cat_boundaries=0 7 8 13
cat_threshold=672728609 1083451528 1605892 570431489 1179648 32768 1024 16711680 594501777 537139200 269484040 4325377 134217792
shrinkage=0.1


Tree=35
num_leaves=7
num_cat=3
split_feature=7 1 0 1 9 2
split_gain=509331 382538 181635 165256 147471 140228
threshold=77.500000000000014 0 292640.00000000006 1 2.5000000000000004 2
decision_type=2 5 2 5 2 5
left_child=2 5 -1 -3 -4 -2
right_child=1 3 4 -5 -6 -7
leaf_value=0.089840202333238028 -0.11807786313514526 -0.19431513665838607 0.068010556235455308 -0.024465083815663813 -0.045462345712581162 0.028924708495483412
leaf_count=618299 409423 228726 149844 25965998 667681 5586713
internal_value=0 -0.0675668 0.62311 -0.272118 0.116234 0.247272
internal_count=33626684 32190860 1435824 26194724 817525 5996136
cat_boundaries=0 7 15 136
cat_threshold=1575681 1075054729 1081605 33560577 1048576 32768 1024 1073741872 6427714 2703759384 538976656 8388672 8389633 8388608 256 4 134217728 0 0 0 0 0 0 0 0 0 0 0 0 0 0 0 0 0 0 0 0 0 0 0 0 0 0 0 0 0 0 0 0 0 0 0 0 0 0 0 0 0 0 0 0 0 0 0 0 0 0 0 0 0 0 0 0 0 0 0 0 0 0 0 0 0 0 0 0 0 0 0 0 0 0 0 0 0 0 0 0 0 0 0 0 0 0 0 0 0 0 0 0 0 0 0 0 0 0 0 0 0 0 0 0 0 0 0 0 0 0 0 0 0 0 0 0 0 0 201326592
shrinkage=0.1


Tree=36
num_leaves=7
num_cat=4
split_feature=8 1 12 4 4 4
split_gain=443968 302724 312366 281978 153829 91822.5
threshold=5.5000000000000009 0 336324.50000000006 1 2 3
decision_type=2 5 2 5 5 5
left_child=5 2 3 -2 -3 -1
right_child=1 4 -4 -5 -6 -7
leaf_value=-0.050651166863752733 -0.0010142942596235497 -0.057783950009948681 -0.045693879287250994 0.073452843683827873 -0.0097568087363837028 0.088793074133201977
leaf_count=112929 1974964 7496290 2811004 1514110 19442473 274914
internal_value=0 -0.0269065 0.237164 0.41105 -0.205777 0.792136
internal_count=33626684 33238841 6300078 3489074 26938763 387843
cat_boundaries=0 6 22 38 54
cat_threshold=1576705 1075054729 1081605 33560577 1048576 32768 0 0 0 18432 131584 8192 134217728 0 0 2684354560 142606372 184549376 0 1073741856 1075841025 1154 16785416 0 0 542638112 135297 262144 1056768 256 8 0 135266304 33559040 4194304 1073741826 1074006018 530 16777216 0 0 570427904 33689600 262144 0 2109696 520 2147483648 1048640 16781824 0 1610612738 537659393 1168
shrinkage=0.1


Tree=37
num_leaves=7
num_cat=5
split_feature=8 1 4 4 1 4
split_gain=393836 260094 155692 127737 105029 90643.9
threshold=5.5000000000000009 0 1 2 3 4
decision_type=2 5 5 5 5 5
left_child=-1 2 -2 -3 -4 -5
right_child=1 3 4 5 -6 -7
leaf_value=0.076884447484027285 -0.0043000914293430843 -0.057305704087318346 0.090600953714616822 0.078330627285364593 0.026221464131088685 -0.016002716279271825
leaf_count=387652 5942409 7547517 165290 215984 3480328 15887504
internal_value=0 -0.0280076 0.164252 -0.242126 0.389912 -0.112993
internal_count=33626684 33239032 9588027 23651005 3645618 16103488
cat_boundaries=0 7 23 39 45 58
cat_threshold=555552513 1083443337 1081607 33560577 1048576 32768 1024 0 0 0 2181057024 131584 0 0 0 16777216 2684354560 142606372 184549376 4194304 1140850720 1074003969 1154 16916488 0 0 542114336 135233 262144 1056768 256 8 0 135266560 33559040 4194304 1140850688 1073743874 528 1280 8652936 1081600 2049 0 32768 0 0 0 147456 0 0 2097152 0 0 0 0 0 262144
shrinkage=0.1


Tree=38
num_leaves=7
num_cat=3
split_feature=9 3 11 5 12 5
split_gain=332154 264055 191226 177044 65244 62697.8
threshold=1.5000000000000002 0 3.5000000000000004 1 274666.00000000006 2
decision_type=2 5 2 1 2 1
left_child=4 2 3 -2 -1 -3
right_child=1 5 -4 -5 -6 -7
leaf_value=0.079597617473591509 -0.060652336214568128 0.11071841859267362 -0.02056301675111015 0.026159066627228056 0.0083730466669029602 -0.057466008464936227
leaf_count=423978 1253190 2316 13165644 10411083 597248 7773225
internal_value=0 -0.033616 0.0532949 0.195657 0.652278 -0.532361
internal_count=33626684 32605458 24829917 11664273 1021226 7775541
cat_boundaries=0 19 20 21
cat_threshold=595584257 537133120 1179656 4325377 64 0 0 0 0 0 0 0 0 0 0 0 0 0 2147483648 49152 16711680
shrinkage=0.1


Tree=39
num_leaves=7
num_cat=5
split_feature=7 3 1 1 4 1
split_gain=339524 237752 187358 177198 68460.6 92618.7
threshold=15.500000000000002 0 1 2 3 4
decision_type=2 5 5 5 5 5
left_child=-1 2 -2 -4 -3 -6
right_child=1 4 3 -5 5 -7
leaf_value=0.074528909007268204 -0.087079048574899773 0.06779320564831201 -0.012954332919404378 0.024992110433460953 -0.22283757414825858 -0.050062306543453589
leaf_count=361204 1629218 111450 16315931 7317417 128303 7763161
internal_value=0 -0.0257157 0.055082 0.0933535 -0.501439 -0.566078
internal_count=33626684 33265480 25262566 23633348 8002914 7891464
cat_boundaries=0 19 25 30 43 50
cat_threshold=595584385 671356992 1048584 4333569 64 0 0 0 0 0 0 0 0 0 0 0 0 0 2147483648 44040304 560115794 558370840 538976656 8388608 1 474149006 268451872 3221488640 0 131072 0 0 0 131072 0 0 2097152 0 1024 0 0 0 262144 2684355632 1345474658 289673238 2107792 8388608 1 1024
shrinkage=0.1


Tree=40
num_leaves=7
num_cat=5
split_feature=7 5 1 3 4 4
split_gain=298493 218165 191448 181768 66084.8 27257.6
threshold=15.500000000000002 0 1 2 3 4
decision_type=2 1 5 5 5 5
left_child=4 -2 -3 -4 -1 -6
right_child=1 2 3 -5 5 -7
leaf_value=-0.055030414367493653 0.10791555343099735 0.093839568529116152 9.3525264833569933e-05 -0.042450277041780844 0.0070513855317258112 0.087090690361311215
leaf_count=75843 22281 61996 21804980 11376341 59212 226031
internal_value=0 -0.0304237 -0.0625516 -0.0947098 0.71473 0.803358
internal_count=33626684 33265598 33243317 33181321 361086 285243
cat_boundaries=0 1 7 26 42 58
cat_threshold=16711680 1 264328 1081600 2049 0 32768 594501761 537139264 2147614728 139265 134217728 0 0 0 0 0 0 0 0 0 0 0 0 0 2147483648 16785408 0 0 336595456 135168 262144 9437184 2371840 4194816 0 1048644 4608 65536 1073741824 539492352 1168 524288 0 0 2722103296 37749380 0 524288 1049600 8 134217728 16416 185073664 272760836 0 296963 3
shrinkage=0.1


Tree=41
num_leaves=7
num_cat=2
split_feature=7 5 2 7 0 12
split_gain=259340 193391 165419 185003 77113.3 73602.9
threshold=15.500000000000002 0 1 2314.5000000000005 292640.00000000006 39745.500000000007
decision_type=2 1 5 2 2 2
left_child=4 -2 -3 -4 -1 -6
right_child=1 2 3 -5 5 -7
leaf_value=0.097359479812410651 0.10711268501570947 -0.099506633930376717 -0.010673424411451353 0.0352538008816599 0.071390624065291536 -0.051095198730681614
leaf_count=127019 22520 1657245 25208180 6377560 74149 160011
internal_value=0 -0.020486 -0.0496874 -0.0200745 0.693058 0.198719
internal_count=33626684 33265505 33242985 31585740 361179 234160
cat_boundaries=0 1 122
cat_threshold=16711680 36 134217728 0 0 0 4194304 0 0 0 0 0 0 0 0 0 0 0 0 0 0 0 0 0 0 0 0 0 0 0 0 0 0 0 0 0 0 0 0 0 0 0 0 0 0 0 0 0 0 0 0 0 0 0 0 0 0 0 0 0 0 0 0 0 0 0 0 0 0 0 0 0 0 0 0 0 0 0 0 0 0 0 0 0 0 0 0 0 0 0 0 0 0 0 0 0 0 0 0 0 0 0 0 0 0 0 0 0 0 0 0 0 0 0 0 0 0 0 0 0 0 67108864
shrinkage=0.1


Tree=42
num_leaves=7
num_cat=3
split_feature=4 11 1 12 7 1
split_gain=246662 156322 174084 147521 118550 101030
threshold=0 1.5000000000000002 1 274666.00000000006 2432.5000000000005 2
decision_type=5 2 5 2 2 5
left_child=-1 2 3 -2 -3 -6
right_child=1 4 -4 -5 5 -7
leaf_value=0.064765145983845737 0.084096117170203669 -0.02629950145604994 -0.0068590444064712437 0.0096402465929965875 0.043327134721405154 -0.026803612071349271
leaf_count=596824 490146 18306744 6143643 2003587 2697759 3387981
internal_value=0 -0.0259777 0.170722 0.472779 -0.159279 0.162373
internal_count=33626684 33029860 8637376 2493733 24392484 6085740
cat_boundaries=0 8 14 21
cat_threshold=2097152 0 0 147456 0 0 2097152 524288 17629961 277899448 1048838 570431489 131072 32768 689180425 2233 270008579 33556480 0 0 1024
shrinkage=0.1


Tree=43
num_leaves=7
num_cat=3
split_feature=8 5 2 1 12 0
split_gain=210076 165067 151913 141265 60292.3 39129.9
threshold=5.5000000000000009 0 1 2 27078.500000000004 292640.00000000006
decision_type=2 1 5 5 2 2
left_child=4 -2 -3 -4 -1 -6
right_child=1 2 3 -5 5 -7
leaf_value=0.091468860279244488 0.10682872418359285 -0.098103944923894806 0.02384666673996701 -0.011565528023268901 0.062832746954273003 -0.028998323448514152
leaf_count=153142 19914 1657076 4541160 27020357 82952 152083
internal_value=0 -0.0213151 -0.0466693 -0.0188257 0.650394 0.198615
internal_count=33626684 33238507 33218593 31561517 388177 235035
cat_boundaries=0 1 122 128
cat_threshold=16711680 36 134217728 0 0 0 4194304 0 0 0 0 0 0 0 0 0 0 0 0 0 0 0 0 0 0 0 0 0 0 0 0 0 0 0 0 0 0 0 0 0 0 0 0 0 0 0 0 0 0 0 0 0 0 0 0 0 0 0 0 0 0 0 0 0 0 0 0 0 0 0 0 0 0 0 0 0 0 0 0 0 0 0 0 0 0 0 0 0 0 0 0 0 0 0 0 0 0 0 0 0 0 0 0 0 0 0 0 0 0 0 0 0 0 0 0 0 0 0 0 0 0 201326592 16777985 67373192 1081606 33576961 0 32768
shrinkage=0.1


Tree=44
num_leaves=7
num_cat=5
split_feature=4 5 1 1 1 11
split_gain=202663 164894 140284 168643 50117 38286.7
threshold=0 1 2 3 4 5.5000000000000009
decision_type=5 1 5 5 5 2
left_child=4 -2 -3 -4 -1 -6
right_child=1 2 3 -5 5 -7
leaf_value=-0.054676736743112776 0.10572280143746988 -0.16011951622754428 -0.028305135685658622 0.0083138546299843883 0.075771324685523389 -0.0424291381816264
leaf_count=117528 22786 265452 16750328 15935584 377287 157719
internal_value=0 -0.0284116 -0.0543111 -0.038478 0.61025 0.690043
internal_count=33626684 32974150 32951364 32685912 652534 535006
cat_boundaries=0 13 14 23 30 34
cat_threshold=2097152 0 0 131072 0 0 2097152 524288 0 0 0 0 262144 16711680 1073741872 23204930 2703497240 2105616 8388672 8389633 8388608 256 1024 333640902 336642064 1073741826 536875136 1048576 0 1024 2281753088 1879056417 4457472 128
shrinkage=0.1


Tree=45
num_leaves=7
num_cat=4
split_feature=7 3 7 1 1 4
split_gain=197061 198915 151509 133345 111386 109273
threshold=95.500000000000014 0 1470.5000000000002 1 2 3
decision_type=2 5 2 5 5 5
left_child=3 2 4 -1 -2 -4
right_child=1 -3 5 -5 -6 -7
leaf_value=0.082114943197384854 0.094569488847401559 -0.062667788581514131 -0.035699644159130198 0.009317051184353253 -0.014670183976280886 0.037078037574013366
leaf_count=481652 37755 5674437 1987077 1320961 17079036 7045766
internal_value=0 -0.050897 0.0139218 0.43047 -0.113484 0.26216
internal_count=33626684 31824071 26149634 1802613 17116791 9032843
cat_boundaries=0 19 25 31 47
cat_threshold=595584841 537133120 1048584 139265 134217792 0 0 0 0 0 0 0 0 0 0 0 0 0 2147483648 671679529 537159864 1869060 570429569 1179648 32768 0 262280 1081604 1 0 32768 1090658312 0 0 541196320 512 4194304 1056768 524288 1024 134217728 135266564 134746624 272629760 1073741856 524290 1040
shrinkage=0.1


Tree=46
num_leaves=7
num_cat=2
split_feature=9 3 7 12 12 5
split_gain=173729 170500 97842.6 83597 405655 266940
threshold=1.5000000000000002 0 2314.5000000000005 740942.00000000012 596043.50000000012 1
decision_type=2 5 2 2 2 1
left_child=-1 3 -3 4 -2 -5
right_child=1 2 -4 5 -6 -7
leaf_value=0.053438654154960269 0.010758285814619056 -0.037634515485190492 0.014135223104165843 0.54452776374611755 0.44350075916030224 -0.078018473806884647
leaf_count=1021253 14831322 12300096 3731945 284 825 1740959
internal_value=0 -0.0329085 -0.259804 0.0992486 0.135307 -0.545975
internal_count=33626684 32605431 16032041 16573390 14832147 1741243
cat_boundaries=0 19 20
cat_threshold=560472065 536870912 131080 4325377 134217792 0 0 0 0 0 0 0 0 0 0 0 0 0 2147483648 30848
shrinkage=0.1


Tree=47
num_leaves=7
num_cat=4
split_feature=11 5 4 1 4 7
split_gain=191230 168236 106073 99469 89187.5 70432.3
threshold=2.5000000000000004 0 1 2 3 2314.5000000000005
decision_type=2 1 5 5 5 2
left_child=1 4 -3 -4 -1 -2
right_child=5 2 3 -5 -6 -7
leaf_value=0.048618625002297598 -0.030268380627017789 -0.011399036335468715 -0.00058127506076590524 0.045202480023365882 -0.06063635362833672 0.0054450706724936014
leaf_count=169767 13462012 3475786 3113726 5248547 2271706 5885140
internal_value=0 0.165911 0.248023 0.339439 -0.391196 -0.190107
internal_count=33626684 14279532 11838059 8362273 2441473 19347152
cat_boundaries=0 1 17 24 39
cat_threshold=57344 16908288 0 0 605028352 37749376 0 0 12288 512 536870912 135266372 167776256 37879812 1073741824 1074268161 1041 2258778322 1879179313 1615594498 538968320 0 1 1024 0 0 0 131104 0 0 2097152 2622464 16777216 0 0 0 0 536870912 262144
shrinkage=0.1


Tree=48
num_leaves=7
num_cat=5
split_feature=11 3 4 1 1 1
split_gain=173093 138923 80379.9 76127.2 71525.9 83049.6
threshold=4.5000000000000009 0 1 2 3 4
decision_type=2 5 5 5 5 5
left_child=1 4 -3 -4 -1 -6
right_child=-2 2 3 -5 5 -7
leaf_value=-0.054218827456272795 -0.026080861707544752 -0.056134247522550675 0.081869467197531007 -0.005922976224589668 0.0087387597999253244 0.044579807303903062
leaf_count=929670 13396167 2783040 68244 8652956 4620557 3176050
internal_value=0 0.121272 -0.0915799 0.00141713 0.263149 0.295324
internal_count=33626684 20230517 11504240 8721200 8726277 7796607
cat_boundaries=0 19 35 41 47 51
cat_threshold=560472209 671352913 1052680 4325377 64 0 0 0 0 0 0 0 0 0 0 0 0 0 2147483648 16785408 0 0 806371840 33554560 262144 1572864 0 512 671088640 143654976 50336256 4390916 1073741824 537395200 1040 4260897 8659080 1081600 570429440 131072 32768 2459959376 560107602 3774878744 538976528 8388608 1 207026338 32 4980737 128
shrinkage=0.1


Tree=49
num_leaves=7
num_cat=3
split_feature=5 11 5 7 7 4
split_gain=160719 130591 134602 117410 74625 60570.9
threshold=0 5.5000000000000009 1 2432.5000000000005 1606.5000000000002 2
decision_type=1 2 1 2 2 5
left_child=-1 2 5 -4 -3 -2
right_child=1 4 3 -5 -6 -7
leaf_value=0.10445961587593455 0.017108885160101412 -0.055503102954314987 0.0065019652989141037 0.059928325235293969 -0.0078058725943800826 -0.072692838171281568
leaf_count=38511 372014 5459660 17567958 1957526 6168283 2062732
internal_value=0 -0.00777377 0.0714703 0.122865 -0.283003 -0.491864
internal_count=33626684 33588173 21960230 19525484 11627943 2434746
cat_boundaries=0 1 2 18
cat_threshold=16711680 49152 0 0 0 2147614752 0 0 2097152 2622720 16777216 0 16640 0 0 536870914 262145 512
shrinkage=0.1


Tree=50
num_leaves=7
num_cat=3
split_feature=12 4 12 4 7 3
split_gain=135212 119467 170048 109822 93286.9 93598.5
threshold=3282.0000000000005 0 274666.00000000006 1 1470.5000000000002 2
decision_type=2 5 2 5 2 5
left_child=-1 2 3 -2 5 -3
right_child=1 4 -4 -5 -6 -7
leaf_value=0.06135501361003122 0.035044574438225541 -0.0067063491284140228 -0.017323080887217492 0.1267249190473016 0.011908466025795112 -0.043132088486719081
leaf_count=343240 1429359 10555638 2585484 80154 9722003 8910806
internal_value=0 -0.0215312 0.252589 0.573361 -0.0974823 -0.19335
internal_count=33626684 33283444 4094997 1509513 29188447 19466444
cat_boundaries=0 14 28 47
cat_threshold=2097152 0 0 147456 4160 8192 10485760 1049600 1028 0 16448 0 262144 545275904 0 0 0 147456 4160 8192 2097152 0 1024 0 0 0 0 8404992 560472209 671353201 269619200 4194305 0 0 0 0 0 0 0 0 0 0 0 0 0 0 2147483648
shrinkage=0.1


Tree=51
num_leaves=7
num_cat=3
split_feature=2 12 4 12 4 12
split_gain=149241 132300 104846 93411.6 32657.7 28115.4
threshold=0 3282.0000000000005 1 274666.00000000006 2 417339.50000000006
decision_type=5 2 5 2 5 2
left_child=-1 4 5 -4 -2 -3
right_child=1 2 3 -5 -6 -7
leaf_value=-0.093435887277617674 -0.063956042028224871 -0.037184852307726828 0.020493086707822055 -0.007901833571564286 0.074026387420032938 0.013922040374271369
leaf_count=1674844 59896 6686772 8210122 15398763 201906 1394381
internal_value=0 0.041233 0.00505021 0.0662972 0.662798 -0.302889
internal_count=33626684 31951840 31690038 23608885 261802 8081153
cat_boundaries=0 121 137 153
cat_threshold=36 134217728 0 0 0 4194304 0 0 0 0 0 0 0 0 0 0 0 0 0 0 0 0 0 0 0 0 0 0 0 0 0 0 0 0 0 0 0 0 0 0 0 0 0 0 0 0 0 0 0 0 0 0 0 0 0 0 0 0 0 0 0 0 0 0 0 0 0 0 0 0 0 0 0 0 0 0 0 0 0 0 0 0 0 0 0 0 0 0 0 0 0 0 0 0 0 0 0 0 0 0 0 0 0 0 0 0 0 0 0 0 0 0 0 0 0 0 0 0 0 0 67108864 16916488 0 0 538443808 37748737 0 1056768 786432 512 0 135266564 167776768 37748736 1073742080 2048 1041 0 0 0 2147485696 64 262144 134217728 0 16777216 0 134217728 134742016 4194304 1073741856 536870930 16
shrinkage=0.1


Tree=52
num_leaves=7
num_cat=2
split_feature=2 7 0 3 7 9
split_gain=128360 124799 167594 148002 120864 63755.6
threshold=0 95.500000000000014 292640.00000000006 1 1405.5000000000002 1.5000000000000002
decision_type=5 2 2 5 2 2
left_child=-1 2 -2 4 -3 -4
right_child=1 3 5 -5 -6 -7
leaf_value=-0.088719941872576924 0.072303724291594748 -0.0084833024646761394 0.057756713286242337 -0.054586029257741725 0.026015373743124477 -0.04319260386008808
leaf_count=1674390 838341 16480754 78200 5212122 8550239 792638
internal_value=0 0.0395993 0.385875 -0.021988 0.0348757 -0.176656
internal_count=33626684 31952294 1709179 30243115 25030993 870838
cat_boundaries=0 121 140
cat_threshold=36 134217728 0 0 0 4194304 0 0 0 0 0 0 0 0 0 0 0 0 0 0 0 0 0 0 0 0 0 0 0 0 0 0 0 0 0 0 0 0 0 0 0 0 0 0 0 0 0 0 0 0 0 0 0 0 0 0 0 0 0 0 0 0 0 0 0 0 0 0 0 0 0 0 0 0 0 0 0 0 0 0 0 0 0 0 0 0 0 0 0 0 0 0 0 0 0 0 0 0 0 0 0 0 0 0 0 0 0 0 0 0 0 0 0 0 0 0 0 0 0 0 67108864 595584841 536870912 2416967688 4202497 134217792 0 0 0 0 0 0 0 0 0 0 0 0 0 2147483648
shrinkage=0.1


Tree=53
num_leaves=7
num_cat=5
split_feature=5 2 1 12 1 1
split_gain=137468 105169 123410 139131 24387.2 13916.8
threshold=0 1 2 58989.000000000007 3 4
decision_type=1 5 5 2 5 5
left_child=-1 4 -3 -4 -2 -6
right_child=1 2 3 -5 5 -7
leaf_value=0.10404191298195611 -0.012178783028850265 -0.087986640201310112 0.031667243765005286 -0.0054945113353958974 -0.68377173758725385 -0.10579701642220728
leaf_count=38271 491261 1554962 2136290 28220776 3357 1181767
internal_value=0 -0.0119623 0.00953769 0.0339295 -0.850356 -1.07989
internal_count=33626684 33588413 31912028 30357066 1676385 1185124
cat_boundaries=0 1 122 128 135 138
cat_threshold=16711680 36 134217728 0 0 0 4194304 0 0 0 0 0 0 0 0 0 0 0 0 0 0 0 0 0 0 0 0 0 0 0 0 0 0 0 0 0 0 0 0 0 0 0 0 0 0 0 0 0 0 0 0 0 0 0 0 0 0 0 0 0 0 0 0 0 0 0 0 0 0 0 0 0 0 0 0 0 0 0 0 0 0 0 0 0 0 0 0 0 0 0 0 0 0 0 0 0 0 0 0 0 0 0 0 0 0 0 0 0 0 0 0 0 0 0 0 0 0 0 0 0 0 201326592 2457862224 291688546 3775140888 2105616 8388608 1 69484680 294912 33025 16512 0 32768 1024 0 1073750024 4
shrinkage=0.1


Tree=54
num_leaves=7
num_cat=5
split_feature=5 11 5 4 4 4
split_gain=123820 97955.1 111213 74683.3 65675.6 64401.6
threshold=0 1.5000000000000002 1 2 3 4
decision_type=1 2 1 5 5 5
left_child=-1 2 3 -2 -4 -3
right_child=1 5 4 -5 -6 -7
leaf_value=0.10364951498575847 0.030751146178690077 -0.052319056028543975 -0.005620404216952638 -0.048312742311403367 0.03819375555771351 -0.0069092246956259165
leaf_count=38355 479720 3671536 2123737 2142356 4107921 21063059
internal_value=0 -0.00713179 0.149479 -0.23958 0.270419 -0.115151
internal_count=33626684 33588329 8853734 2622076 6231658 24734595
cat_boundaries=0 1 2 18 34 50
cat_threshold=16711680 63488 0 0 0 133152 0 0 10485760 2622464 16777220 0 134234112 4096 0 545259520 264194 512 17432584 0 0 3020947456 33554944 0 524288 12288 16777216 536870912 672137316 167776256 4194304 0 1074268161 1040 1090527240 0 0 827851264 4194305 0 8192 524288 4194304 134217728 143655172 4608 37748736 1073741856 524288 1041
shrinkage=0.1


Tree=55
num_leaves=7
num_cat=3
split_feature=11 3 3 4 8 12
split_gain=105361 106022 64378.7 62348.8 53321.2 52965.3
threshold=6.5000000000000009 0 1 2 13520.500000000002 3282.0000000000005
decision_type=2 5 5 5 2 2
left_child=1 5 -3 -4 -2 -1
right_child=4 2 3 -5 -6 -7
leaf_value=0.07119735660191763 -0.03300482962991682 -0.12721865063754936 0.060348206610301741 -0.013076129703512901 0.04871779993607734 0.015901929946800404
leaf_count=135092 9659507 510430 344456 12257519 525261 10194419
internal_value=0 0.0735013 -0.110636 -0.0812329 -0.267105 0.194813
internal_count=33626684 23441916 13112405 12601975 10184768 10329511
cat_boundaries=0 19 47 61
cat_threshold=560472209 671352912 269488136 1 64 0 0 0 0 0 0 0 0 0 0 0 0 0 2147483648 36 3615499392 69854179 65622 0 0 0 0 0 0 0 0 0 0 0 0 0 0 0 0 0 0 0 0 0 0 0 4 1073741824 0 0 131072 0 4194304 2097152 524288 1024 0 0 524288 262144 536870914
shrinkage=0.1


Tree=56
num_leaves=7
num_cat=5
split_feature=5 5 7 1 1 4
split_gain=110391 92929 97700.3 97653.9 91774 27167
threshold=0 1 110.50000000000001 2 3 4
decision_type=1 1 2 5 5 5
left_child=-1 5 4 -4 -3 -2
right_child=1 2 3 -5 -6 -7
leaf_value=0.1032700463244659 -0.0015023723684502786 0.073550213772256498 -0.13379392610695515 -0.0022648447752884231 0.0061115139064515473 -0.08097187669453379
leaf_count=38433 326741 490602 282823 29496883 1404926 1586276
internal_value=0 -0.00860319 0.0179134 -0.0388288 0.331793 -0.620947
internal_count=33626684 33588251 31675234 29779706 1895528 1913017
cat_boundaries=0 1 2 8 14 30
cat_threshold=16711680 32768 1073807408 23245890 2689341464 538976528 8519680 8388609 671679529 272536 1606916 570445953 1179648 32768 0 0 0 133120 0 0 2097152 2622720 16777216 0 16448 0 262144 612368384 1 16
shrinkage=0.1


Tree=57
num_leaves=7
num_cat=4
split_feature=5 1 0 7 4 1
split_gain=99371.8 90670.7 86274.5 179111 51410.9 3853.88
threshold=0 1 292640.00000000006 95.500000000000014 2 3
decision_type=1 5 2 2 5 5
left_child=-1 5 3 -3 -4 -2
right_child=1 2 4 -5 -6 -7
leaf_value=0.10293837991050631 0.095835929720664167 0.060185933615191291 0.0046365788816929744 -0.0048272506704408417 -0.067659802254262283 0.058314137643226877
leaf_count=38266 43729 832929 430682 30668155 1568824 44099
internal_value=0 -0.00716384 -0.026043 0.0109098 -0.444974 0.835729
internal_count=33626684 33588418 33500590 31501084 1999506 87828
cat_boundaries=0 1 7 22 24
cat_threshold=16711680 0 270472 1081600 4097 131072 32768 1073741824 0 0 2147614752 68 4202496 2097152 1835264 1024 0 0 0 262144 536870944 294931 0 8
shrinkage=0.1


Tree=58
num_leaves=7
num_cat=3
split_feature=5 2 7 8 7 4
split_gain=89636.2 85174.7 80087.4 117498 98689.2 22485.2
threshold=0 1 2432.5000000000005 362.50000000000006 138.50000000000003 2
decision_type=1 5 2 2 2 5
left_child=-1 5 4 -4 -3 -2
right_child=1 2 3 -5 -6 -7
leaf_value=0.10254198996171895 -0.010936582618331532 0.023615033757775863 0.1276476085021532 0.015070273557927453 -0.012262538851572887 -0.10379202767733464
leaf_count=38172 463411 2692977 306942 5764663 23148647 1211872
internal_value=0 -0.00831307 0.010803 0.26787 -0.0454706 -0.794017
internal_count=33626684 33588512 31913229 6071605 25841624 1675283
cat_boundaries=0 1 122 138
cat_threshold=16711680 36 134217728 0 0 0 4194304 0 0 0 0 0 0 0 0 0 0 0 0 0 0 0 0 0 0 0 0 0 0 0 0 0 0 0 0 0 0 0 0 0 0 0 0 0 0 0 0 0 0 0 0 0 0 0 0 0 0 0 0 0 0 0 0 0 0 0 0 0 0 0 0 0 0 0 0 0 0 0 0 0 0 0 0 0 0 0 0 0 0 0 0 0 0 0 0 0 0 0 0 0 0 0 0 0 0 0 0 0 0 0 0 0 0 0 0 0 0 0 0 0 0 67108864 1073741832 0 0 100663328 133 8192 524288 524544 16777216 2147483648 536870912 150994944 393216 612385024 2067 17
shrinkage=0.1


Tree=59
num_leaves=7
num_cat=4
split_feature=5 11 1 12 5 4
split_gain=83528.5 85297.4 83568.3 124493 86662.4 49496.9
threshold=0 2.5000000000000004 1 274666.00000000006 2 3
decision_type=1 2 5 2 1 5
left_child=-1 2 3 -2 -4 -3
right_child=1 5 4 -5 -6 -7
leaf_value=-0.058640749605086841 0.077990652911352987 -0.056620198627597464 -0.020341563409351168 0.010466917372124218 0.020768917528423209 -0.0069790264355623303
leaf_count=1910578 354047 2444828 5068845 3734128 4390980 15723278
internal_value=0 0.0306643 0.134363 0.345188 0.0122742 -0.118986
internal_count=33626684 31716106 13548000 4088175 9459825 18168106
cat_boundaries=0 1 7 8 24
cat_threshold=32768 590349 67397768 1081600 33576961 131072 32768 32576 1090527240 0 0 809648672 4194304 4194304 1048576 524288 0 134217728 135266564 528896 272629760 1073742112 524288 132112
shrinkage=0.1


Tree=60
num_leaves=7
num_cat=4
split_feature=3 3 1 12 1 12
split_gain=80265 64564.6 64558.2 80416.1 41615.3 41681.4
threshold=0 1 2 3282.0000000000005 3 8373.0000000000018
decision_type=5 5 5 2 5 2
left_child=4 -2 -3 -4 -1 -6
right_child=1 2 3 -5 5 -7
leaf_value=-0.049799417315164712 -0.1230185877982744 -0.090243887743980386 0.072600647290380557 -0.0081273509870182104 0.069144838719027171 0.014477964063997524
leaf_count=785973 628518 1106195 106410 21900159 126452 8972977
internal_value=0 -0.0891882 -0.0729602 -0.0503225 0.154784 0.183778
internal_count=33626684 23741282 23112764 22006569 9885402 9099429
cat_boundaries=0 19 47 53 59
cat_threshold=560464017 536872960 2147614728 8193 64 0 0 0 0 0 0 0 0 0 0 0 0 0 2147483648 36 3616547968 69854179 86 0 0 0 0 0 0 0 0 0 0 0 0 0 0 0 0 0 0 0 0 0 0 0 4 310378576 1901252706 809504792 2105744 8388608 1 2459959440 558026834 1611142168 538976656 8388608 1
shrinkage=0.1


Tree=61
num_leaves=7
num_cat=4
split_feature=5 0 8 3 4 4
split_gain=77988.8 76069.4 99170.9 117821 67732.3 50298.4
threshold=0 292640.00000000006 28.500000000000004 1 2 3
decision_type=1 2 2 5 5 5
left_child=-1 2 4 -4 -2 -3
right_child=1 5 3 -5 -6 -7
leaf_value=0.10229963257199398 -0.018336847389356498 -0.1139736186488501 0.0024511527248310583 -0.05306005768501753 0.056363093809770219 -0.025131293014461126
leaf_count=38380 593102 482577 25181693 4675155 1130566 1525211
internal_value=0 -0.00880711 0.0257549 -0.0280315 0.385207 -0.403327
internal_count=33626684 33588304 31580516 29856848 1723668 2007788
cat_boundaries=0 1 20 36 52
cat_threshold=16711680 595584842 536871424 2147614728 4333569 8192 0 0 0 0 0 0 0 0 0 0 0 0 0 2147483648 16908288 0 0 2182088704 33689601 0 524288 262144 4194816 0 9453604 50335744 268435460 0 559105 1169 2105344 0 0 621822464 4198400 0 8388608 2109440 4194316 671088640 1048640 34082816 196612 1073741824 1610614784 128
shrinkage=0.1


Tree=62
num_leaves=7
num_cat=4
split_feature=1 12 12 1 5 5
split_gain=70536.5 234173 174266 345963 334670 108453
threshold=0 459003.00000000006 274666.00000000006 1 2 3
decision_type=5 2 2 5 1 1
left_child=2 5 3 4 -1 -2
right_child=1 -3 -4 -5 -6 -7
leaf_value=0.18902063935393951 -0.05187657069450894 0.85037186103318163 -0.010435562446440047 0.0022608742549271445 0.025591343762932667 0.00037989930586111763
leaf_count=41418 5751953 161 15990731 2587591 682940 8571890
internal_value=0 -0.162801 0.0789157 0.324047 1.01567 -0.178218
internal_count=33626684 14324004 19302680 3311949 724358 14323843
cat_boundaries=0 6 12 13 14
cat_threshold=136122125 272520 1081605 33576961 131072 32768 262668 136 1048832 1 0 32768 65520 64512
shrinkage=0.1


Tree=63
num_leaves=7
num_cat=3
split_feature=7 8 4 4 4 7
split_gain=70284.9 100765 85168 86001.1 84411.6 79995.4
threshold=2314.5000000000005 313.50000000000006 0 1 2 110.50000000000001
decision_type=2 2 5 5 5 2
left_child=2 -2 -1 -4 -3 -5
right_child=1 4 3 5 -6 -7
leaf_value=-0.03598962850215786 0.12543552526087334 0.05134346410552966 -0.013608130282309915 0.053388112992832616 -0.008175942482417816 0.0046760215623295647
leaf_count=5509858 259530 1971888 13077834 776028 4999280 7032266
internal_value=0 0.230766 -0.0507874 0.0105627 0.141655 0.167063
internal_count=33626684 7230698 26395986 20886128 6971168 7808294
cat_boundaries=0 16 32 48
cat_threshold=17440768 0 0 538444288 33555073 0 1048576 0 8 2147483648 143654948 33559040 37748736 1073742080 1073741824 1169 8 0 0 2264926208 4325376 262144 134742016 274432 20972032 671088640 256 134217728 268566532 67633152 537659393 2 2621440 0 0 101714432 1 8192 143654912 1048576 12 2147483648 536887328 16777216 131072 612368384 1075841040 643
shrinkage=0.1


Tree=64
num_leaves=7
num_cat=5
split_feature=5 3 11 5 4 1
split_gain=69436.7 67718.1 65092.3 58840.9 51040.6 49041.4
threshold=0 1 7.5000000000000009 2 3 4
decision_type=1 5 2 1 5 5
left_child=-1 2 3 -2 -3 -6
right_child=1 4 -4 -5 5 -7
leaf_value=0.10200887347902443 -0.06253690709169285 -0.060124741338751869 -0.019327935604216667 0.015452832424340391 -0.066083491213711584 -0.0042748441385495909
leaf_count=38375 635042 2677257 6699504 12082818 1807376 9686312
internal_value=0 -0.00915292 0.06339 0.129134 -0.178605 -0.105474
internal_count=33626684 33588309 19417364 12717860 14170945 11493688
cat_boundaries=0 1 20 21 37 44
cat_threshold=16711680 560668817 536872976 2416050184 4333569 134217728 0 0 0 0 0 0 0 0 0 0 0 0 0 2147483648 32768 17309696 0 0 806404608 128 262144 1048576 0 0 671088640 143655236 50336256 4325376 1074266112 536903680 1040 2191679570 1880227873 809763846 538986880 0 1 1024
shrinkage=0.1


Tree=65
num_leaves=7
num_cat=4
split_feature=1 1 12 5 1 12
split_gain=68058.5 82425.6 132887 444648 124418 73099.3
threshold=0 1 417339.50000000006 2 3 740942.00000000012
decision_type=5 5 2 1 5 2
left_child=-1 2 -2 -4 5 -3
right_child=1 4 3 -5 -6 -7
leaf_value=-0.11344305499121528 -0.028249152424576197 0.0079737375335017426 -0.032007345339734622 0.65111078403125322 0.084670556914218084 -0.041849112968661867
leaf_count=714778 10446950 18241369 557286 548 150092 3515661
internal_value=0 0.0124459 -0.214439 1.36029 0.0785189 0.0404836
internal_count=33626684 32911906 11004784 557834 21907122 21757030
cat_boundaries=0 9 16 17 22
cat_threshold=1082130448 23237698 2703235096 2105616 8388672 8389633 8388608 256 1024 3055710434 1888501808 1347159042 536871040 0 0 1024 48 157060876 67108865 1 2048 1048576
shrinkage=0.1


Tree=66
num_leaves=7
num_cat=3
split_feature=2 7 8 7 1 1
split_gain=65599.3 73657.1 91643.3 70412.6 68864.4 63523.3
threshold=0 2569.5000000000005 393.50000000000006 15.500000000000002 1 2
decision_type=5 2 2 2 5 5
left_child=-1 3 -3 -2 -4 -5
right_child=1 2 4 5 -6 -7
leaf_value=-0.071605969819839008 0.04435703238056566 0.1177717678018935 0.089210441472890811 0.0016915443576004932 0.0054227374181030491 -0.025029794595858152
leaf_count=1675850 342599 284892 162304 16726553 5319875 9114611
internal_value=0 0.0212314 0.275776 -0.0323552 0.167581 -0.0655209
internal_count=33626684 31950834 5767071 26183763 5482179 25841164
cat_boundaries=0 121 128 134
cat_threshold=36 134217728 0 0 0 4194304 0 0 0 0 0 0 0 0 0 0 0 0 0 0 0 0 0 0 0 0 0 0 0 0 0 0 0 0 0 0 0 0 0 0 0 0 0 0 0 0 0 0 0 0 0 0 0 0 0 0 0 0 0 0 0 0 0 0 0 0 0 0 0 0 0 0 0 0 0 0 0 0 0 0 0 0 0 0 0 0 0 0 0 0 0 0 0 0 0 0 0 0 0 0 0 0 0 0 0 0 0 0 0 0 0 0 0 0 0 0 0 0 0 0 201326592 17827840 1342441513 272892162 18433 0 0 1024 67937036 8650888 1081605 1 0 32768
shrinkage=0.1


Tree=67
num_leaves=7
num_cat=3
split_feature=0 7 3 1 9 1
split_gain=61405 122611 82845.1 81259.3 40870.4 31173.1
threshold=292640.00000000006 35.500000000000007 0 1 1.5000000000000002 2
decision_type=2 2 5 5 2 5
left_child=1 -1 3 -3 -2 -4
right_child=4 2 5 -5 -6 -7
leaf_value=0.074462686281428644 0.031347968755715265 -0.091617332539267834 -0.14475662656016935 0.0074491934901189929 -0.048942655864617983 -0.028844568220132007
leaf_count=227214 123058 746557 117375 23609830 1892652 6909998
internal_value=0 0.0376915 0.00345045 0.0545287 -0.350513 -0.332262
internal_count=33626684 31610974 31383760 24356387 2015710 7027373
cat_boundaries=0 19 25 32
cat_threshold=595584768 536870912 2147614728 139265 134225984 0 0 0 0 0 0 0 0 0 0 0 0 0 2147483648 42008624 19050578 1627919384 2109840 9568256 1 536936464 1880232034 1346634766 35678592 9568256 1 1024
shrinkage=0.1


Tree=68
num_leaves=7
num_cat=2
split_feature=5 11 7 4 7 8
split_gain=60177.7 57130 77181.7 69844.9 57499.9 39588.1
threshold=0 5.5000000000000009 2569.5000000000005 1 71492.500000000015 348.50000000000006
decision_type=1 2 2 5 2 2
left_child=-1 2 3 -2 -3 -4
right_child=1 4 5 -5 -6 -7
leaf_value=0.10175177042416206 -0.030971369816837263 -0.02631530307685695 0.12407715640886791 0.0059357674173638603 0.055000868450707854 0.033012082236823052
leaf_count=38173 3686842 11071462 113252 16184532 557559 1974864
internal_value=0 -0.00971195 0.045488 -0.00045633 -0.20031 0.444454
internal_count=33626684 33588511 21959490 19871374 11629021 2088116
cat_boundaries=0 1 17
cat_threshold=16711680 16916480 0 0 605028864 37749377 0 0 262144 4194304 2684354560 143655012 33558528 4194304 256 1073741825 1170
shrinkage=0.1


Tree=69
num_leaves=7
num_cat=3
split_feature=11 1 12 1 4 12
split_gain=55790 45126.4 76602.6 63000.6 57073.6 36165.9
threshold=1.5000000000000002 0 248376.50000000003 1 2 740942.00000000012
decision_type=2 5 2 5 5 2
left_child=1 2 3 -1 -3 -2
right_child=5 4 -4 -5 -6 -7
leaf_value=0.11184559729142196 -0.0053708474685738384 -0.035225291337503108 0.0074060650497095237 0.028021536298915274 0.013091050930119381 -0.046409156451036195
leaf_count=93388 21698070 1377913 2835371 328651 4246513 3046778
internal_value=0 0.122963 0.275796 0.64399 -0.0105072 -0.0828635
internal_count=33626684 8881836 3257410 422039 5624426 24744848
cat_boundaries=0 6 9 25
cat_threshold=51184397 286856 1081600 33558529 131072 32768 262668 16392 1048576 1092624384 0 0 117475840 4194884 0 0 256 0 536870912 135266304 33554944 4194304 1149239584 1075838994 528
shrinkage=0.1


Tree=70
num_leaves=7
num_cat=4
split_feature=7 4 4 3 11 4
split_gain=58952.2 74921 67032.6 66355.7 56410.8 53479.1
threshold=1405.5000000000002 0 1 2 6.5000000000000009 3
decision_type=2 5 5 5 2 5
left_child=1 -1 -2 4 -3 -5
right_child=2 3 -4 5 -6 -7
leaf_value=0.046875909388024876 -0.031985410334361399 0.005450903724769955 0.023938903253970866 -0.068232669122881631 -0.043885746997481934 -0.018060468265754536
leaf_count=514260 2614294 8242352 8919280 2321731 2760718 8254049
internal_value=0 -0.0675875 0.156857 -0.104963 -0.00285111 -0.290952
internal_count=33626684 22093110 11533574 21578850 11003070 10575780
cat_boundaries=0 15 31 50 66
cat_threshold=1073741824 0 0 4325376 0 0 2097152 262144 1024 0 64 524288 262144 32 2 1091182600 0 0 21626912 512 4194304 8192 532480 1024 134217728 135266308 528896 37748736 1073741856 524290 1040 560472193 671352896 1183752 8193 64 0 0 0 0 0 0 0 0 0 0 0 0 0 2147483648 2228224 0 0 537936384 33685504 262144 1048576 0 4194316 2684354560 143654916 50335744 272826372 0 1073743872 1168
shrinkage=0.1


Tree=71
num_leaves=7
num_cat=2
split_feature=5 12 12 12 1 12
split_gain=55234.5 131751 83785.4 58106.1 48061.3 199810
threshold=0 827770.50000000012 785791.50000000012 763147.50000000012 1 435752.00000000006
decision_type=1 2 2 2 5 2
left_child=2 4 3 -1 -2 -6
right_child=1 -3 -4 -5 5 -7
leaf_value=0.024956237194266932 0.0034904134231305826 0.53295459945175938 -0.078944073761712363 0.41147567537270319 -0.020238785626909946 0.45414557508728087
leaf_count=5590566 13793652 193 1060246 164 13181559 304
internal_value=0 -0.0537072 0.190875 0.263289 -0.059478 -0.179675
internal_count=33626684 26975708 6650976 5590730 26975515 13181863
cat_boundaries=0 1 7
cat_threshold=16711699 5047821 270473 1081605 33558529 131072 32768
shrinkage=0.1


Tree=72
num_leaves=7
num_cat=3
split_feature=3 7 7 5 11 3
split_gain=56708.5 53834.3 71565.7 85421.4 56410.2 50771.3
threshold=0 1405.5000000000002 138.50000000000003 1 11.500000000000002 2
decision_type=5 2 2 1 2 5
left_child=-1 2 3 -2 -3 -4
right_child=1 4 5 -5 -6 -7
leaf_value=-0.11825576611725147 -0.020994614313149147 0.027795524059902845 -0.063842885726019177 0.042147124861743004 -0.012086983851833618 -0.0099834174879583123
leaf_count=616962 1377954 6736839 2734663 1393256 4492965 16274045
internal_value=0 0.0117369 -0.0561591 0.186059 0.159168 -0.136398
internal_count=33626684 33009722 21779918 2771210 11229804 19008708
cat_boundaries=0 28 29 34
cat_threshold=36 3616547968 69781475 86 1024 0 0 0 0 0 0 0 0 0 0 0 0 0 0 0 0 0 0 0 0 0 0 4 59456 3699382418 2345277 2147491844 4390912 134225952
shrinkage=0.1


Tree=73
num_leaves=7
num_cat=3
split_feature=0 0 3 12 4 4
split_gain=57133.2 76316.5 47988.4 52838.7 39492.4 38289.9
threshold=292640.00000000006 125830.00000000001 0 740942.00000000012 1 2
decision_type=2 2 5 2 5 5
left_child=1 2 3 -1 -3 -2
right_child=5 4 -4 -5 -6 -7
leaf_value=0.0047847707693744711 -0.10146574387281787 0.062076000295462265 -0.030397942583745827 -0.050582469932984736 0.016587896210369747 -0.021039744525937921
leaf_count=19367330 485856 1025115 5560568 2334458 3324157 1529200
internal_value=0 0.0369698 -0.0236338 0.0189759 0.28983 -0.343607
internal_count=33626684 31611628 27262356 21701788 4349272 2015056
cat_boundaries=0 19 35 50
cat_threshold=713025280 536875520 2415919112 1 134217792 0 0 0 0 0 0 0 0 0 0 0 0 0 2147483648 1074266112 0 0 16908288 704 4194304 2097152 524288 16778244 0 536871168 524800 4456448 8912928 32786 131072 19406856 0 0 838877696 4096 0 0 2109440 4194316 536870912 1048644 34083328 65540 1073741824 1611139072
shrinkage=0.1


Tree=74
num_leaves=7
num_cat=2
split_feature=11 5 7 11 7 2
split_gain=52838.2 77253.8 47847.9 36837.7 37519.1 25100.4
threshold=1.5000000000000002 0 71492.500000000015 12.500000000000002 1287.5000000000002 1
decision_type=2 1 2 2 2 5
left_child=1 -1 3 4 -2 -3
right_child=2 5 -4 -5 -6 -7
leaf_value=-0.029339948734797491 -0.013774795442506311 -0.07518989032864061 0.056918105998721782 -0.034964748135718642 0.012012038589091979 0.022148422725285614
leaf_count=2067062 12869077 242571 589256 5406791 5880855 6571072
internal_value=0 0.121315 -0.0805522 -0.103488 -0.0552347 0.206963
internal_count=33626684 8880705 24745979 24156723 18749932 6813643
cat_boundaries=0 1 122
cat_threshold=61440 36 134217728 0 0 0 4194304 0 0 0 0 0 0 0 0 0 0 0 0 0 0 0 0 0 0 0 0 0 0 0 0 0 0 0 0 0 0 0 0 0 0 0 0 0 0 0 0 0 0 0 0 0 0 0 0 0 0 0 0 0 0 0 0 0 0 0 0 0 0 0 0 0 0 0 0 0 0 0 0 0 0 0 0 0 0 0 0 0 0 0 0 0 0 0 0 0 0 0 0 0 0 0 0 0 0 0 0 0 0 0 0 0 0 0 0 0 0 0 0 0 0 201326592
shrinkage=0.1


Tree=75
num_leaves=7
num_cat=5
split_feature=5 2 1 1 1 7
split_gain=50799.1 46609.8 52578.3 47712.8 24721 11436.1
threshold=0 1 2 3 4 5658.0000000000009
decision_type=1 5 5 5 5 2
left_child=-1 4 -3 -4 5 -2
right_child=1 2 3 -5 -6 -7
leaf_value=0.10144547144702075 -0.015142070474293593 -0.081914927873932952 -0.015186635838613655 0.0072516902649739264 -0.088498001939725762 0.14203792754741337
leaf_count=38220 297429 905747 10673699 20334095 1251408 126086
internal_value=0 -0.0084737 0.00535019 0.0176057 -0.642635 0.256764
internal_count=33626684 33588464 31913541 31007794 1674923 423515
cat_boundaries=0 1 122 129 134 141
cat_threshold=16711680 36 134217728 0 0 0 4194304 0 0 0 0 0 0 0 0 0 0 0 0 0 0 0 0 0 0 0 0 0 0 0 0 0 0 0 0 0 0 0 0 0 0 0 0 0 0 0 0 0 0 0 0 0 0 0 0 0 0 0 0 0 0 0 0 0 0 0 0 0 0 0 0 0 0 0 0 0 0 0 0 0 0 0 0 0 0 0 0 0 0 0 0 0 0 0 0 0 0 0 0 0 0 0 0 0 0 0 0 0 0 0 0 0 0 0 0 0 0 0 0 0 0 67108864 41943056 828559458 554439704 2105744 8388608 1 1024 3160568034 1141901329 3493855233 536872960 1048576 6569992 32768 257 16512 0 32768 1024
shrinkage=0.1


Tree=76
num_leaves=7
num_cat=5
split_feature=5 5 3 1 4 8
split_gain=50496.6 44055 42782.7 45338.9 20836.4 16932.3
threshold=0 1 2 3 4 190.50000000000003
decision_type=1 1 5 5 5 2
left_child=4 -2 -3 -4 -1 -6
right_child=1 2 3 -5 5 -7
leaf_value=0.050012237271986476 0.10119929174246629 -0.11039047373035236 -0.067116589842661362 0.0031746208531157069 -0.086384095150307497 -0.025763823376555518
leaf_count=88722 38342 571322 1258039 29847414 905082 917763
internal_value=0 0.0199085 0.0112934 0.0188006 -0.485808 -0.58874
internal_count=33626684 31715117 31676775 31105453 1911567 1822845
cat_boundaries=0 1 2 30 37 53
cat_threshold=32768 16711680 36 3615499392 69788643 65622 1024 0 0 0 0 0 0 0 0 0 0 0 0 0 0 0 0 0 0 0 0 0 0 4 2189426768 1902284898 2701135896 2105744 8388608 1 1024 0 0 0 0 0 0 2097152 525312 16777216 0 64 0 262144 536870912 2048 131072
shrinkage=0.1


Tree=77
num_leaves=7
num_cat=2
split_feature=7 11 5 12 8 1
split_gain=44929.7 58641.5 59079.7 84244.5 58090 63757.6
threshold=2569.5000000000005 8.5000000000000018 0 706834.00000000012 393.50000000000006 1
decision_type=2 2 1 2 2 5
left_child=1 2 3 -1 -2 -6
right_child=4 -3 -4 -5 5 -7
leaf_value=-0.029699029079050306 0.092125288513390843 -0.042781848196440798 0.0050626105827733473 0.36691529811899404 0.033933012005872502 -0.020946181745135465
leaf_count=5013762 310268 4328584 17709546 211 2941778 3322535
internal_value=0 -0.0401087 -0.00557885 -0.266921 0.197211 0.114956
internal_count=33626684 27052103 22723519 5013973 6574581 6264313
cat_boundaries=0 1 8
cat_threshold=61440 561253001 1880361145 268698883 18433 0 0 1024
shrinkage=0.1


Tree=78
num_leaves=7
num_cat=4
split_feature=3 11 1 4 8 4
split_gain=51222.3 37997.8 31971.8 43549.7 30712.7 30539
threshold=0 1.5000000000000002 1 2 13520.500000000002 3
decision_type=5 2 5 5 2 5
left_child=-1 2 5 -4 -3 -2
right_child=1 4 3 -5 -6 -7
leaf_value=0.014636350562602755 0.0030345265146622278 -0.017717206199386191 -0.035545261101224697 0.0088358392070159945 0.049156928982234366 0.048103124465565
leaf_count=8291638 1268490 17453513 1886035 3382571 428294 916143
internal_value=0 -0.0658503 0.0501611 -0.0606087 -0.15448 0.230495
internal_count=33626684 25335046 7453239 5268606 17881807 2184633
cat_boundaries=0 19 25 41 57
cat_threshold=539492480 536877072 8 4194305 134217728 0 0 0 0 0 0 0 0 0 0 0 0 0 2147483648 525069 286856 1074823424 570425345 0 32768 2629632 0 0 85458944 131652 8192 0 256 0 536870912 135266304 168296448 37748740 67108896 1613236240 528 0 0 0 2214742016 131200 8192 144179200 1585152 4 0 134234116 512 262144 1611137024 2359313 1538
shrinkage=0.1


Tree=79
num_leaves=7
num_cat=1
split_feature=0 7 12 12 5 9
split_gain=47925.5 95746.9 44767.6 824704 337250 33043.5
threshold=292640.00000000006 35.500000000000007 740942.00000000012 596043.50000000012 0 1.5000000000000002
decision_type=2 2 2 2 1 2
left_child=1 -1 3 -3 -4 -2
right_child=5 2 4 -5 -6 -7
leaf_value=0.069116863145883348 0.028343533945441413 -0.0017573005357638515 0.49341693938699244 0.51129689285566748 -0.067340334465109328 -0.045603362279880974
leaf_count=227193 123185 28055680 370 1054 3327839 1891363
internal_value=0 0.0251056 -0.0042019 0.0187985 -0.418487 -0.327024
internal_count=33626684 31612136 31384943 28056734 3328209 2014548
cat_boundaries=0 1
cat_threshold=30848
shrinkage=0.1


Tree=80
num_leaves=7
num_cat=4
split_feature=3 11 5 4 8 4
split_gain=40662.4 33178.2 44260.2 30768 22081.3 22480.5
threshold=0 2.5000000000000004 1 2 13520.500000000002 3
decision_type=5 2 1 5 2 5
left_child=-1 2 -2 -4 5 -3
right_child=1 4 3 -5 -6 -7
leaf_value=0.013356155824201646 -0.047647868096356787 -0.056717148676684703 -0.016088663054932992 0.012448408756881763 0.037753422695035004 -0.015879421008534171
leaf_count=8128943 1324584 1929388 2501137 8065697 424475 11252460
internal_value=0 -0.056371 0.0183671 0.0576859 -0.176785 -0.204998
internal_count=33626684 25497741 11891418 10566834 13606323 13181848
cat_boundaries=0 19 20 36 52
cat_threshold=539492480 536872960 268435464 4202497 134217792 0 0 0 0 0 0 0 0 0 0 0 0 0 2147483648 49152 8 0 0 806354944 33686148 8192 1048576 8192 0 536870912 143654980 50335744 4456452 524288 1073741825 132242 16916488 0 0 289554944 4194304 4456448 1048576 524288 0 134217728 142606340 4608 272629760 1073758240 537395202 1042
shrinkage=0.1


Tree=81
num_leaves=7
num_cat=2
split_feature=7 7 5 0 1 11
split_gain=40824.4 59809.8 78499.3 51458.8 46618.4 43138.9
threshold=838.50000000000011 176.50000000000003 0 272862.00000000006 1 12.500000000000002
decision_type=2 2 1 2 5 2
left_child=1 2 -1 -4 -2 -6
right_child=4 -3 3 -5 5 -7
leaf_value=-0.013413114192035558 -0.11650026062836494 -0.017227429432701724 0.067676029549657402 0.0027840377932970991 0.019895293492737824 -0.013367927263877297
leaf_count=2481644 213199 13855995 759870 669899 10827093 4818984
internal_value=0 -0.0689213 0.121403 0.408483 0.108292 0.124414
internal_count=33626684 17767408 3911413 1429769 15859276 15646077
cat_boundaries=0 1 8
cat_threshold=65088 1073807408 21147714 2701135896 538980624 9568320 8389633 8388608
shrinkage=0.1


Tree=82
num_leaves=7
num_cat=3
split_feature=2 12 12 12 4 4
split_gain=38554.7 40632.3 36453.3 486347 31138.7 27834.3
threshold=0 3282.0000000000005 740942.00000000012 596043.50000000012 1 2
decision_type=5 2 2 2 5 5
left_child=-1 5 3 -3 -4 -2
right_child=1 2 4 -5 -6 -7
leaf_value=-0.059021219841701472 -0.019407960124335658 -0.0018642779438683137 -0.051754487458834902 0.31564257231708115 0.036414952687702243 0.067507258267583095
leaf_count=1675440 120484 28242735 2946493 1909 497261 142362
internal_value=0 0.0111627 -0.00641296 0.0142198 -0.360901 0.457439
internal_count=33626684 31951244 31688398 28244644 3443754 262846
cat_boundaries=0 121 137 153
cat_threshold=36 134217728 0 0 0 4194304 0 0 0 0 0 0 0 0 0 0 0 0 0 0 0 0 0 0 0 0 0 0 0 0 0 0 0 0 0 0 0 0 0 0 0 0 0 0 0 0 0 0 0 0 0 0 0 0 0 0 0 0 0 0 0 0 0 0 0 0 0 0 0 0 0 0 0 0 0 0 0 0 0 0 0 0 0 0 0 0 0 0 0 0 0 0 0 0 0 0 0 0 0 0 0 0 0 0 0 0 0 0 0 0 0 0 0 0 0 0 0 0 0 0 67108864 524288 0 0 540672 128 0 8192 0 16777216 0 0 0 33554432 67109122 262160 513 2097152 0 0 2164262912 64 0 134217728 0 16777216 0 134217728 134742016 4194304 1073741856 538968082 16
shrinkage=0.1


Tree=83
num_leaves=7
num_cat=3
split_feature=5 7 11 8 4 4
split_gain=39076.9 37225.9 49986.6 48259.4 49919 44436
threshold=0 2569.5000000000005 9.5000000000000018 362.50000000000006 1 2
decision_type=1 2 2 2 5 5
left_child=-1 2 5 -3 -5 -2
right_child=1 3 -4 4 -6 -7
leaf_value=0.10089095570666561 -0.024114298490241416 0.092535007960385773 -0.045047196538212542 0.041445816600957489 -0.007708196071019466 0.0032482259965031881
leaf_count=38157 4714742 214930 3756116 1967606 4387486 18547647
internal_value=0 -0.00616555 -0.0461962 0.171343 0.104951 -0.0172721
internal_count=33626684 33588527 27018505 6570022 6355092 23262389
cat_boundaries=0 1 17 33
cat_threshold=16711680 2752512 0 0 2249198080 1 8192 135790592 0 16777228 2147483648 536887328 16777216 131072 67125248 1075838993 642 17432576 0 0 605553152 641 0 134217728 8192 0 2147483648 143654948 33559040 4325376 1073741824 1073743872 1171
shrinkage=0.1


Tree=84
num_leaves=7
num_cat=6
split_feature=5 1 5 1 1 4
split_gain=36706.3 35852.9 33660.3 32027.7 17917.7 15268.4
threshold=0 1 2 3 4 5
decision_type=1 5 1 5 5 5
left_child=4 -2 -3 -4 -1 -6
right_child=1 2 3 -5 5 -7
leaf_value=-0.11219805084639696 0.091731687509375659 0.1007373188118405 -0.093846997542790009 0.00099303729584138112 0.011258259466345621 -0.052407367448331278
leaf_count=262396 47843 33270 671845 30962320 409698 1239312
internal_value=0 0.0176876 0.00983097 0.00312072 -0.425623 -0.292897
internal_count=33626684 31715278 31667435 31634165 1911406 1649010
cat_boundaries=0 1 3 4 12 18 33
cat_threshold=32768 0 8 16711680 1082130448 23237698 2703497240 2105616 8388672 8389633 8388608 256 515902928 890247185 1346634752 2099584 8388608 1 0 0 0 100796448 33685504 8192 136314880 2622720 16777216 0 134234176 0 33816576 536870912 34817
shrinkage=0.1


Tree=85
num_leaves=7
num_cat=3
split_feature=3 3 11 0 0 4
split_gain=38615 30785.4 30589.2 24579.5 27870.7 27659.2
threshold=0 1 17.500000000000004 292640.00000000006 125830.00000000001 2
decision_type=5 5 2 2 2 5
left_child=2 -2 3 4 -1 -5
right_child=1 -3 -4 5 -6 -7
leaf_value=0.0060035105661608822 -0.010184312810631931 -0.074817374545199641 -0.021957210247423659 0.026241651924589066 0.029462348448863702 -0.042134578915345777
leaf_count=12591263 12954469 1177823 3416804 199276 2401614 885435
internal_value=0 -0.133526 0.0534535 0.084022 0.109949 -0.203598
internal_count=33626684 14132292 19494392 16077588 14992877 1084711
cat_boundaries=0 19 23 39
cat_threshold=560605329 536873041 2416050184 4194305 134225920 0 0 0 0 0 0 0 0 0 0 0 0 0 2147483648 1586878282 134648616 1052672 8192 1073741824 0 0 2147614752 0 8192 3145728 1835264 0 0 134217728 0 4456448 536887296 262147 16
shrinkage=0.1


Tree=86
num_leaves=7
num_cat=3
split_feature=7 3 11 7 4 4
split_gain=35187.8 37326.7 34113.3 28062.1 26129.8 25329.1
threshold=71492.500000000015 0 11.500000000000002 2766.5000000000005 1 2
decision_type=2 5 2 2 5 5
left_child=1 2 3 -1 -3 -4
right_child=-2 4 5 -5 -6 -7
leaf_value=0.0049672861820907778 0.053413308736593813 -0.04821607655504502 -0.082744343487269043 0.038512691069367951 -0.0093590649583480349 -0.012399064183454362
leaf_count=14196510 598666 1958120 680631 1056258 11266308 3870191
internal_value=0 -0.0121478 0.0422031 0.0782572 -0.146298 -0.217498
internal_count=33626684 33028018 19803590 15252768 13224428 4550822
cat_boundaries=0 19 35 51
cat_threshold=1634347153 536877153 2147483656 4202497 8256 0 0 0 0 0 0 0 0 0 0 0 0 0 2147483648 18882568 0 0 555237376 0 0 1048576 2097152 0 671088640 680525828 50336256 272760836 1073741856 2099200 1040 1092616192 0 0 5947936 4325376 0 2097152 524288 4195328 134217728 4 528896 4259840 1073741858 559104 1040
shrinkage=0.1


Tree=87
num_leaves=7
num_cat=5
split_feature=7 4 3 5 4 4
split_gain=32276.8 60872.1 57679.1 41226 49959 40618.3
threshold=871.50000000000011 0 1 2 3 4
decision_type=2 5 5 1 5 5
left_child=1 -1 5 4 -3 -2
right_child=2 3 -4 -5 -6 -7
leaf_value=0.047179057494950292 -0.073738241177720071 -0.10313808676672527 -0.040180880265982391 -0.0048287789066799175 -0.021238624356799261 0.01701796524790046
leaf_count=408014 641660 854482 2021227 13919536 2924566 12857199
internal_value=0 -0.0652724 0.0939322 -0.102587 -0.369913 0.146993
internal_count=33626684 18106598 15520086 17698584 3779048 13498859
cat_boundaries=0 15 34 35 51 67
cat_threshold=1073741824 0 0 4325376 0 0 2097152 262144 1024 0 64 512 262144 0 2 383776586 520 2416050184 131072 8192 0 0 0 0 0 0 0 0 0 0 0 0 0 2147483648 61440 19013632 0 0 805356032 135169 4194304 524288 0 8 2684354560 1048608 50860032 4259844 1073741856 1610612736 130 1090527240 0 0 4325376 0 4194304 0 0 1024 0 4 4096 4194304 1073741856 2 1040
shrinkage=0.1


Tree=88
num_leaves=7
num_cat=6
split_feature=1 1 4 4 5 4
split_gain=35459.6 35286.1 54296.2 40221.5 36673 27350.8
threshold=0 1 2 3 4 5
decision_type=5 5 5 5 1 5
left_child=-1 4 -3 -4 -2 -6
right_child=1 2 3 -5 5 -7
leaf_value=-0.085946030447515212 -0.046731732592664492 -0.0098799963659069161 0.0025661745591553835 0.027450805418583586 0.037353893323883225 -0.012855461519644826
leaf_count=950624 3604011 8851446 8064737 5155092 984335 6016439
internal_value=0 0.0099697 0.0511818 0.138488 -0.155306 -0.0416268
internal_count=33626684 32676060 22071275 13219829 10604785 7000774
cat_boundaries=0 8 17 33 49 50 66
cat_threshold=1115684880 23237698 2703235096 2105616 8388672 8389633 8388608 256 2485285090 1880098864 1347159042 536873088 1048576 0 1024 0 1024 8 0 0 72878080 131588 4194304 1581056 8192 4194304 134217728 142606340 134221824 306184196 288 1074003969 1025 1073741824 0 0 2197848576 0 8192 142606336 529664 16777216 2684354560 16416 50331648 131072 67633152 2048 642 63488 0 0 0 541196288 33685504 0 137371648 262144 1024 0 671088640 524800 4259840 256 1073774592 131074
shrinkage=0.1


Tree=89
num_leaves=7
num_cat=4
split_feature=1 7 11 2 1 3
split_gain=31910.5 28880.2 33639.5 32677.4 23131.5 19851.8
threshold=0 71492.500000000015 6.5000000000000009 1 2 3
decision_type=5 2 2 5 5 5
left_child=-1 2 3 -2 -3 -4
right_child=1 4 5 -5 -6 -7
leaf_value=0.089220007135975513 -0.065701940672539844 0.133242186643064 -0.011755377994109027 0.0029265875899955026 0.025153611077690031 -0.047948416220921879
leaf_count=48846 963176 30546 6771993 22382855 568116 2861152
internal_value=0 -0.00834223 -0.0199041 0.0176455 0.474694 -0.197292
internal_count=33626684 33577838 32979176 23346031 598662 9633145
cat_boundaries=0 2 123 130 135
cat_threshold=0 8 36 0 0 0 0 4194304 0 0 0 0 0 0 0 0 0 0 0 0 0 0 0 0 0 0 0 0 0 0 0 0 0 0 0 0 0 0 0 0 0 0 0 0 0 0 0 0 0 0 0 0 0 0 0 0 0 0 0 0 0 0 0 0 0 0 0 0 0 0 0 0 0 0 0 0 0 0 0 0 0 0 0 0 0 0 0 0 0 0 0 0 0 0 0 0 0 0 0 0 0 0 0 0 0 0 0 0 0 0 0 0 0 0 0 0 0 0 0 0 0 0 67108864 152045728 75515952 268697602 536889344 0 0 1024 4726976 1116672 2148156672 4259904 134225952
shrinkage=0.1


Tree=90
num_leaves=7
num_cat=4
split_feature=5 7 11 4 1 4
split_gain=31626.1 28865.8 37831.7 36880.8 36482.1 24337.2
threshold=0 2569.5000000000005 4.5000000000000009 1 2 3
decision_type=1 2 2 5 5 5
left_child=-1 2 4 -3 -2 -5
right_child=1 3 -4 5 -6 -7
leaf_value=0.10044773878952698 0.010634075009717452 0.042205541256494707 -0.024735108527694859 -0.063904955890147927 -0.0099515969705962128 0.0066248170869847647
leaf_count=38347 7040210 1961315 8657979 603228 11322350 4003255
internal_value=0 -0.00994357 -0.0454972 0.147325 -0.00098545 0.00629623
internal_count=33626684 33588337 27020539 6567798 18362560 4606483
cat_boundaries=0 1 17 23 39
cat_threshold=16711680 2621440 0 0 101188096 33554501 8192 143654912 0 16777224 2147483648 536887584 16777216 0 16384 1075871761 643 134809357 8675464 1074823424 570445825 131072 32768 1073750024 0 0 4325376 0 4194304 2097152 0 1024 134217728 4 528896 272629760 1073741858 2 1040
shrinkage=0.1


Tree=91
num_leaves=7
num_cat=4
split_feature=1 7 1 4 8 4
split_gain=30585.3 30954.6 41026.6 55077.1 32780.2 31394.5
threshold=0 1287.5000000000002 1 2 172.50000000000003 3
decision_type=5 2 5 5 2 5
left_child=-1 2 -2 -4 -3 -6
right_child=1 4 3 -5 5 -7
leaf_value=-0.083855308206829376 -0.029505991392993272 0.072258804013648412 0.044069172357483997 -0.0043383618699878125 -0.074624194593542054 0.010774133888585037
leaf_count=901622 2939995 382790 863819 17086468 682846 10769144
internal_value=0 0.00721969 -0.0481613 0.000644283 0.116006 0.0848275
internal_count=33626684 32725062 20890282 17950287 11834780 11451990
cat_boundaries=0 8 17 32 48
cat_threshold=1115684880 560075842 2703235096 2105616 8388672 8389633 8388608 256 2708605122 1410631729 273417219 2176 0 0 1024 0 1024 1075838976 0 0 16924704 512 4202496 2097152 0 1024 0 536870976 524288 0 32 1073743874 1090527240 0 0 4325376 0 4194304 0 0 1024 0 1048580 4096 4194304 1073741856 2 1040
shrinkage=0.1


Tree=92
num_leaves=7
num_cat=3
split_feature=3 3 1 12 12 12
split_gain=30612.3 24729 27610 39985.5 19265.9 73416.5
threshold=0 1 2 8373.0000000000018 740942.00000000012 596043.50000000012
decision_type=5 5 5 2 2 2
left_child=4 2 -2 -4 5 -1
right_child=1 -3 3 -5 -6 -7
leaf_value=0.011675345127550162 -0.062081629887388738 -0.038969284098500617 0.047746444076072661 -0.0043540244105233199 -0.040523491139016994 0.25460699455147301
leaf_count=7245455 1050787 2896092 238342 21349923 845579 506
internal_value=0 -0.0535666 -0.033057 -0.0191627 0.113407 0.136884
internal_count=33626684 25535144 22639052 21588265 8091540 7245961
cat_boundaries=0 19 24 30
cat_threshold=539492352 536872960 2415923208 8193 0 0 0 0 0 0 0 0 0 0 0 0 0 0 2147483648 1532489689 134480761 0 0 134217728 2189557840 1897044050 805572632 538978576 8388608 1
shrinkage=0.1


Tree=93
num_leaves=7
num_cat=2
split_feature=5 12 12 4 12 12
split_gain=29101 56346.2 93805.5 102765 48224.1 32578.1
threshold=0 325769.00000000006 307570.00000000006 1 827770.50000000012 740942.00000000012
decision_type=1 2 2 5 2 2
left_child=1 2 -1 -4 5 -2
right_child=4 -3 3 -5 -6 -7
leaf_value=0.021695238364244675 -0.0023936429470405702 -0.013703110468467221 -0.012043942973944278 0.27356091813104461 0.30367897445686221 -0.045330762373700435
leaf_count=2771976 24351912 3849416 194195 2412 166 2456607
internal_value=0 0.14441 0.328273 1.6077 -0.0396367 -0.0434871
internal_count=33626684 6817999 2968583 196607 26808685 26808519
cat_boundaries=0 1 16
cat_threshold=16713745 0 0 0 67108864 0 0 135274496 536576 4 0 0 33558528 131072 524288 538968080
shrinkage=0.1


Tree=94
num_leaves=7
num_cat=3
split_feature=11 5 3 7 3 7
split_gain=27549 36574.9 23513.5 22960.2 23692.2 22026.9
threshold=1.5000000000000002 0 1 1405.5000000000002 2 44063.000000000007
decision_type=2 1 5 2 5 2
left_child=1 -1 -2 4 -3 -4
right_child=2 3 5 -5 -6 -7
leaf_value=-0.040183403795028501 -0.00012704297966534064 0.017697251910140665 -0.022739492454040489 0.034104613038882597 -0.0072800630097123635 0.035780064127144233
leaf_count=992624 13937759 2578918 10337025 1499493 3809906 470959
internal_value=0 0.0866499 -0.0625184 0.122761 0.0682802 -0.187437
internal_count=33626684 8880941 24745743 7888317 6388824 10807984
cat_boundaries=0 1 20 39
cat_threshold=49152 541599888 536877056 65544 1 0 0 0 0 0 0 0 0 0 0 0 0 0 0 2147483648 556277907 671390065 268570632 8193 64 0 0 0 0 0 0 0 0 0 0 0 0 0 2147483648
shrinkage=0.1


Tree=95
num_leaves=7
num_cat=2
split_feature=12 1 12 12 12 4
split_gain=26327.8 28654.4 281264 89785.4 62278.3 58070.1
threshold=3282.0000000000005 0 228298.50000000003 417339.50000000006 312951.50000000006 1
decision_type=2 5 2 2 2 5
left_child=-1 2 -2 4 -3 -4
right_child=1 3 5 -5 -6 -7
leaf_value=0.037403110530947352 0.14522696125160237 -0.0039783459785849504 -0.015747219422707813 0.12252044349926944 -0.047363290096756307 0.022046844354311926
leaf_count=342409 50003 14367953 7680890 557978 4679587 5947864
internal_value=0 -0.0116985 0.0841515 -0.0720066 -0.0947549 -0.0232366
internal_count=33626684 33284275 13678757 19605518 19047540 13628754
cat_boundaries=0 2 18
cat_threshold=524 75505672 0 0 0 2148157440 0 0 144187392 1586432 4 0 16388 4096 33554432 604504352 262144 1538
shrinkage=0.1


Tree=96
num_leaves=7
num_cat=4
split_feature=5 2 4 7 7 3
split_gain=26744.5 24545.6 26410.6 25535.8 45724.2 39104.1
threshold=0 1 2 781.50000000000011 163.50000000000003 3
decision_type=1 5 5 2 2 5
left_child=-1 2 -2 4 -3 -5
right_child=1 3 -4 5 -6 -7
leaf_value=0.10014058347079208 0.02221046507983036 0.01194222401230615 -0.086331587677298177 0.012533914259935025 -0.015264266832741581 -0.033139573808179008
leaf_count=38045 459734 3373237 1216519 13461473 13266121 1811555
internal_value=0 -0.00702836 -0.496935 0.00282068 -0.0612266 0.0827721
internal_count=33626684 33588639 1676253 31912386 16639358 15273028
cat_boundaries=0 1 122 138 166
cat_threshold=16711680 36 134217728 0 0 0 4194304 0 0 0 0 0 0 0 0 0 0 0 0 0 0 0 0 0 0 0 0 0 0 0 0 0 0 0 0 0 0 0 0 0 0 0 0 0 0 0 0 0 0 0 0 0 0 0 0 0 0 0 0 0 0 0 0 0 0 0 0 0 0 0 0 0 0 0 0 0 0 0 0 0 0 0 0 0 0 0 0 0 0 0 0 0 0 0 0 0 0 0 0 0 0 0 0 0 0 0 0 0 0 0 0 0 0 0 0 0 0 0 0 0 0 67108864 1074266120 0 0 35127328 129 8192 524288 524544 16777216 2147483648 545259524 184549376 393216 75497760 34834 1 2598369096 536875528 2415984648 139264 0 0 0 0 0 0 0 0 0 0 0 0 0 0 2147483648 0 0 0 0 0 0 0 0 4
shrinkage=0.1


Tree=97
num_leaves=7
num_cat=3
split_feature=0 0 8 1 4 4
split_gain=25685.4 43410.3 34472.6 32858.1 37552.4 32806.1
threshold=292640.00000000006 125830.00000000001 46.500000000000007 0 1 2
decision_type=2 2 2 5 5 5
left_child=1 3 5 4 -1 -3
right_child=-2 2 -4 -5 -6 -7
leaf_value=0.20635893860190868 -0.024492998718440691 -0.005907304331230055 -0.00019919279674190276 -0.017575029796621351 0.002382101989974158 0.054127003707619997
leaf_count=26248 2014460 449476 2791169 9361545 17876422 1107364
internal_value=0 0.018786 0.217906 -0.0275796 0.0305647 0.394428
internal_count=33626684 31612224 4348009 27264215 17902670 1556840
cat_boundaries=0 3 17 33
cat_threshold=18123534 262153 1 0 0 0 4194304 0 0 2097152 0 0 536870912 134217728 0 0 1073741824 2097152 0 0 2147516928 135172 0 9961472 1314816 4194816 2281701376 1064964 50335744 4 1073741824 1610874881 1538
shrinkage=0.1


Tree=98
num_leaves=7
num_cat=3
split_feature=12 0 1 0 1 4
split_gain=24701.7 27624.5 34247.4 32621 35643.4 25829
threshold=3282.0000000000005 272862.00000000006 0 125830.00000000001 1 2
decision_type=2 2 5 2 5 5
left_child=-1 3 -3 4 -2 -5
right_child=1 2 -4 5 -6 -7
leaf_value=0.03650352971022245 -0.026900520304687398 -0.0040584506532808139 -0.061571342749156224 0.069740912274038988 0.0012370426776930495 0.01314872282947672
leaf_count=342012 3565606 1110956 1193435 345976 23453404 3615295
internal_value=0 -0.0121656 -0.248865 0.0115088 -0.0273911 0.198634
internal_count=33626684 33284672 2304391 30980281 27019010 3961271
cat_boundaries=0 3 8 23
cat_threshold=973999784 40984 1073741824 1051336816 16810000 1610612744 0 8388608 1076371456 0 0 21626880 128 4194304 2097152 2097152 1028 0 0 524288 262144 34 2
shrinkage=0.1


Tree=99
num_leaves=7
num_cat=1
split_feature=12 12 12 12 1 7
split_gain=24347.4 370497 43995.5 101210 46078 35329.4
threshold=740942.00000000012 596043.50000000012 471625.50000000006 454282.00000000006 0 163.50000000000003
decision_type=2 2 2 2 5 2
left_child=1 2 3 -1 -4 -3
right_child=-2 5 4 -5 -6 -7
leaf_value=-0.00011333560167899872 -0.029470707221791632 0.17849690853936104 0.27750375065716337 0.12832943544045611 -0.038156544971793931 0.34797177191151257
leaf_count=26644664 3517909 1268 123 582413 2879598 709
internal_value=0 0.0174359 -0.0108121 0.0169664 -0.341703 2.72939
internal_count=33626684 30108775 30106798 27227077 2879721 1977
cat_boundaries=0 1
cat_threshold=4096
shrinkage=0.1


Tree=100
num_leaves=7
num_cat=3
split_feature=3 7 8 4 11 4
split_gain=24827.1 25554.3 34423.9 36253.4 31107 34259
threshold=0 2766.5000000000005 431.50000000000006 1 9.5000000000000018 2
decision_type=5 2 2 5 2 5
left_child=-1 4 -3 -4 5 -2
right_child=1 2 3 -5 -6 -7
leaf_value=-0.10786571565408912 -0.01726013818886938 0.074419429258994349 -0.047043661469911381 0.01705585039509681 -0.035610537421674728 0.004575132729175699
leaf_count=509421 5497652 297009 1002501 4766509 3853882 17699710
internal_value=0 0.00258187 0.155735 0.0905018 -0.0303291 -0.00744794
internal_count=33626684 33117263 6066019 5769010 27051244 23197362
cat_boundaries=0 5 21 37
cat_threshold=36 3615499392 69789667 65622 32 1090527240 0 0 289538048 4325376 4194304 0 2359296 1024 671088640 4 134746624 272629764 1073758242 524290 1040 17432576 0 0 622331904 512 0 524288 0 0 2684354560 143654948 33558528 37879808 524544 1075838976 1171
shrinkage=0.1


Tree=101
num_leaves=7
num_cat=4
split_feature=7 7 3 1 3 1
split_gain=22478.2 46000.6 39938 38873.1 35624.4 32448.3
threshold=633.50000000000011 138.50000000000003 0 1 2 3
decision_type=2 2 5 5 5 5
left_child=1 3 5 4 -1 -2
right_child=2 -3 -4 -5 -6 -7
leaf_value=0.11195245336309625 -0.076770241855564136 -0.016060868800449261 -0.041050984064439078 -0.0024448136767599451 0.02453230941300024 0.01157100431218642
leaf_count=88239 411021 12217121 2284748 2119787 629941 15875827
internal_value=0 -0.0651781 0.0677393 0.126341 0.434328 0.100194
internal_count=33626684 15055088 18571596 2837967 718180 16286848
cat_boundaries=0 19 25 44 50
cat_threshold=333444939 536875592 268566536 131072 8192 0 0 0 0 0 0 0 0 0 0 0 0 0 2147483648 944309288 8429752 1074562308 570445953 1179648 32768 1207961746 536910129 268435456 4194305 134217728 0 0 0 0 0 0 0 0 0 0 0 0 0 2147483648 8454192 16965714 537433116 572535184 9568256 1
shrinkage=0.1


Tree=102
num_leaves=7
num_cat=4
split_feature=5 2 12 12 5 4
split_gain=23836.9 21777.7 23033.8 287237 205057 22685.8
threshold=0 1 740942.00000000012 596043.50000000012 2 3
decision_type=1 5 2 2 1 5
left_child=-1 5 3 -3 -4 -2
right_child=1 2 4 -5 -6 -7
leaf_value=0.099921707459970976 0.020596275091772108 -0.00036088051485395965 0.32797392008771231 0.23843423131452163 -0.051317766032412629 -0.08200738553871087
leaf_count=38446 413460 28473683 560 1965 3441540 1257030
internal_value=0 -0.00274644 0.00641025 0.0222605 -0.28689 -0.473604
internal_count=33626684 33588238 31917748 28475648 3442100 1670490
cat_boundaries=0 1 122 123 139
