tree
version=v2
num_class=1
num_tree_per_iteration=1
label_index=0
max_feature_idx=11
objective=binary sigmoid:1
feature_names=app device os channel hour minute nip_day_test_hh n_ip n_ip_os n_ip_app n_ip_app_os n_app
feature_infos=3:9:12:2:18:15:14:8:7:1:11:21:13:26:23:6:19:25:20:28:27:29:24:22:10:32:5:17:64:4:47:94:56:36:151:58:55:93:45:37:62:160:183:35:46:60:44:66:83:65:38:33:109:125:107:68:82:72:30:232:110:39:43:54:67:88:75:0:215:61:95:134:52:76:84:42:146:208:103:170:48:104:108:49:86:74:31:117:481:50:121:53:96:149:99:202:34:266:81:59 1:2:0:3866:5:59:6:16:18:21:40:60:88:154:114:82:33:46:50:7:56:97:37:67:78:343:73:200:109:189:558:203:3867:4:30 19:13:17:18:22:8:10:6:9:15:20:25:3:16:37:41:14:1:12:27:23:32:35:47:11:28:53:30:26:2:31:36:40:4:49:866:24:0:42:43:58:46:34:38:7:5:21:44:29:48:56:65:50:39:52:79:70:55:64:97:77:66:45:62:73:90:63:59:98:96:109:76:85:69:100:60:57:74:83:71:80:78:61:111:88:117:155:68:72:112:141:102:138:137:123:151:133:86:67:92 107:280:477:101:145:265:259:153:178:121:232:466:134:379:205:442:127:245:237:439:489:135:480:137:469:219:128:122:140:435:459:334:244:409:215:452:328:236:377:424:347:211:173:130:115:315:401:19:212:376:340:125:445:349:266:213:386:105:243:258:3:113:481:319:116:463:278:412:234:371:467:478:30:111:430:343:449:400:364:124:402:497:118:325:487:182:13:317:417:406:484:120:326:21:448:361:242:17:446:150:322:490:24:421:373:450 4:5:6:13:14:12:11:10:7:9:8 [0:59] [1:174383] [1:43958] [1:9382] [1:7370] [1:2167] [1:895281]
tree_sizes=816 895 887 923 792 877 883 829 938 942 968 1036 790 786 800 798 953 830 862 964 981 1065 951 950 1077 869 810 1087 898 873 997 874 853 1101 758 875 1012 1039 878 865 889 1155 771 913 1124 749 1078 1276 978 1000 858 995 965 782 802 733 1233 939 1180 995 1220 1125 1225 785 1033 755 774 1245 1115 902 849 1007 861 830 981 1027 751 1245 853 1078 870 1330 1035 1330 815 1062 1025 848 1030 789 1046 815 830 878 991 1282 921 840 1073 1119 922 822 1275 1048 841 1070 1026 938 1161 1037 929 999 1078 1023 987 1073 978 876 950 998 1042 943 1045 1070 971 1048 787 1019 908 883 943 1051 1033 993 914 1007 1106 955 1118 980 1030 1023 844 800 845 771 933 845 978 923 1195 1017 1123 784 908 858 1034 749 1018 1220 1029 1008 987 1006 1089 1052 1065 1057 910 1026 929 1016 950 1110 1024 1151 831 1187 824 889 1030 847 978 1038 934 973 912 1068 1004 875 1074 979 803 862 973 1026 1022 983 841 1116 1242 827 1030 773 889 855 930 1182 846 882 1043 978 1088 1068 808 919 972 861 963 1192 1017 1103 770 888 1002 1135 834 797 924 1129 988 1122 936 797 846 846 959 891 1079 1010 1025 890 755 854 866 1039 771 926 1032 966 980 880 984 824 1002 723 911 953 1013 820 851 965 915 994 1026 860 928 733 926 923 754 1077 1184 776 950 957 816 858 957 959 807 938 849 1035 981 822 956 982 1060 824 1014 836 997 984 1096 1025 932 947 701 889 1098 939 913 775 801 900 1095 750 903 1008 1073 1018 924 895 919 1110 988 870 686 819 753 861 770 828 801 785 1004 1075 918 1059 1058 973 941 856 774 1005 925 1021 885 848 956 905 963 838 880 811 971 867 952 973 948 1131 958 750 1124 1185 956 817 703 779 909 962 1012 836 714 751 873 998 970 966 919 1024 971 976 898 1020 1041 988 855 930 906 970 920 947 931 1050 775 1093 697 875 949 1098 1051 1024 974 931 929 892 792 819 1020 984 831 1006 836 1038 893 964 1043 1052 904 856 949 878 730 889 880 957 869 895 995 907 792 1157 788 908 900 928 961 1000 799 999 1012 881 977 1009 969 974 817 875 1011 924 830 928 874 924 907 1036 977 907 984 951 782 766 858 774 1017 955 941 1075 918 951 741 1070 855 998 1004 850 1212 1001 953 957 914 1007 976 791 771 1033 955 837 915 1075 960 953 811 979 970 772 866 956 744 957 874 917 900 917 803 988 1116 959 1075 1058 850 1076 1043 904 921 1068 1061 1123 905 843 747 733 976 898 867 960 912 1006 816 805 936 791 847 926 813 949 1047 926 825 1047 926 814 771 736 1107 1126 978 1153 872 865 1089 963 985 835 812 739 1007 894 965 1053 832 1131 910 1129 894 907 937 959 979 993 947 770 1008 885 851 1023 1100 904 793 861 780 885 767 967 936 1028 762 1002 918 964 1043 1084 762 1029 907 991 1074 1036 1019 958

Tree=0
num_leaves=7
num_cat=3
split_feature=0 6 0 11 3 8
split_gain=2.11767e+07 1.43296e+06 325965 244540 200092 122450
threshold=0 19.500000000000004 1 3401.0000000000005 2 2.5000000000000004
decision_type=5 2 5 2 5 2
left_child=4 5 -3 -4 -1 -2
right_child=1 2 3 -5 -6 -7
leaf_value=0.0028186576102114816 0.16490510052693508 -0.12620615026744533 0.019923853052413218 -0.18442576528671792 0.18627136998154156 0.0041942426775002338
leaf_count=120782 45104 4396366 107425 18210197 384216 152492
internal_value=0 -1.6112 -1.69692 -1.81899 1.81825 1.02539
internal_count=23416582 22911584 22713988 18317622 504998 197596
cat_boundaries=0 16 19 32
cat_threshold=537396257 1351952556 1836292 570431617 0 0 1024 0 0 0 0 0 0 0 0 2 2148666112 536887313 2 0 0 0 16777216 0 0 0 0 0 536870912 0 33554432 4194304
shrinkage=0.1


Tree=1
num_leaves=7
num_cat=5
split_feature=0 6 3 3 0 3
split_gain=1.72575e+07 1.17671e+06 274002 170103 106027 104051
threshold=0 19.500000000000004 1 2 3 4
decision_type=5 2 5 5 5 5
left_child=3 -2 5 -1 -4 -3
right_child=1 2 4 -5 -6 -7
leaf_value=-0.0016814940642419065 0.093150699593401276 0.17886222190940643 -0.12860577621622973 0.16916370275226306 -0.16609055430688918 -0.091839600377772793
leaf_count=120865 197377 3555 3085426 384197 18072752 1552410
internal_value=0 -1.45746 -1.53563 1.65071 -1.60044 -0.842623
internal_count=23416582 22911520 22714143 505062 21158178 1555965
cat_boundaries=0 16 32 45 48 55
cat_threshold=537396257 1351952556 1836292 570431617 0 0 1024 0 0 0 0 0 0 0 0 2 2097152 0 0 0 131072 0 2097152 1048576 0 2147483648 8405024 16777216 0 0 1073741824 128 0 0 0 16777216 0 0 0 0 0 536870912 0 33554432 4194304 135269120 16400 3 0 0 0 0 0 0 2097152
shrinkage=0.1


Tree=2
num_leaves=7
num_cat=5
split_feature=0 7 0 0 3 2
split_gain=1.4323e+07 973220 254630 171964 143075 125375
threshold=0 6.5000000000000009 1 2 3 4
decision_type=5 2 5 5 5 5
left_child=4 -2 5 -4 -1 -3
right_child=1 2 3 -5 -6 -7
leaf_value=5.0977600434436407e-05 0.087778664455010452 -0.076427494917289132 -0.15436577384736272 0.020855282397002385 0.15612313689144358 -0.13726382032142587
leaf_count=120949 202380 2342395 18055844 108052 379677 2207285
internal_value=0 -1.33862 -1.40963 -1.52213 1.5227 -1.03187
internal_count=23416582 22915956 22713576 18163896 500626 4549680
cat_boundaries=0 16 19 24 39 44
cat_threshold=537396257 1351952556 1573124 570431617 0 0 1024 0 0 0 0 0 0 0 0 2 2282752768 536887313 4457475 401010910 84049920 1073872896 16392 2097152 0 0 0 16777216 0 0 0 0 0 536870912 0 33554432 4194304 1073741824 2 560488448 262144 4194312 2097153 512
shrinkage=0.1


Tree=3
num_leaves=7
num_cat=3
split_feature=11 3 6 8 3 3
split_gain=1.07317e+07 1.93229e+06 321148 171557 155782 125572
threshold=38752.500000000007 0 40.500000000000007 7.5000000000000009 1 2
decision_type=2 5 2 2 5 5
left_child=1 -1 -2 -3 -4 -5
right_child=2 3 4 5 -6 -7
leaf_value=-0.12871782478104193 -0.0022304049844591787 0.14880136441079908 -0.091979460905127 -0.00011337432523312869 -0.14157033107659625 0.11546893239526689
leaf_count=1175985 409003 307883 2444369 272341 18643940 163061
internal_value=0 1.08396 -1.30207 1.36886 -1.34746 0.804998
internal_count=23416582 1919270 21497312 743285 21088309 435402
cat_boundaries=0 16 32 47
cat_threshold=0 0 0 621806080 33685697 262144 134217728 0 8 0 0 19399168 4194304 0 2099200 16 0 0 0 2147483648 131072 0 10485760 1048576 0 2147483648 134234144 0 4194304 0 1074003969 128 0 0 0 131072 0 0 0 0 16777216 536870912 134217728 33554432 0 0 1073741842
shrinkage=0.1


Tree=4
num_leaves=7
num_cat=3
split_feature=0 6 0 11 2 6
split_gain=1.0202e+07 737462 216676 134939 104929 83569.7
threshold=0 19.500000000000004 1 3401.0000000000005 2 110.50000000000001
decision_type=5 2 5 2 5 2
left_child=5 -2 4 -4 -3 -1
right_child=1 2 3 -5 -6 -7
leaf_value=0.14820110821343524 0.076161257350427419 -0.064912964553308097 0.01755798103771963 -0.1356539583805538 -0.12376877621889285 0.10841029173691562
leaf_count=84560 197126 2579948 106445 18163145 1873388 411970
internal_value=0 -1.16261 -1.22855 -1.3359 -0.869422 1.3361
internal_count=23416582 22920052 22722926 18269590 4453336 496530
cat_boundaries=0 16 19 24
cat_threshold=537396257 1083517100 1573124 570431617 0 0 1024 0 0 0 0 0 0 0 0 2 1182464 268451857 4457475 560816128 262144 0 2097153 8704
shrinkage=0.1


Tree=5
num_leaves=7
num_cat=5
split_feature=0 7 0 0 3 2
split_gain=8.58472e+06 673216 213263 123512 110669 99130.8
threshold=0 6.5000000000000009 1 2 3 4
decision_type=5 2 5 5 5 5
left_child=4 -2 5 -4 -1 -3
right_child=1 2 3 -5 -6 -7
leaf_value=0.043255675459232493 0.076307643117827603 -0.055578258119768367 -0.12770093135384231 0.024350363480821258 0.13280187176582639 -0.11139706470535016
leaf_count=178976 203763 2393605 18072451 94063 299860 2173864
internal_value=0 -1.08048 -1.14553 -1.25703 1.2665 -0.79278
internal_count=23416582 22937746 22733983 18166514 478836 4567469
cat_boundaries=0 16 19 24 39 43
cat_threshold=537396257 1075128492 1573124 570431617 0 0 1024 0 0 0 0 0 0 0 0 2 2282883840 813711377 4457474 400879838 83918848 1610743809 16392 2097152 0 0 0 16777216 0 0 0 0 0 536870912 8388608 167772160 0 1073741824 2 594026496 262208 8 2097153
shrinkage=0.1


Tree=6
num_leaves=7
num_cat=3
split_feature=11 3 6 6 3 2
split_gain=6.55179e+06 1.18678e+06 234065 169066 129304 125889
threshold=38752.500000000007 0 40.500000000000007 124.50000000000001 1 2
decision_type=2 5 2 2 5 5
left_child=1 -1 -2 -3 -4 -5
right_child=2 3 4 5 -6 -7
leaf_value=-0.1152863764954158 0.0027212751202792753 0.13503144015619326 -0.073382027741197661 0.091303824043972526 -0.11912572132403076 -0.037572379461689918
leaf_count=1102579 409472 118770 2620741 510319 18466499 188202
internal_value=0 0.906687 -1.07746 1.13568 -1.12057 0.787829
internal_count=23416582 1919870 21496712 817291 21087240 698521
cat_boundaries=0 16 32 37
cat_threshold=0 0 0 621806080 33685697 262144 0 0 8 0 0 2621952 4194304 0 2066 16 2097152 0 0 2147483648 131072 8192 10485760 1048576 0 2147483648 134234144 0 4194304 0 1074003969 128 595551633 671357008 12300 8193 8192
shrinkage=0.1


Tree=7
num_leaves=7
num_cat=4
split_feature=0 6 0 8 2 0
split_gain=6.3358e+06 544121 192673 116887 88203.1 77779.5
threshold=0 40.500000000000007 1 1.5000000000000002 2 3
decision_type=5 2 5 2 5 5
left_child=-1 3 4 -2 -3 -5
right_child=1 2 -4 5 -6 -7
leaf_value=0.11487485365070377 0.12692884378170874 -0.053293446693652415 -0.11545237818989991 -0.12839756166730365 -0.11742789034502565 0.02885057767419107
leaf_count=479111 34604 3072737 18165286 158878 1253904 252062
internal_value=0 -0.965897 -1.04283 0.409837 -0.68853 -0.0896785
internal_count=23416582 22937471 22491927 445544 4326641 410940
cat_boundaries=0 16 19 24 30
cat_threshold=537396257 1075128492 1573124 570431617 0 0 1024 0 0 0 0 0 0 0 0 2 2148535040 276840465 263170 592405760 262144 8 136314881 8704 329314386 285249602 1610612747 0 8388672 1
shrinkage=0.1


Tree=8
num_leaves=7
num_cat=3
split_feature=11 3 3 6 11 3
split_gain=4.81189e+06 873494 223059 191421 136349 125827
threshold=38752.500000000007 0 1 60.500000000000007 8071.5000000000009 2
decision_type=2 5 5 2 2 5
left_child=1 -1 4 -2 -3 -5
right_child=3 2 -4 5 -6 -7
leaf_value=-0.10311642850740635 -0.0089807425644684944 -0.1428527299432468 0.11872786693287636 -0.071641410123772106 0.05428733486747514 -0.11140578664184814
leaf_count=1100655 633132 143308 307341 4377453 367910 16486783
internal_value=0 0.820448 1.02781 -0.965652 0.344062 -1.01448
internal_count=23416582 1919214 818559 21497368 511218 20864236
cat_boundaries=0 16 31 47
cat_threshold=0 0 0 621806080 33685697 262144 0 0 8 0 0 2621952 4194304 1073741824 2050 16 0 0 0 0 0 0 134217728 0 16777216 536870912 142606336 184549376 0 0 1075838992 0 0 0 2147485696 131072 8192 10485760 1049600 1024 2147483648 16416 16777216 4194304 536870912 1074003969 130
shrinkage=0.1


Tree=9
num_leaves=7
num_cat=5
split_feature=0 6 0 3 2 3
split_gain=4.65252e+06 406145 205198 109009 86133.8 79107.8
threshold=0 40.500000000000007 1 2 3 4
decision_type=5 2 5 5 5 5
left_child=3 5 4 -1 -3 -2
right_child=1 2 -4 -5 -6 -7
leaf_value=-0.027988869994314842 -0.12062528913002019 -0.041135537283623132 -0.10618806814780959 0.10925296201735807 -0.10672453460477811 0.054340089904747972
leaf_count=124253 111664 3095261 18117377 375286 1260689 332052
internal_value=0 -0.864914 -0.936561 1.0456 -0.565461 0.34815
internal_count=23416582 22917043 22473327 499539 4355950 443716
cat_boundaries=0 16 19 34 39 55
cat_threshold=537396257 1083517100 1573126 570431617 0 0 1024 0 0 0 0 0 0 0 0 2 1051392 268451857 263169 0 0 0 16777216 0 0 0 0 0 536870912 0 33554432 4194304 32 2097154 594502912 262144 8 1 512 17309696 0 0 538444288 4224 262144 1048576 2101248 4194820 0 537919556 2101760 272629760 1073741826 537397248 1040
shrinkage=0.1


Tree=10
num_leaves=7
num_cat=4
split_feature=11 3 3 3 2 10
split_gain=3.58823e+06 711541 152138 150599 103244 94023
threshold=38752.500000000007 0 1 2 3 2.5000000000000004
decision_type=2 5 5 5 5 2
left_child=1 -1 4 5 -3 -2
right_child=3 2 -4 -5 -6 -7
leaf_value=-0.084859055849519457 -0.024769653730944974 0.057177585407547651 0.11067815817197831 -0.099763800974772887 -0.108743958795537 -0.081728248158243394
leaf_count=1179730 2008036 282114 308434 16351302 149818 3137148
internal_value=0 0.751838 0.969637 -0.873848 0.352181 -0.573768
internal_count=23416582 1920096 740366 21496486 431932 5145184
cat_boundaries=0 16 31 47 51
cat_threshold=0 0 0 621806080 33685697 262144 134217728 0 8 0 0 36176384 4194304 0 2050 16 0 0 0 0 0 0 0 0 16777216 536870912 142606336 150994944 0 1073741824 1075838976 2097152 0 0 2164262912 131072 8192 11010048 1049600 1024 2147483648 134234144 16777216 4456448 536870944 1074003969 642 595272841 134479968 4104 8193
shrinkage=0.1


Tree=11
num_leaves=7
num_cat=5
split_feature=0 6 0 3 3 3
split_gain=3.45474e+06 354729 191540 109161 72336.2 72142
threshold=0 40.500000000000007 1 2 3 4
decision_type=5 2 5 5 5 5
left_child=3 5 4 -1 -3 -2
right_child=1 2 -4 -5 -6 -7
leaf_value=0.011197103961190488 -0.10608777325636753 -0.018009893861843259 -0.10095611212358571 0.10543340256643403 -0.068866383428986905 0.056003807062909472
leaf_count=194148 125105 1391764 15958984 293717 5133698 319166
internal_value=0 -0.773199 -0.846433 0.972209 -0.553086 0.363668
internal_count=23416582 22928717 22484446 487865 6525462 444271
cat_boundaries=0 16 20 35 51 67
cat_threshold=537396257 1083517068 1573126 570431489 0 0 1024 0 0 0 0 0 0 0 0 2 1444608 268451889 263169 128 0 0 0 16779264 0 0 0 0 0 536870912 8388608 33554432 4194304 1073741856 2 2097152 0 0 67108896 135168 8192 136314880 0 8 536870912 32 16777216 0 1073741824 1075838976 640 8192 0 0 605553152 33558656 262144 135266304 2097152 4194828 134217728 537919840 2101760 4194304 1073741826 537395200 1024
shrinkage=0.1


Tree=12
num_leaves=7
num_cat=3
split_feature=0 6 0 8 6 2
split_gain=2.97143e+06 313764 179303 108948 96254.2 94053.8
threshold=0 78.500000000000014 1 1.5000000000000002 95.500000000000014 2
decision_type=5 2 5 2 2 5
left_child=4 3 5 -2 -1 -3
right_child=1 2 -4 -5 -6 -7
leaf_value=0.11460914410717478 0.10695195696669513 -0.032353786015561242 -0.098541860711368737 -0.017528784430493823 0.062114169332272408 -0.087165266365465441
leaf_count=76589 58673 3603502 15675147 868636 404020 2730015
internal_value=0 -0.73426 -0.819971 0.167556 0.933578 -0.527605
internal_count=23416582 22935973 22008664 927309 480609 6333517
cat_boundaries=0 16 19 23
cat_threshold=537396257 1075128492 1573126 33560705 0 0 1024 0 0 0 0 0 0 0 0 2 2148797184 268451857 263169 560816128 262144 8 1
shrinkage=0.1


Tree=13
num_leaves=7
num_cat=2
split_feature=0 6 0 6 8 10
split_gain=2.56669e+06 263021 181982 97420.9 96600.1 77258.2
threshold=0 78.500000000000014 1 95.500000000000014 1.5000000000000002 3.5000000000000004
decision_type=5 2 5 2 2 2
left_child=3 4 5 -1 -2 -3
right_child=1 2 -4 -5 -6 -7
leaf_value=0.11224815849762398 0.099814720417700634 -0.01634337700830172 -0.092102619081048331 0.058006073003128988 -0.018769052481629838 -0.071863643542348116
leaf_count=78191 58915 2233235 17583292 408708 866101 2188140
internal_value=0 -0.695609 -0.777159 0.898672 0.137584 -0.418395
internal_count=23416582 22929683 22004667 486899 925016 4421375
cat_boundaries=0 16 19
cat_threshold=537396257 1083517068 1573126 33560705 0 0 1024 0 0 0 0 0 0 0 0 2 2282752768 268451889 263169
shrinkage=0.1


Tree=14
num_leaves=7
num_cat=2
split_feature=0 6 0 6 11 10
split_gain=2.19589e+06 250956 172686 92756.1 82522.2 77619.3
threshold=0 60.500000000000007 1 150.50000000000003 3401.0000000000005 1.5000000000000002
decision_type=5 2 5 2 2 2
left_child=3 -2 5 -1 -4 -3
right_child=1 2 4 -5 -6 -7
leaf_value=0.10831272026749682 0.022007379223427742 -0.0057477265749753363 0.034323912444201972 0.052824676940189934 -0.094438728206887479 -0.060053250069630297
leaf_count=92934 685529 1592988 114823 372158 15569979 4988171
internal_value=0 -0.656955 -0.734187 0.867578 -0.912936 -0.450466
internal_count=23416582 22951490 22265961 465092 15684802 6581159
cat_boundaries=0 16 23
cat_threshold=537396257 1075128460 1573124 33560577 0 0 0 0 0 0 0 0 0 0 0 2 2283014912 276840497 262147 0 0 0 1024
shrinkage=0.1


Tree=15
num_leaves=7
num_cat=3
split_feature=0 7 0 6 2 11
split_gain=1.88506e+06 212657 176087 97850.1 94928.8 80719.2
threshold=0 6.5000000000000009 1 78.500000000000014 2 3401.0000000000005
decision_type=5 2 5 2 5 2
left_child=3 -2 4 -1 -3 -4
right_child=1 2 5 -5 -6 -7
leaf_value=0.10824688725552004 0.051864144195773842 -0.0062777888505498765 0.035292995981919859 0.050874943312257719 -0.068503763192722042 -0.085156085465421
leaf_count=73081 203173 2267548 121631 412774 2259851 18078524
internal_value=0 -0.620767 -0.67361 0.827956 -0.323375 -0.822562
internal_count=23416582 22930727 22727554 485855 4527399 18200155
cat_boundaries=0 16 23 25
cat_threshold=537396257 1083517068 1573126 33560577 0 0 0 0 0 0 0 0 0 0 0 2 135269120 268451873 262145 128 0 0 1024 23601152 262144
shrinkage=0.1


Tree=16
num_leaves=7
num_cat=5
split_feature=0 9 0 3 3 2
split_gain=1.62773e+06 207518 153377 116475 111139 97066.1
threshold=0 1.5000000000000002 1 2 3 4
decision_type=5 2 5 5 5 5
left_child=4 3 5 -2 -1 -3
right_child=1 2 -4 -5 -6 -7
leaf_value=-0.012202584361472806 -0.090682463342967715 -0.026265174659864152 -0.086690283281623925 0.043553794367712263 0.090700755945150702 -0.091987628932685764
leaf_count=181329 581620 5060271 14589966 735539 287703 1980154
internal_value=0 -0.586651 -0.672716 0.126151 0.800227 -0.411021
internal_count=23416582 22947550 21630391 1317159 469032 7040425
cat_boundaries=0 16 20 36 51 56
cat_threshold=537396257 1075128460 1573126 33560577 0 0 1024 0 0 0 0 0 0 0 0 2 2283146112 268435505 262145 16512 17440768 0 0 806387712 37748865 4456448 0 2359296 512 0 672137536 524800 65540 1073741824 537430016 16 0 0 0 16777216 0 0 0 0 0 536870912 8388608 167772160 0 1073741824 2097154 39806208 0 0 1 8388608
shrinkage=0.1


Tree=17
num_leaves=7
num_cat=3
split_feature=0 6 7 0 0 8
split_gain=1.40258e+06 224366 153411 82802.4 80021.1 71668.3
threshold=0 95.500000000000014 19.500000000000004 1 2 2.5000000000000004
decision_type=5 2 2 5 5 2
left_child=2 5 -1 -3 -4 -2
right_child=1 3 4 -5 -6 -7
leaf_value=0.10168121119946989 0.075130155826838907 -0.048765210846184341 0.001485027839847551 -0.084629664460053988 0.069604681138197982 -0.018740257412099427
leaf_count=115047 150183 6666725 1081027 14259404 161305 982891
internal_value=0 -0.599579 0.645429 -0.699099 0.325939 0.148265
internal_count=23416582 22059203 1357379 20926129 1242332 1133074
cat_boundaries=0 16 19 35
cat_threshold=538445089 1075128460 1573126 33560705 0 0 1024 0 0 0 0 0 0 0 0 2 2349075072 268451889 263169 537920800 1073750016 524294 128 0 0 0 0 0 0 0 0 0 0 0 2
shrinkage=0.1


Tree=18
num_leaves=7
num_cat=4
split_feature=0 6 3 0 3 11
split_gain=1.20403e+06 187819 174337 81876.1 68986.9 66466.8
threshold=0 95.500000000000014 1 2 3 3401.0000000000005
decision_type=5 2 5 5 5 2
left_child=2 5 -1 -3 -5 -2
right_child=1 3 -4 4 -6 -7
leaf_value=-1.8926389956594174e-05 0.11532435018379653 -0.043875343785760773 0.083896616162681334 0.18591334252590483 -0.082442975863177018 -0.0062719446864592746
leaf_count=1040810 11965 6091578 339139 3270 14811868 1117952
internal_value=0 -0.567936 0.609458 -0.662443 -0.807528 0.125246
internal_count=23416582 22036633 1379949 20906716 14815138 1129917
cat_boundaries=0 16 31 34 41
cat_threshold=538445089 1083517100 1573124 33560577 0 0 1024 0 0 0 0 0 0 0 0 2 0 0 0 16777216 131072 0 0 0 8 536870912 8388608 33554432 4194304 32 1073741826 218368512 268451857 262147 0 0 0 0 0 0 2097152
shrinkage=0.1


Tree=19
num_leaves=7
num_cat=4
split_feature=11 3 2 3 3 9
split_gain=947478 267394 126768 126786 121229 62783.7
threshold=38752.500000000007 0 1 2 3 4.5000000000000009
decision_type=2 5 5 5 5 2
left_child=1 -1 3 5 -3 -2
right_child=2 4 -4 -5 -6 -7
leaf_value=-0.06443402880074009 0.039008676895833649 0.0040663040510772793 -0.085798977280827624 -0.06188772804066326 0.086663381241663284 -0.02531323385703111
leaf_count=1159402 816889 386218 7463178 9552429 375056 3663410
internal_value=0 0.515214 -0.53571 -0.388413 0.697663 -0.0882653
internal_count=23416582 1920676 21495906 14032728 761274 4480299
cat_boundaries=0 16 21 37 52
cat_threshold=0 0 0 621808128 33685697 262144 134217728 0 8 0 0 34079232 4194304 0 2050 16 38756480 536877056 0 1 134217728 2097152 0 0 2164262944 135680 8192 136839168 1049600 1024 2684354560 16416 16777216 4456448 545259552 1074003971 642 0 0 0 0 0 0 0 0 16777216 536870912 142606336 153092096 0 1073741856 2097152
shrinkage=0.1


Tree=20
num_leaves=7
num_cat=4
split_feature=0 6 6 3 0 3
split_gain=884449 165450 151747 82982.8 64170 55189
threshold=0 95.500000000000014 60.500000000000007 1 2 3
decision_type=5 2 2 5 5 5
left_child=2 5 -1 -3 -4 -2
right_child=1 3 4 -5 -6 -7
leaf_value=0.098341800947268979 -0.08553123146464886 -0.040050888081165706 0.06008594359106139 -0.07822449895052945 -0.0016754842268236756 0.031720737294981052
leaf_count=97744 284991 7938507 169174 12903710 1185171 837285
internal_value=0 -0.507147 0.543126 -0.602956 0.244898 0.152334
internal_count=23416582 21964493 1452089 20842217 1354345 1122276
cat_boundaries=0 16 32 36 52
cat_threshold=538445089 1351952525 1573126 33560577 0 0 0 0 0 0 0 0 0 0 0 2 131072 0 0 2248149024 131652 8192 145227776 1574144 1024 2147483648 16416 2097152 262144 545259520 262145 642 524289 1376396 1048832 33560577 17440768 0 0 806355456 37752960 262144 1048576 2101248 4194824 0 134218048 2097152 4259844 1073741824 1074268160 131088
shrinkage=0.1


Tree=21
num_leaves=7
num_cat=4
split_feature=7 3 10 3 3 3
split_gain=641323 253589 118139 74605.7 91431.6 64927
threshold=15.500000000000002 0 1.5000000000000002 1 2 3
decision_type=2 5 2 5 5 5
left_child=3 -2 5 -1 -5 -3
right_child=1 2 -4 4 -6 -7
leaf_value=-0.092718171407654648 0.026660785940363571 -0.078836058692292363 -0.065342865020990862 -0.035788565899658932 0.08991367348040856 -0.0024293453292754019
leaf_count=162520 1245695 1532313 16159984 270378 321416 3724276
internal_value=0 -0.37861 -0.511799 0.705234 0.773447 -0.17077
internal_count=23416582 22662268 21416573 754314 591794 5256589
cat_boundaries=0 16 32 48 64
cat_threshold=2097152 0 0 131072 131072 0 2097152 0 0 0 8388640 16777216 0 0 1073741824 128 139264 0 0 1605632 33554564 262144 1048576 270336 520 0 537919844 2101760 0 1073741826 2656256 1168 17301504 0 0 922749440 4609 0 142614528 2101248 4194304 134217728 16384 185073664 33619972 67108864 1610612737 131072 1091051520 0 0 806354944 37748865 0 1056768 270336 512 134217728 1048896 528896 4390912 524290 2048 132112
shrinkage=0.1


Tree=22
num_leaves=7
num_cat=3
split_feature=11 7 10 3 3 3
split_gain=616540 191979 118376 85040.5 79371.3 51980.4
threshold=38752.500000000007 19.500000000000004 2.5000000000000004 0 1 2
decision_type=2 2 2 5 5 5
left_child=1 -1 3 -2 -3 -6
right_child=2 4 -4 -5 5 -7
leaf_value=0.093354729296295152 -0.080425635013036123 -0.062431469198802984 -0.065437320462104862 -0.0071768038412136402 -0.014659385125432321 0.05135741044081589
leaf_count=146096 2250248 939175 12980584 6266337 529034 305108
internal_value=0 0.448257 -0.456039 -0.206244 0.0891213 0.264856
internal_count=23416582 1919413 21497169 8516585 1773317 834142
cat_boundaries=0 16 32 47
cat_threshold=18874376 0 0 810025472 37748737 262144 1056768 2109440 4194824 134217728 1048900 4096 65536 1073741826 2048 132096 0 0 0 621806080 131265 262144 134217728 0 16777224 0 0 34079232 4194304 0 18 16 0 0 0 0 33554432 0 0 0 0 536870912 142606336 153092096 0 1073741824 2099200
shrinkage=0.1


Tree=23
num_leaves=7
num_cat=4
split_feature=0 3 7 0 3 9
split_gain=581683 118505 116876 84198.6 64365.4 50118.5
threshold=0 1 29.500000000000004 2 3 5.5000000000000009
decision_type=5 5 2 5 5 2
left_child=1 -1 4 -4 -2 -3
right_child=2 5 3 -5 -6 -7
leaf_value=-0.001307582909386644 -0.080049077682462388 0.082332030625892949 -0.029946797906522202 -0.071200970673730005 0.026986312495004383 -0.0048594809247132324
leaf_count=1024159 543691 213205 6591635 13766624 1165125 112143
internal_value=0 0.483902 -0.429485 -0.526288 0.0777495 0.725729
internal_count=23416582 1349507 22067075 20358259 1708816 325348
cat_boundaries=0 16 31 34 50
cat_threshold=538445089 1403020 1573124 33560577 0 0 1024 0 0 0 0 0 0 0 0 2 0 0 0 16777216 131072 0 0 0 8 536870912 8388608 33554432 0 1073741824 1073741826 2365983360 1342177329 262147 18882560 0 0 603980288 33554560 262144 1056768 2097152 4194824 0 135266656 2626048 4 1074266112 537397248 1040
shrinkage=0.1


Tree=24
num_leaves=7
num_cat=4
split_feature=0 2 0 7 8 1
split_gain=495837 131273 104082 103028 93869.9 47730.8
threshold=0 1 2 11.500000000000002 15.500000000000002 3
decision_type=5 5 5 2 2 5
left_child=3 2 -2 -1 -4 -5
right_child=1 -3 4 5 -6 -7
leaf_value=0.093506177765082243 -0.063939763905177846 -0.065414422241702339 0.046404189700268626 -0.15442658273721077 -0.021226773872552961 0.028008518375051944
leaf_count=77619 4534466 10525861 1437410 77411 5732361 1031454
internal_value=0 -0.383698 -0.176454 0.484921 -0.00690786 0.234363
internal_count=23416582 22230098 11704237 1186484 7169771 1108865
cat_boundaries=0 16 21 28 149
cat_threshold=537396513 1075128460 1573126 33560577 0 0 1024 0 0 0 0 0 0 0 0 2 560553985 671356992 8 1 134217728 316731474 553816130 1614938136 2105600 8388608 1 65536 4 134217728 0 0 0 0 0 0 0 0 0 0 0 0 0 0 0 0 0 0 0 0 0 0 0 0 0 0 0 0 0 0 0 0 0 0 0 0 0 0 0 0 0 0 0 0 0 0 0 0 0 0 0 0 0 0 0 0 0 0 0 0 0 0 0 0 0 0 0 0 0 0 0 0 0 0 0 0 0 0 0 0 0 0 0 0 0 0 0 0 0 0 0 0 0 0 0 0 0 0 0 0 0 0 0 0 0 0 0 0 0 0 0 0 0 0 0 0 0 0 67108864
shrinkage=0.1


Tree=25
num_leaves=7
num_cat=3
split_feature=0 7 10 3 11 0
split_gain=432853 124112 117095 84503.9 70736.4 53532.6
threshold=0 11.500000000000002 2.5000000000000004 1 3401.0000000000005 2
decision_type=5 2 2 5 2 5
left_child=1 -1 3 -2 -5 -3
right_child=2 5 -4 4 -6 -7
leaf_value=0.090711439934360316 -0.079437053051607115 0.09935840758691715 -0.062860868061975578 0.08598820882883218 -0.011806936447514056 0.0075001858984700661
leaf_count=90185 2263006 11559 12723549 69668 6244753 2013862
internal_value=0 0.377232 -0.404442 -0.153161 -0.0186976 0.159273
internal_count=23416582 2115606 21300976 8577427 6314421 2025421
cat_boundaries=0 16 32 36
cat_threshold=672664865 9791629 1573126 33576961 0 0 1024 0 0 0 0 0 0 0 0 2 16908288 0 0 538050560 37752961 262144 1056768 262144 520 0 135266628 4608 4259840 1073741826 524288 132114 1 327816 1048832 4097
shrinkage=0.1


Tree=26
num_leaves=7
num_cat=4
split_feature=0 10 6 0 0 0
split_gain=366981 111695 110942 47399.2 43914.8 43545.2
threshold=0 1.5000000000000002 40.500000000000007 1 2 3
decision_type=5 2 2 5 5 5
left_child=2 5 -1 -4 -3 -2
right_child=1 4 3 -5 -6 -7
leaf_value=0.091543984021681318 0.022481339980023145 -0.037660276552233272 0.097581960685815386 0.0072531239647105799 -0.073599221375911142 -0.027225930710053883
leaf_count=77656 1963820 8327723 11611 1412970 8066952 3555850
internal_value=0 -0.356262 0.40016 0.165373 -0.517064 -0.0307261
internal_count=23416582 21914345 1502237 1424581 16394675 5519670
cat_boundaries=0 16 20 24 28
cat_threshold=672662817 1386636 1573126 33560577 0 0 1024 0 0 0 0 0 0 0 0 2 1 327816 1048832 1 2214988424 1082130481 262145 16512 17042056 8404993 0 536870912
shrinkage=0.1


Tree=27
num_leaves=7
num_cat=4
split_feature=9 0 0 8 0 1
split_gain=299459 125206 107215 65787.9 56219.1 49375.4
threshold=3.5000000000000004 0 1 1.5000000000000002 2 3
decision_type=2 5 5 2 5 5
left_child=1 -1 5 -3 -5 -2
right_child=2 3 -4 4 -6 -7
leaf_value=0.066152470180986619 -0.1134107321005039 0.064684947552719141 -0.056626363896609314 -0.11288163380168872 -0.0050780045996976714 -0.0013198033578283328
leaf_count=548020 321804 171389 15424773 594107 2769562 3586927
internal_value=0 0.289591 -0.3636 -0.00631474 -0.165286 -0.0748791
internal_count=23416582 4083078 19333504 3535058 3363669 3908731
cat_boundaries=0 16 23 30 151
cat_threshold=525833 1403020 1573124 570431489 0 0 0 0 0 0 0 0 0 0 0 2 672796449 1074014397 1704193 33560577 0 0 1024 1386217520 560108610 2701269016 2097408 10747904 1 65536 4 134217728 0 0 0 0 256 0 0 0 0 0 0 0 0 0 0 0 0 0 0 0 0 0 0 0 0 0 0 0 0 0 0 0 0 0 0 0 0 0 0 0 0 0 0 0 0 0 0 0 0 0 0 0 0 0 0 0 0 0 0 0 0 0 0 0 0 0 0 0 0 0 0 0 0 0 0 0 0 0 0 0 0 0 0 0 0 0 0 0 0 0 0 0 0 0 0 0 0 0 0 0 0 0 0 0 0 0 0 0 0 0 0 0 0 0 0 0 0 0 67108864
shrinkage=0.1


Tree=28
num_leaves=7
num_cat=4
split_feature=0 2 7 9 2 3
split_gain=266231 119945 97089.9 76046.5 64398.6 61733.3
threshold=0 1 11.500000000000002 5.5000000000000009 2 3
decision_type=5 5 2 2 5 5
left_child=2 3 -1 5 -4 -2
right_child=1 -3 4 -5 -6 -7
leaf_value=0.085917703003022275 -0.053260369654061418 -0.060885314962300555 0.031636758391490688 -0.030187040248695691 -0.036611708584336135 0.044904883296862069
leaf_count=86352 1060625 10176694 1049946 8548625 791725 1702615
internal_value=0 -0.323 0.322907 -0.106012 0.132822 0.247183
internal_count=23416582 21488559 1928023 11311865 1841671 2763240
cat_boundaries=0 16 21 26 42
cat_threshold=538447137 1075144844 1573127 33576961 0 0 1024 0 0 0 0 0 0 0 0 2 560553985 671356992 8 1 134217728 1634216081 537135184 0 0 8192 16777216 0 0 874020864 37752961 262144 134225920 2097152 4194824 0 324 524800 196612 1073741824 2048 1042
shrinkage=0.1


Tree=29
num_leaves=7
num_cat=3
split_feature=8 0 6 10 3 0
split_gain=247076 135522 73935.8 65362.8 40755.2 39593.9
threshold=2.5000000000000004 0 95.500000000000014 4.5000000000000009 1 2
decision_type=2 5 2 2 5 5
left_child=2 3 -1 -2 -3 -4
right_child=1 4 5 -5 -6 -7
leaf_value=0.081838750792306153 0.022349204572880397 -0.023440603397785004 0.04872343878607141 -0.032671328525715013 -0.060062744195507937 -0.030742901148476734
leaf_count=199806 2426481 5640639 93840 1997947 12007313 1050556
internal_value=0 -0.250899 0.491321 0.0343294 -0.46213 0.0877912
internal_count=23416582 22072380 1344202 4424428 17647952 1144396
cat_boundaries=0 7 23 27
cat_threshold=2702707457 1343563949 1310983 33560577 0 0 1024 1073872896 0 0 100698144 580 4202496 136839168 786432 1024 536870912 8388608 18874368 262144 8405024 819216 1 135791905 8741004 1048832 33558529
shrinkage=0.1


Tree=30
num_leaves=7
num_cat=2
split_feature=6 0 10 11 1 11
split_gain=223553 138484 76940.3 49270.5 43306.5 40523.3
threshold=19.500000000000004 0 2.5000000000000004 3401.0000000000005 1 38752.500000000007
decision_type=2 5 2 2 5 2
left_child=5 2 4 -3 -2 -1
right_child=1 3 -4 -5 -6 -7
leaf_value=0.091367585634957241 -0.1329012642608815 0.036889155397599287 -0.026212789613158313 -0.052867760180327621 0.025411059438110985 0.014528111219710121
leaf_count=66861 127426 148397 4098856 15957472 2835242 182328
internal_value=0 -0.201474 0.00945489 -0.473249 0.217744 0.681414
internal_count=23416582 23167393 7061524 16105869 2962668 249189
cat_boundaries=0 7 128
cat_threshold=673058561 1075144845 1048839 33560577 0 0 1024 4 134217728 0 0 0 0 0 0 0 0 0 0 0 0 0 0 0 0 0 0 0 0 0 0 0 0 0 0 0 0 0 0 0 0 0 0 0 0 0 0 0 0 0 0 0 0 0 0 0 0 0 0 0 0 0 0 0 0 0 0 0 0 0 0 0 0 0 0 0 0 0 0 0 0 0 0 0 0 0 0 0 0 0 0 0 0 0 0 0 0 0 0 0 0 0 0 0 0 0 0 0 0 0 0 0 0 0 0 0 0 0 0 0 0 0 0 0 0 0 0 67108864
shrinkage=0.1


Tree=31
num_leaves=7
num_cat=3
split_feature=6 2 3 11 11 3
split_gain=190535 193397 84696.6 50971.5 40789.5 38526.4
threshold=19.500000000000004 0 1 3401.0000000000005 38752.500000000007 2
decision_type=2 5 5 2 2 5
left_child=4 2 -2 -4 -1 -3
right_child=1 5 3 -5 -6 -7
leaf_value=0.089748634079079237 -0.053810205750994648 0.042520992960235822 0.075376820546712076 0.0027338945230514981 0.011431662416158629 -0.071724756303777684
leaf_count=66613 4568052 120801 81928 10482815 182029 7914344
internal_value=0 -0.186928 -0.0146271 0.0785507 0.649771 -0.661041
internal_count=23416582 23167940 15132795 10564743 248642 8035145
cat_boundaries=0 5 21 36
cat_threshold=594501761 671352896 4104 8193 8192 16785416 0 0 542769152 37748865 262144 1056768 2105344 20972032 0 1048900 528896 4194304 1073741824 2048 1040 0 0 0 131072 0 0 2097152 0 1024 0 0 0 262144 0 1
shrinkage=0.1


Tree=32
num_leaves=7
num_cat=4
split_feature=8 2 0 9 0 2
split_gain=166172 163074 102551 59856.8 54330.9 46611.5
threshold=2.5000000000000004 0 1 8.5000000000000018 2 3
decision_type=2 5 5 2 5 5
left_child=4 2 -2 -4 -1 -6
right_child=1 -3 3 -5 5 -7
leaf_value=0.070578264317210426 -0.073941060560226965 -0.070863717120591016 0.024638728465836663 -0.016106272481100643 0.059152053640318072 -0.039393069148108327
leaf_count=329068 3362477 6779271 3995755 7932629 196842 820540
internal_value=0 -0.199949 -0.0485708 0.0423829 0.441158 0.0302714
internal_count=23416582 22070132 15290861 11928384 1346450 1017382
cat_boundaries=0 5 12 28 33
cat_threshold=594502657 537133120 4104 8193 134217728 316682352 553824322 1614812184 2105728 8388608 1 65536 134745257 8741020 1048836 33558529 0 0 0 0 0 0 0 0 0 0 0 2 560537729 266304 4104 8193 8192
shrinkage=0.1


Tree=33
num_leaves=7
num_cat=5
split_feature=10 2 3 3 3 3
split_gain=152444 161179 71184.7 46928.8 45724.6 37444
threshold=2.5000000000000004 0 1 2 3 4
decision_type=2 5 5 5 5 5
left_child=1 3 -3 -1 -2 -4
right_child=4 2 5 -5 -6 -7
leaf_value=0.069057883252904517 -0.011339082390059119 0.047714947774398615 -0.087495745189645646 0.02112177355521019 -0.052946768935573277 -0.024815348333900495
leaf_count=944021 3835604 422496 1707821 2805463 9746650 3954527
internal_value=0 0.134235 -0.242075 0.426303 -0.359207 -0.396519
internal_count=23416582 9834328 6084844 3749484 13582254 5662348
cat_boundaries=0 5 19 35 51 67
cat_threshold=560472209 671352912 4104 1 8192 1073741824 0 0 2147614752 0 4194304 2097152 525312 1024 0 0 0 262144 536870944 1075838984 0 0 2148171808 135168 0 2097152 3937280 16777220 0 0 16777216 262148 612384800 2359314 131072 1073872896 0 0 2214627328 131588 4202496 136314880 1312000 0 2684354560 16416 169869312 327680 8388610 1074266113 128 16785408 0 0 806879744 33554432 262144 8192 12288 12 536870912 143655232 33558528 4194304 1073741826 536905728 132114
shrinkage=0.1


Tree=34
num_leaves=7
num_cat=3
split_feature=6 2 11 11 1 2
split_gain=135205 141911 48987 43550.5 32544.4 15484.4
threshold=40.500000000000007 0 38752.500000000007 3401.0000000000005 1 2
decision_type=2 5 2 2 5 5
left_child=2 3 -1 -2 -5 -4
right_child=1 -3 5 4 -6 -7
leaf_value=0.082360003019473368 0.063647827629946641 -0.062796934052941608 0.028877410837068424 -0.089524114651609518 -0.0032806036664058584 -0.040168337902441099
leaf_count=95893 101907 7334660 244238 584332 14890786 164766
internal_value=0 -0.15707 0.506048 -0.0175916 -0.057536 0.075733
internal_count=23416582 22911685 504897 15577025 15475118 409004
cat_boundaries=0 5 7 12
cat_threshold=594501889 671354944 4104 8193 8192 4 134217728 1212704978 539007285 0 1 134217728
shrinkage=0.1


Tree=35
num_leaves=7
num_cat=4
split_feature=10 2 6 0 0 0
split_gain=138120 129798 57005.6 53784.5 51932.4 45062.1
threshold=3.5000000000000004 0 19.500000000000004 1 2 3
decision_type=2 5 2 5 5 5
left_child=1 3 -3 -1 -5 -4
right_child=-2 2 5 4 -6 -7
leaf_value=-0.066853914321585134 -0.039173984626164497 0.047281419790043085 -0.006206751804787889 -0.0015150050966108407 0.053047602541963085 -0.06249148474953381
leaf_count=865298 11124057 112053 2662177 2013176 2308691 4331130
internal_value=0 0.109425 -0.230827 0.340476 0.394683 -0.35216
internal_count=23416582 12292525 7105360 5187165 4321867 6993307
cat_boundaries=0 5 12 28 35
cat_threshold=560537745 671352912 4104 1 134217728 2464153682 23236674 541201432 538976640 8388608 1 65536 202569760 1946159152 1074528256 8 262144 0 1024 0 0 0 0 0 0 0 0 2 152961801 67444872 1573122 570429441 64 0 8388608
shrinkage=0.1


Tree=36
num_leaves=7
num_cat=3
split_feature=10 0 0 1 6 8
split_gain=118333 72139.1 38985.5 36680.9 34606.1 27690.6
threshold=2.5000000000000004 0 1 2 19.500000000000004 57.500000000000007
decision_type=2 5 5 5 2 2
left_child=1 3 -2 -1 -3 -6
right_child=2 4 -4 -5 5 -7
leaf_value=-0.12612598294539717 -0.010164675314342723 0.047084999811692778 -0.049208684600248048 0.042641381662606531 -0.021816920299032122 0.042441462492648852
leaf_count=134783 2834552 120763 10745646 2146268 6969025 465545
internal_value=0 0.137283 -0.30902 0.390873 -0.0645515 -0.146912
internal_count=23416582 9836384 13580198 2281051 7555333 7434570
cat_boundaries=0 4 8 129
cat_threshold=17303305 67461260 1048838 570431489 672796417 1619355836 1573125 33558657 36 134217728 0 0 0 0 0 0 0 0 0 0 0 0 0 0 0 0 0 0 0 0 0 0 0 0 0 0 0 0 0 0 0 0 0 0 0 0 0 0 0 0 0 0 0 0 0 0 0 0 0 0 0 0 0 0 0 0 0 0 0 0 0 0 0 0 0 0 0 0 0 0 0 0 0 0 0 0 0 0 0 0 0 0 0 0 0 0 0 0 0 0 0 0 0 0 0 0 0 0 0 0 0 0 0 0 0 0 0 0 0 0 0 0 0 0 0 0 0 0 67108864
shrinkage=0.1


Tree=37
num_leaves=7
num_cat=4
split_feature=6 0 0 1 3 10
split_gain=96821.7 84600.4 50292.9 40969.3 35684.6 33396.3
threshold=78.500000000000014 0 1 2 3 1.5000000000000002
decision_type=2 5 5 5 5 2
left_child=2 3 -1 -2 -3 -5
right_child=1 4 -4 5 -6 -7
leaf_value=0.070693939538982245 -0.098746688931920512 0.15407014220470233 0.00090403725401060953 0.028239626759518424 -0.04156399252916132 -0.007272211506522676
leaf_count=246690 408473 3747 751103 1534589 15692749 4779231
internal_value=0 -0.145889 0.385089 0.0271425 -0.392997 0.0618397
internal_count=23416582 22418789 997793 6722293 15696496 6313820
cat_boundaries=0 4 20 141 148
cat_threshold=555486977 1403021 1048835 33560577 671747113 8726716 5768452 570445953 0 0 0 0 0 0 0 0 0 0 0 2 4 134217728 0 0 0 0 0 0 0 0 0 0 0 0 0 0 0 0 0 0 0 0 0 0 0 0 0 0 0 0 0 0 0 0 0 0 0 0 0 0 0 0 0 0 0 0 0 0 0 0 0 0 0 0 0 0 0 0 0 0 0 0 0 0 0 0 0 0 0 0 0 0 0 0 0 0 0 0 0 0 0 0 0 0 0 0 0 0 0 0 0 0 0 0 0 0 0 0 0 0 0 0 0 0 0 0 0 0 0 0 0 0 0 0 0 0 0 0 0 0 67108864 0 0 0 0 0 0 2097152
shrinkage=0.1


Tree=38
num_leaves=7
num_cat=5
split_feature=2 0 6 0 0 0
split_gain=97696.4 81066.6 54847.8 42774.9 33488.5 32567.3
threshold=0 1 137.50000000000003 2 3 4
decision_type=5 5 2 5 5 5
left_child=1 -1 4 -4 -3 -2
right_child=5 2 3 -5 -6 -7
leaf_value=-0.065130746119940561 0.075937046885203807 0.0097753732959444464 -0.025865922914313916 0.012636752937898815 0.068100235452132396 -0.055798978147311641
leaf_count=3439456 10746 840614 7714260 5344810 373139 5693557
internal_value=0 0.0488518 0.108073 0.0144895 0.433203 -0.493116
internal_count=23416582 17712279 14272823 13059070 1213753 5704303
cat_boundaries=0 5 21 26 33 37
cat_threshold=1635741073 671357041 4104 1 134225920 316674128 553816130 1614943256 538976640 8388608 1 65536 0 0 0 0 0 0 0 0 2 2348998702 14706736 2148270080 4104 262144 2232871686 1410351153 3 2048 0 0 1024 524289 338076 1048832 33558529
shrinkage=0.1


Tree=39
num_leaves=7
num_cat=5
split_feature=2 9 0 2 0 0
split_gain=92000.4 50188.6 40946.1 30253.9 39134.3 30038.8
threshold=0 5.5000000000000009 1 2 3 4
decision_type=5 2 5 5 5 5
left_child=1 5 -2 4 -4 -1
right_child=2 -3 3 -5 -6 -7
leaf_value=-0.078843898893156239 0.075126199295905055 -0.0075494892718929703 -0.077941388577339954 -0.071985117982673291 -0.013321789901046622 0.033136513997737344
leaf_count=509205 15986 8840234 2611258 2800561 5885970 2753368
internal_value=0 0.111227 -0.302142 -0.3479 -0.247976 0.294024
internal_count=23416582 12102807 11313775 11297789 8497228 3262573
cat_boundaries=0 5 9 11 27 34
cat_threshold=1634214033 537139280 4104 8193 134225920 524289 336012 1048832 33558529 169332040 33569 2480959570 1896906785 1615070216 2176 0 1 65536 0 0 0 0 0 0 0 0 2 2459959376 623022146 1614943256 538976640 8388608 1 65536
shrinkage=0.1


Tree=40
num_leaves=7
num_cat=5
split_feature=10 2 2 0 0 0
split_gain=79496.7 51519.5 44877.1 32298.8 39429.1 29158.2
threshold=1.5000000000000002 0 1 2 3 4
decision_type=2 5 5 5 5 5
left_child=1 3 5 -1 -5 -2
right_child=2 -3 -4 4 -6 -7
leaf_value=-0.068562035200733618 -0.039765582982844987 -0.028588897841864438 -0.045752536681961477 0.0025334655409863273 0.051909931450523521 0.002695616548405699
leaf_count=554024 4603639 2098237 7616514 1703330 1717043 5123795
internal_value=0 0.183858 -0.195614 0.301954 0.346023 -0.0697493
internal_count=23416582 6072634 17343948 3974397 3420373 9727434
cat_boundaries=0 5 9 16 32 39
cat_threshold=1802463633 537168241 4104 1 134225920 560472209 537135168 8 1 312606800 620925026 1614942232 538976640 8388608 1 65536 2890971170 1356859409 17564673 8 0 0 1024 0 0 0 0 0 0 0 0 2 333508726 286441472 1611137032 2107648 8388608 1 65536
shrinkage=0.1


Tree=41
num_leaves=7
num_cat=5
split_feature=11 0 1 0 2 0
split_gain=68198 71147.6 43894.6 35663.2 31357.6 29481.8
threshold=3401.0000000000005 0 1 2 3 4
decision_type=2 5 5 5 5 5
left_child=3 2 -2 -1 -4 -5
right_child=1 -3 4 5 -6 -7
leaf_value=-0.12765857096044469 -0.091652254600454106 -0.04155833406954814 0.010104390491122231 -0.029359952043214229 -0.030862433201507656 0.088846612856388202
leaf_count=80368 642163 11557091 8433253 50687 2570356 82664
internal_value=0 -0.091493 0.0131916 0.578047 0.0429771 0.695218
internal_count=23416582 23202863 11645772 213719 11003609 133351
cat_boundaries=0 3 124 132 160 176
cat_threshold=689704872 67108881 1 36 134217728 0 0 0 0 0 0 0 0 0 0 0 0 0 0 0 0 0 0 0 0 0 0 0 0 0 0 0 0 0 0 0 0 0 0 0 0 0 0 0 0 0 0 0 0 0 0 0 0 0 0 0 0 0 0 0 0 0 0 0 0 0 0 0 0 0 0 0 0 0 0 0 0 0 0 0 0 0 0 0 0 0 0 0 0 0 0 0 0 0 0 0 0 0 0 0 0 0 0 0 0 0 0 0 0 0 0 0 0 0 0 0 0 0 0 0 0 0 0 67108864 1073741840 90313794 3774879768 2105600 10747968 8389633 8454144 256 1803445649 537172049 4096 8193 134225920 0 0 0 0 0 0 0 0 0 0 0 0 0 0 0 0 0 0 0 0 0 0 4 2147483648 1879099440 5112832 536871048 0 0 1024 0 1024 0 0 0 0 0 0 2
shrinkage=0.1


Tree=42
num_leaves=7
num_cat=3
split_feature=10 2 6 0 4 8
split_gain=82479.1 71882.3 34087.8 30427 26490.9 22899.3
threshold=4.5000000000000009 0 19.500000000000004 1 2 1.5000000000000002
decision_type=2 5 2 5 1 2
left_child=1 3 5 -1 -5 -3
right_child=-2 2 -4 4 -6 -7
leaf_value=-0.053824222790559352 -0.034214740170683842 0.086977125116721038 -0.030060451683510458 0.043880229173634371 0.011644292607014647 -0.018539680776838482
leaf_count=811858 9439321 19303 7040854 2976202 3040732 88312
internal_value=0 0.0896524 -0.198693 0.242333 0.278846 0.393067
internal_count=23416582 13977261 7148469 6828792 6016934 107615
cat_boundaries=0 5 12 13
cat_threshold=560619665 537135184 4104 8193 8192 2464153712 19042370 1615204376 538976640 8388608 1 65536 496
shrinkage=0.1


Tree=43
num_leaves=7
num_cat=3
split_feature=10 3 2 7 3 7
split_gain=64940.4 70665.3 64439.7 31898.2 21722.4 21095.3
threshold=5.5000000000000009 0 1 357.50000000000006 2 6.5000000000000009
decision_type=2 5 5 2 5 2
left_child=1 -1 3 -3 -2 -4
right_child=4 2 5 -5 -6 -7
leaf_value=0.038384353677190786 -0.0020599632433024001 -0.0023346783408372445 0.024591706849417486 0.052966070826597302 -0.047846280293071565 -0.065795183663142853
leaf_count=1713479 1755830 8450531 53194 1103600 6458144 3881804
internal_value=0 0.0594104 -0.0682986 0.0427041 -0.347848 -0.542656
internal_count=23416582 15202608 13489129 9554131 8213974 3934998
cat_boundaries=0 15 20 36
cat_threshold=1075838976 0 0 2147614752 131072 0 2097152 786432 1024 0 0 0 262144 536870946 18 595551681 671356996 8 8193 8192 655360 0 0 2214627328 33554433 8192 136839168 1024 0 2684354560 8405088 33554432 262144 8929280 1073774595 642
shrinkage=0.1


Tree=44
num_leaves=7
num_cat=5
split_feature=1 11 0 3 0 2
split_gain=58767.3 61976.3 54863.6 37452.1 29152.6 25833.8
threshold=0 3401.0000000000005 1 2 3 4
decision_type=5 2 5 5 5 5
left_child=-1 4 3 -3 -2 -4
right_child=1 2 5 -5 -6 -7
leaf_value=-0.090614195874100079 -0.06954581585645693 -0.01314761680279602 -0.0046171581779688052 0.018309409905344336 0.078779374198060179 -0.054670771834753135
leaf_count=1305321 57261 6080576 3459203 5336925 93975 7083321
internal_value=0 0.000939826 -0.045231 0.0439128 0.635268 -0.357236
internal_count=23416582 22111261 21960025 11417501 151236 10542524
cat_boundaries=0 121 123 139 146 150
cat_threshold=36 134217728 0 0 0 0 0 0 0 0 0 0 0 0 0 0 0 0 0 0 0 0 0 0 0 0 0 0 0 0 0 0 0 0 0 0 0 0 0 0 0 0 0 0 0 0 0 0 0 0 0 0 0 0 0 0 0 0 0 0 0 0 0 0 0 0 0 0 0 0 0 0 0 0 0 0 0 0 0 0 0 0 0 0 0 0 0 0 0 0 0 0 0 0 0 0 0 0 0 0 0 0 0 0 0 0 0 0 0 0 0 0 0 0 0 0 0 0 0 0 67108864 756944808 67108865 2097152 0 0 117966848 513 4456448 8192 0 16777220 536870912 142622756 50855936 0 603980066 537133056 1153 16 895619170 3779204120 2105736 8650752 1 65536 6897664 536873216 0 134283265
shrinkage=0.1


Tree=45
num_leaves=7
num_cat=2
split_feature=6 0 11 10 6 4
split_gain=49815.1 37139.1 30687.3 28447.9 26845.5 22690.2
threshold=19.500000000000004 0 38752.500000000007 1.5000000000000002 1615.5000000000002 1
decision_type=2 5 2 2 2 1
left_child=2 3 -1 5 -5 -2
right_child=1 -3 -4 4 -6 -7
leaf_value=0.076112318315686323 -0.012412128199603863 -0.028245365405981711 -0.0011551598279590895 -0.021982675854771053 0.015452582068472893 0.034861313177801535
leaf_count=66669 819106 12056851 182143 5584015 3067089 1640709
internal_value=0 -0.0778923 0.434018 0.0148914 -0.0944242 0.208207
internal_count=23416582 23167770 248812 11110919 8651104 2459815
cat_boundaries=0 7 8
cat_threshold=219942665 67444877 1048835 33558529 0 0 1024 30720
shrinkage=0.1


Tree=46
num_leaves=7
num_cat=4
split_feature=1 0 11 6 0 0
split_gain=52330.3 50373.3 52081.4 31414.5 25322 6033.74
threshold=0 1 3401.0000000000005 95.500000000000014 2 3
decision_type=5 5 2 2 5 5
left_child=-1 5 4 -4 -3 -2
right_child=1 2 3 -5 -6 -7
leaf_value=-0.088018989409160212 -0.046346476994690605 -0.026454934713398139 0.029253221707403201 -0.0055811454322781456 0.087659988276297229 -0.097241407579847006
leaf_count=1305932 3430067 42618 942581 16827003 64929 803452
internal_value=0 0.00599988 0.0481453 0.00448442 0.663976 -0.568905
internal_count=23416582 22110650 17877131 17769584 107547 4233519
cat_boundaries=0 121 128 144 149
cat_threshold=36 134217728 0 0 0 0 0 0 0 0 0 0 0 0 0 0 0 0 0 0 0 0 0 0 0 0 0 0 0 0 0 0 0 0 0 0 0 0 0 0 0 0 0 0 0 0 0 0 0 0 0 0 0 0 0 0 0 0 0 0 0 0 0 0 0 0 0 0 0 0 0 0 0 0 0 0 0 0 0 0 0 0 0 0 0 0 0 0 0 0 0 0 0 0 0 0 0 0 0 0 0 0 0 0 0 0 0 0 0 0 0 0 0 0 0 0 0 0 0 0 67108864 2464157776 16961602 1614943256 2105600 8650752 1 65536 0 1953499168 2165047297 536873096 0 0 0 0 0 0 0 0 0 0 0 2 308285440 16448 4330512 0 262144
shrinkage=0.1


Tree=47
num_leaves=7
num_cat=5
split_feature=3 10 0 3 3 1
split_gain=46968.7 48651.9 28253.7 20677.3 19940.2 14846.9
threshold=0 1.5000000000000002 1 2 3 4
decision_type=5 2 5 5 5 5
left_child=-1 2 -2 -4 -3 -6
right_child=1 4 3 -5 5 -7
leaf_value=-0.042804906551894804 0.06871525288872217 -0.034431454417813187 -0.010093481861355861 0.027778117223257032 -0.075465786399407653 -0.0001419362818366903
leaf_count=5527241 164346 4952899 1807839 2522265 490028 7951964
internal_value=0 0.03562 0.23111 0.149445 -0.0969162 -0.0248917
internal_count=23416582 17889341 4494450 4330104 13394891 8441992
cat_boundaries=0 16 20 36 52 173
cat_threshold=16785408 0 0 542638080 37748865 262144 1056768 2105344 0 536870912 1048836 34083328 306184192 1073742080 2048 132112 16778529 286860 1048832 33558529 2621440 0 0 369263104 4608 4194304 524288 262144 524 2147483648 142606432 18874368 196608 540674 539492352 128 655368 0 0 285213184 0 0 0 529408 20973064 134217728 671088640 16777216 131076 67633184 536903680 3 36 134217728 0 0 0 0 0 0 0 0 0 0 0 0 0 0 0 0 0 0 0 0 0 0 0 0 0 0 0 0 0 0 0 0 0 0 0 0 0 0 0 0 0 0 0 0 0 0 0 0 0 0 0 0 0 0 0 0 0 0 0 0 0 0 0 0 0 0 0 0 0 0 0 0 0 0 0 0 0 0 0 0 0 0 0 0 0 0 0 0 0 0 0 0 0 0 0 0 0 0 0 0 0 0 0 0 0 0 0 0 0 0 0 0 0 0 0 0 0 0 67108864
shrinkage=0.1


Tree=48
num_leaves=7
num_cat=4
split_feature=10 4 6 0 0 1
split_gain=42188.4 37999.9 27774.4 23086.6 21887.4 20558
threshold=4.5000000000000009 0 1412.5000000000002 1 2 3
decision_type=2 1 2 5 5 5
left_child=1 3 -2 -1 -4 -3
right_child=2 5 4 -5 -6 -7
leaf_value=0.038838134268793727 -0.05039706404774448 -0.083307372381757366 0.11697145512474148 -0.025112947492552624 -0.011436112591862039 0.018823717197383138
leaf_count=63972 4313314 323656 81000 4756646 5045403 8832591
internal_value=0 0.0614178 -0.259476 -0.16716 -0.0555585 0.168765
internal_count=23416582 13976865 9439717 4820618 5126403 9156247
cat_boundaries=0 1 5 8 129
cat_threshold=30720 524289 67395724 1573121 570429441 135399424 1 524288 36 134217728 0 0 0 0 0 0 0 0 0 0 0 0 0 0 0 0 0 0 0 0 0 0 0 0 0 0 0 0 0 0 0 0 0 0 0 0 0 0 0 0 0 0 0 0 0 0 0 0 0 0 0 0 0 0 0 0 0 0 0 0 0 0 0 0 0 0 0 0 0 0 0 0 0 0 0 0 0 0 0 0 0 0 0 0 0 0 0 0 0 0 0 0 0 0 0 0 0 0 0 0 0 0 0 0 0 0 0 0 0 0 0 0 0 0 0 0 0 0 67108864
shrinkage=0.1


Tree=49
num_leaves=7
num_cat=4
split_feature=2 10 3 0 3 6
split_gain=49126.5 35289.8 32332.6 23587 21437.1 22081.6
threshold=0 3.5000000000000004 1 2 3 1615.5000000000002
decision_type=5 2 5 5 5 2
left_child=1 2 -1 -4 -3 -6
right_child=-2 4 3 -5 5 -7
leaf_value=-0.025677426882235139 -0.040034692035006737 -0.063733582191843802 -0.017300428057748327 0.027060550530069262 -0.027270928571676067 0.01370255689618146
leaf_count=1842218 5193876 2362563 1973155 5041065 3780702 3223003
internal_value=0 0.0457395 0.144598 0.21132 -0.151085 -0.0783768
internal_count=23416582 18222706 8856438 7014220 9366268 7003705
cat_boundaries=0 5 21 37 53
cat_threshold=1669295505 537139313 4104 8193 134217728 16785408 0 0 541589504 37749377 4194304 1056768 0 0 536870912 135266660 34082816 4259840 1073742080 2048 132240 2262839506 1879181360 1078723584 538970496 0 1 65536 0 0 0 0 0 0 0 0 2 2105352 0 0 810713600 0 262144 1056768 532480 16777216 0 536871172 19403264 268435456 1073741856 34818 1040
shrinkage=0.1


Tree=50
num_leaves=7
num_cat=4
split_feature=3 0 0 10 6 0
split_gain=36933.8 44305.7 40312.8 28432.4 26003.3 25065.2
threshold=0 1 2 1.5000000000000002 234.50000000000003 3
decision_type=5 5 5 2 2 5
left_child=4 -2 -3 -4 -1 -6
right_child=1 2 3 -5 5 -7
leaf_value=0.072476040834132768 -0.12102213227114698 -0.029856854631561309 0.022456509926070727 -0.0066594060113537223 -0.3564459261368178 0.0064385821018427564
leaf_count=102345 582747 10536427 2636661 9145788 9242 403372
internal_value=0 -0.0570816 -0.0367981 0.04593 0.405161 -0.022611
internal_count=23416582 22901623 22318876 11782449 514959 412614
cat_boundaries=0 15 23 32 34
cat_threshold=0 0 0 131072 0 0 2097152 786432 0 0 0 0 262144 16384 1 1082130480 23237698 2705332248 2109696 8650752 8388609 8454144 256 2455958598 1888485424 1074659328 2184 2097216 1024 0 0 1024 1056 8192
shrinkage=0.1


Tree=51
num_leaves=7
num_cat=5
split_feature=2 3 10 3 4 3
split_gain=44365.5 35568.6 34869.3 23902.3 20785.9 20701.3
threshold=0 1 7.5000000000000009 2 3 4
decision_type=5 5 2 5 1 5
left_child=2 -2 5 -3 -5 -1
right_child=1 3 -4 4 -6 -7
leaf_value=-0.017377362563863376 0.054749092536437352 -0.07192890658930573 -0.021722950766767574 0.00079209805831062909 -0.037852873872199232 0.023342407774807686
leaf_count=1425769 255748 2876783 4431487 3603071 4465750 6357974
internal_value=0 -0.210651 0.0968568 -0.276022 -0.194399 0.178789
internal_count=23416582 11201352 12215230 10945604 8068821 7783743
cat_boundaries=0 5 20 36 37 53
cat_threshold=560537745 537135168 4104 1 8192 1073741824 0 0 131072 0 0 2097152 524288 1024 0 0 0 262144 0 1 8192 0 0 806879744 33554432 262144 1048576 2109440 516 536870912 135266628 33559040 4325376 1073758208 536903680 132098 496 16908288 0 0 608174080 33554561 4194304 1056768 0 0 536870912 135266660 2626048 4325380 1073742080 1073741825 132112
shrinkage=0.1


Tree=52
num_leaves=7
num_cat=6
split_feature=2 3 3 0 4 0
split_gain=36850.9 27671.7 23416.3 22512.1 22013.4 24264.3
threshold=0 1 2 3 4 5
decision_type=5 5 5 5 1 5
left_child=2 -2 -1 -3 -4 -6
right_child=1 3 4 -5 5 -7
leaf_value=-0.021796108863896185 0.047660141890847725 0.051922013044533248 0.022175330537330298 -0.055044541609710056 -0.042549949593225729 0.0053990306820639669
leaf_count=4967517 234620 78488 6024818 4914153 2503032 4693954
internal_value=0 -0.343987 0.0404285 -0.460097 0.0917911 -0.0232927
internal_count=23416582 5227261 18189321 4992641 13221804 7196986
cat_boundaries=0 5 21 37 41 42 49
cat_threshold=1669326033 671389780 8 8193 134217728 1073741824 0 0 131072 0 4194304 2097152 0 4195328 0 0 0 262144 32 1073741824 528 17309704 0 0 542113792 33555073 262144 1056768 0 20971524 134217728 135266628 34082816 4194304 1073741824 2048 132112 135921665 75932 1574144 570429440 496 2543906960 1879181361 4457472 2115968 0 1 66560
shrinkage=0.1


Tree=53
num_leaves=7
num_cat=3
split_feature=2 10 6 0 2 6
split_gain=35105.2 24590.2 20147.2 26787.1 25290.9 22588.1
threshold=0 1.5000000000000002 60.500000000000007 1 2 759.50000000000011
decision_type=5 2 2 5 5 2
left_child=1 -1 3 -2 5 -4
right_child=2 -3 4 -5 -6 -7
leaf_value=0.025597906322451087 0.06693964325005082 -0.0024533301056090997 -0.03802111481670889 -0.029131133653511023 -0.063592949232506621 0.0076827770424012622
leaf_count=2276452 79380 10075465 3538488 283645 3327097 3836055
internal_value=0 0.0777231 -0.199021 0.181111 -0.275365 -0.154032
internal_count=23416582 12351917 11064665 363025 10701640 7374543
cat_boundaries=0 5 9 14
cat_threshold=561520785 537139264 8 1 8192 671747113 75964 787716 570429568 34064202 134283776 4096 8192 8388608
shrinkage=0.1


Tree=54
num_leaves=7
num_cat=1
split_feature=11 2 10 6 6 8
split_gain=31855.5 33987.2 19942 29182.3 17973.7 17507.5
threshold=3401.0000000000005 0 5.5000000000000009 1550.5000000000002 963.50000000000011 1.5000000000000002
decision_type=2 5 2 2 2 2
left_child=-1 2 3 -2 -4 -3
right_child=1 5 4 -5 -6 -7
leaf_value=0.047348444312411732 0.0005785190759119448 0.022232322607177044 -0.048893200803815456 0.042222376826148093 -0.0037619642808215999 -0.048108979974104064
leaf_count=214210 8714912 278614 2318903 1843108 4533464 5513371
internal_value=0 -0.0438499 0.0105106 0.0740799 -0.181512 -0.372196
internal_count=23416582 23202372 17410387 10558020 6852367 5791985
cat_boundaries=0 28
cat_threshold=595553681 671357012 4096 8193 134225920 0 0 0 0 0 0 0 0 0 0 0 0 0 0 0 0 0 0 0 0 0 0 4
shrinkage=0.1


Tree=55
num_leaves=7
num_cat=2
split_feature=2 10 4 6 6 6
split_gain=27662.2 25363.2 21838.2 16587.6 16092.8 12354.1
threshold=0 5.5000000000000009 1 2643.5000000000005 76072.500000000015 95.500000000000014
decision_type=5 2 1 2 2 2
left_child=1 2 -1 -4 -3 -2
right_child=5 4 3 -5 -6 -7
leaf_value=0.022121147007588288 0.0087907227771284822 -0.023388331240270149 -0.0077323608485058305 0.046006556714296105 0.055978332471938543 -0.050240771130206842
leaf_count=5851659 228102 7012188 5628733 568966 318342 3808592
internal_value=0 0.0344284 0.0987219 -0.0281181 -0.181937 -0.361624
internal_count=23416582 19379888 12049358 6197699 7330530 4036694
cat_boundaries=0 5 6
cat_threshold=1669328337 537167988 8 1 8192 496
shrinkage=0.1


Tree=56
num_leaves=7
num_cat=5
split_feature=1 11 2 0 0 3
split_gain=35080.8 27910.3 25313.6 23983.4 22258.3 16592.6
threshold=0 3401.0000000000005 1 2 3 4
decision_type=5 2 5 5 5 5
left_child=-1 3 5 -2 -4 -3
right_child=1 2 4 -5 -6 -7
leaf_value=-0.077051296152554863 -0.049863399110789415 -0.020377520057535143 -0.062821505704045405 0.071094519560463171 -0.0090536246571881161 0.01289292542764298
leaf_count=1306013 67290 2830399 3244253 84319 7413006 8471302
internal_value=0 0.0247701 -0.00505089 0.502735 -0.165759 0.0804071
internal_count=23416582 22110569 21958960 151609 10657259 11301701
cat_boundaries=0 121 149 165 170 186
cat_threshold=36 134217728 0 0 0 0 0 0 0 0 0 0 0 0 0 0 0 0 0 0 0 0 0 0 0 0 0 0 0 0 0 0 0 0 0 0 0 0 0 0 0 0 0 0 0 0 0 0 0 0 0 0 0 0 0 0 0 0 0 0 0 0 0 0 0 0 0 0 0 0 0 0 0 0 0 0 0 0 0 0 0 0 0 0 0 0 0 0 0 0 0 0 0 0 0 0 0 0 0 0 0 0 0 0 0 0 0 0 0 0 0 0 0 0 0 0 0 0 0 0 67108864 560472193 537135120 0 8193 8192 0 0 0 0 0 0 0 0 0 0 0 0 0 0 0 0 0 0 0 0 0 0 4 2147483664 1698861154 1615467544 538976520 8388608 1 65536 0 0 0 0 0 0 0 0 2 316829778 16809985 536870913 0 8388608 16785416 0 0 541065216 129 4456448 1056768 524288 16778240 134217728 135266564 528896 272629764 1140850976 2048 1040
shrinkage=0.1


Tree=57
num_leaves=7
num_cat=4
split_feature=2 3 0 3 6 6
split_gain=25687.7 22901.9 34223.6 18850.3 16200.4 16115
threshold=0 1 2 3 186.50000000000003 1615.5000000000002
decision_type=5 5 5 5 2 2
left_child=3 4 5 -1 -2 -3
right_child=1 2 -4 -5 -6 -7
leaf_value=-0.021111159391771266 0.060807046841218286 -0.011189896453268592 -0.041405719923307632 0.020275396368470547 -0.0023898984213676371 0.024057765308882331
leaf_count=1531928 173446 4977586 8115613 5239972 1155821 2222216
internal_value=0 -0.0946431 -0.150431 0.136011 0.251009 -0.0234809
internal_count=23416582 16644682 15315415 6771900 1329267 7199802
cat_boundaries=0 4 19 26 42
cat_threshold=560464001 536872964 8 8193 1073872896 0 0 163872 4 0 2097152 524288 1024 0 0 512 262144 2 1073774593 136055560 67201048 524289 570441728 0 0 1024 1074266120 0 0 541097984 128 262144 1056768 1024 16777216 536870912 135266564 2626048 272695296 1073742112 1073741824 1169
shrinkage=0.1


Tree=58
num_leaves=7
num_cat=5
split_feature=1 11 0 2 3 0
split_gain=27759.9 22445.6 18069.1 17751.3 22923.6 17610.6
threshold=0 3401.0000000000005 1 2 3 4
decision_type=5 2 5 5 5 5
left_child=-1 2 -2 5 -5 -3
right_child=1 3 -4 4 -6 -7
leaf_value=-0.071353924901716589 -0.059036551860518482 -0.062697675289387911 0.060925992953683644 0.044143147534048938 -0.028488667426657774 0.005639237978964119
leaf_count=1306234 60849 918091 90427 288705 7229812 13522464
internal_value=0 0.0108601 0.45075 -0.0154544 -0.197999 0.0376952
internal_count=23416582 22110348 151276 21959072 7518517 14440555
cat_boundaries=0 121 137 165 180 185
cat_threshold=36 134217728 0 0 0 0 0 0 0 0 0 0 0 0 0 0 0 0 0 0 0 0 0 0 0 0 0 0 0 0 0 0 0 0 0 0 0 0 0 0 0 0 0 0 0 0 0 0 0 0 0 0 0 0 0 0 0 0 0 0 0 0 0 0 0 0 0 0 0 0 0 0 0 0 0 0 0 0 0 0 0 0 0 0 0 0 0 0 0 0 0 0 0 0 0 0 0 0 0 0 0 0 0 0 0 0 0 0 0 0 0 0 0 0 0 0 0 0 0 0 67108864 16 1161973826 1615729688 538976520 8650752 1 66560 0 0 0 0 0 0 0 0 2 594174417 536873024 0 8193 8192 0 0 0 0 0 0 0 0 0 0 0 0 0 0 0 0 0 0 0 0 0 0 4 1090519040 0 0 131072 0 4194304 2097152 0 4195328 0 64 0 327680 34 1073741827 44040304 25198592 536870912 0 8388608
shrinkage=0.1


Tree=59
num_leaves=7
num_cat=4
split_feature=6 2 0 3 7 3
split_gain=20966.7 39926.3 38960.7 37298.2 36704.2 23263.1
threshold=95.500000000000014 0 1 2 186.50000000000003 3
decision_type=2 5 5 5 2 5
left_child=3 2 -2 -1 -4 -5
right_child=1 -3 4 5 -6 -7
leaf_value=-0.046683215150503311 -0.097531878423886373 -0.057791235922427291 -0.012142902048811204 -0.017928038828100692 0.019893024430155514 0.052400598697134829
leaf_count=359886 898713 3481670 9434354 351312 8348773 541874
internal_value=0 -0.0573242 -0.0104001 0.21417 0.01653 0.37319
internal_count=23416582 22163510 18681840 1253072 17783127 893186
cat_boundaries=0 5 21 37 53
cat_threshold=595584841 671355464 8 8192 8396800 2424438896 26388484 1615332360 538980736 8388608 1 65536 0 0 0 0 0 0 0 0 2 655360 0 0 603982336 135168 0 1048576 2102272 4194308 671088640 545276256 52428800 33619972 1073741824 536870912 17 2105344 0 0 54525952 33555076 0 143138816 1056768 8 2147483648 0 134742016 0 67633154 1076398097 131202
shrinkage=0.1


Tree=60
num_leaves=7
num_cat=4
split_feature=1 10 3 6 3 3
split_gain=23449.5 21121.4 20997.7 18316.6 21597.9 16451.5
threshold=0 1.5000000000000002 1 76072.500000000015 2 3
decision_type=5 2 5 2 5 5
left_child=-1 2 -2 -3 -5 -4
right_child=1 3 5 4 -6 -7
leaf_value=-0.067007797899717739 -0.020354944729209304 -0.0098914707381983491 0.0032840177163726207 0.20687089972615502 0.018563871253283869 0.035670963296536504
leaf_count=1305724 1514653 15970708 2220466 99051 257094 2048886
internal_value=0 0.010038 0.136128 -0.0772802 0.669667 0.214878
internal_count=23416582 22110858 5784005 16326853 356145 4269352
cat_boundaries=0 121 137 153 169
cat_threshold=36 150994944 0 0 0 0 0 0 0 0 0 0 0 0 0 0 0 0 0 0 0 0 0 0 0 0 0 0 0 0 0 0 0 0 0 0 0 0 0 0 0 0 0 0 0 0 0 0 0 0 0 0 0 0 0 0 0 0 0 0 0 0 0 0 0 0 0 0 0 0 0 0 0 0 0 0 0 0 0 0 0 0 0 0 0 0 0 0 0 0 0 0 0 0 0 0 0 0 0 0 0 0 0 0 0 0 0 0 0 0 0 0 0 0 0 0 0 0 0 0 67108864 8192 0 0 872448000 33555073 4202496 0 0 0 2684354560 1048932 34083328 4325376 1073741826 1073743872 132240 0 0 0 34078752 33554433 8192 134217728 0 8 2818572288 1048672 33554432 0 0 1612709889 128 19398664 0 0 51382784 64 0 134742016 1318912 516 0 679493632 153092096 0 8929280 539000848 2
shrinkage=0.1


Tree=61
num_leaves=7
num_cat=4
split_feature=3 6 7 3 3 3
split_gain=19401.2 19269.5 19861.5 23674.3 20049.5 18311.7
threshold=0 19.500000000000004 207.50000000000003 1 2 3
decision_type=5 2 2 5 5 5
left_child=-1 5 4 -4 -3 -2
right_child=1 2 3 -5 -6 -7
leaf_value=-0.022692874937791926 -0.04871578513453035 -0.02424916036138693 0.038975535329011969 -0.002631193047306149 0.0050535778371853758 0.053593274821928216
leaf_count=7596314 54108 3840804 2594632 4005370 5201857 123497
internal_value=0 0.0415475 0.00799349 0.158326 -0.0801396 0.391084
internal_count=23416582 15820268 15642663 6600002 9042661 177605
cat_boundaries=0 16 32 48 64
cat_threshold=16785408 0 0 537395712 4194305 262144 1056768 2105344 16777224 536870912 1048836 34083328 37748740 1073742080 536872960 1041 2752512 0 0 2483062784 33690116 0 134742016 1048576 4 2147483648 536887392 18874368 196608 16386 1075838977 128 2621440 0 0 335544320 33690240 8192 142606336 4352 4194308 2147483648 142622816 16777216 131072 67633186 1074266112 130 524288 0 0 84969472 135296 0 142606336 1314816 516 2281701376 96 2097152 0 536870914 1076658193 130
shrinkage=0.1


Tree=62
num_leaves=7
num_cat=5
split_feature=1 7 4 3 3 3
split_gain=19340.4 17725.1 19447.2 20520.1 15841 11772.2
threshold=0 15696.000000000002 1 2 3 4
decision_type=5 2 1 5 5 5
left_child=-1 2 4 -4 -2 -3
right_child=1 5 3 -5 -6 -7
leaf_value=-0.061378347073056921 -0.015041473728985842 0.24216573861169857 -0.057815489408040627 -0.0062591401812465437 0.014643762109786615 0.053079398475033561
leaf_count=1306058 3402818 46670 1604392 7805587 8961194 289863
internal_value=0 0.0139468 0.00132391 -0.121281 0.0859794 0.750764
internal_count=23416582 22110524 21773991 9409979 12364012 336533
cat_boundaries=0 121 122 138 154 170
cat_threshold=36 151011328 0 0 0 0 256 0 0 0 0 0 0 0 0 0 0 0 0 0 0 0 0 0 0 0 0 0 0 0 0 0 0 0 0 0 0 0 0 0 0 0 0 0 0 0 0 0 0 0 0 0 0 0 0 0 0 0 0 0 0 0 0 0 0 0 0 0 0 0 0 0 0 0 0 0 0 0 0 0 0 0 0 0 0 0 0 0 0 0 0 0 0 0 0 0 0 0 0 0 0 0 0 0 0 0 0 0 0 0 0 0 0 0 0 0 0 0 0 0 67108864 1520 2105352 0 0 537919488 1 0 0 2097152 16777216 2818572288 1048900 36180480 272629764 536887328 537395200 132114 17432576 0 0 538445824 37748740 0 1056768 12288 4194304 0 135266564 168301056 33685504 1140850688 2048 132112 0 0 0 67109376 129 0 135266304 0 8 2281701376 1048608 0 33554432 0 1073741824 16
shrinkage=0.1


Tree=63
num_leaves=7
num_cat=3
split_feature=4 0 8 7 0 6
split_gain=18389.6 19769.5 14946.3 14819.7 14581.2 14365.8
threshold=0 1 2.5000000000000004 15696.000000000002 2 95.500000000000014
decision_type=1 5 2 2 5 2
left_child=5 -2 4 -4 -3 -1
right_child=1 2 3 -5 -6 -7
leaf_value=0.032411957927182905 0.0013432543598941957 -0.13615799444313714 -0.041232794076682094 0.073464792342132837 0.052677083368981359 0.0024877490772511734
leaf_count=682467 4248542 73982 5957312 193431 183616 12077232
internal_value=0 -0.119816 -0.298722 -0.36988 0.294702 0.0764866
internal_count=23416582 10656883 6408341 6150743 257598 12759699
cat_boundaries=0 1 6 13
cat_threshold=1008 671875593 67395724 1075319041 570429441 2097152 3307266064 1884426322 2168720402 2099456 262144 0 1024
shrinkage=0.1


Tree=64
num_leaves=7
num_cat=5
split_feature=10 4 3 3 3 0
split_gain=20597.2 19281.5 15509.5 15385.3 14065.7 12813.5
threshold=5.5000000000000009 0 1 2 3 4
decision_type=2 1 5 5 5 5
left_child=1 4 -2 -3 -1 -5
right_child=2 3 -4 5 -6 -7
leaf_value=0.028704799882513284 0.0056217258802414424 -0.013963067804712291 -0.034156314865672291 -0.016198238000930201 -0.025257654231230539 0.02015618141925065
leaf_count=397000 2011083 2192363 6204165 2452315 3545349 6614307
internal_value=0 0.0448169 -0.202854 0.106366 -0.162264 0.159997
internal_count=23416582 15201334 8215248 11258985 3942349 9066622
cat_boundaries=0 1 17 33 48 64
cat_threshold=26624 655360 0 0 2214594560 33554949 8192 134217728 1310720 512 2684354560 142622752 33554432 458752 1074282496 1073774593 130 16777216 0 0 893386752 33554433 0 9445376 0 0 2281701376 143671648 2101248 131072 1073741824 2051 132242 1074266112 0 0 131072 0 0 3145728 524288 0 0 536871168 134217728 0 75497474 2 2426433618 361955376 541851652 2115968 0 1 65536 0 0 0 0 0 0 0 0 2
shrinkage=0.1


Tree=65
num_leaves=7
num_cat=3
split_feature=2 2 11 6 1 11
split_gain=19970.8 12872.9 11704.1 10985.5 7280.87 6998.81
threshold=0 1 3401.0000000000005 1943.5000000000002 2 3401.0000000000005
decision_type=5 5 2 2 5 2
left_child=5 2 -2 -4 -3 -1
right_child=1 4 3 -5 -6 -7
leaf_value=0.050303043776651339 0.038472561836270493 0.072305336758028235 -0.014519162895315461 0.010304695757676802 -0.062185074224106657 0.0092530857429762685
leaf_count=54544 88483 4271 10956764 4122733 1504521 6685266
internal_value=0 -0.0910196 -0.0653236 -0.0894377 -0.52985 0.115113
internal_count=23416582 16676772 15167980 15079497 1508792 6739810
cat_boundaries=0 5 10 11
cat_threshold=560464001 536872960 8 8193 8192 1243086682 134517373 4096 0 134217728 1
shrinkage=0.1


Tree=66
num_leaves=7
num_cat=4
split_feature=10 4 0 0 2 6
split_gain=17814.1 17349 11348.4 10855.4 10820.1 9436.13
threshold=1.5000000000000002 0 1 2 3 19.500000000000004
decision_type=2 1 5 5 5 2
left_child=1 3 -3 -1 -2 -4
right_child=4 2 5 -5 -6 -7
leaf_value=0.025503854525416605 -0.0046501636619154059 0.036032047029132368 0.05363979834174281 -0.024464943649654451 -0.029935576138661331 0.00046359261515109128
leaf_count=237565 12227396 1735531 43225 1896962 5115667 2160236
internal_value=0 0.103307 0.200686 -0.123261 -0.092339 0.0714144
internal_count=23416582 6073519 3938992 2134527 17343063 2203461
cat_boundaries=0 1 5 9 13
cat_threshold=30720 16836365 278664 1049856 33558529 34341121 67133580 1075314946 570429441 1735303297 538187780 4194308 1
shrinkage=0.1


Tree=67
num_leaves=7
num_cat=4
split_feature=1 7 3 3 3 10
split_gain=15503.8 15739.9 30273.8 29632.9 18202.5 15541.5
threshold=0 238.50000000000003 1 2 3 7.5000000000000009
decision_type=5 2 5 5 5 2
left_child=-1 3 -3 -2 -4 -5
right_child=1 2 4 5 -6 -7
leaf_value=-0.057016358712803916 0.038041366832572553 0.044406619856239275 -0.061569928364225257 -0.0066342266976175028 0.0059559774894347431 -0.051386272827071068
leaf_count=1305751 717075 2143157 1544509 11490389 4415807 1799894
internal_value=0 0.0149728 0.153865 -0.0453372 -0.0295064 -0.098461
internal_count=23416582 22110831 8103473 14007358 5960316 13290283
cat_boundaries=0 121 137 153 169
cat_threshold=36 134217728 0 0 0 0 0 0 0 0 0 0 0 0 0 0 0 0 0 0 0 0 0 0 0 0 0 0 0 0 0 0 0 0 0 0 0 0 0 0 0 0 0 0 0 0 0 0 0 0 0 0 0 0 0 0 0 0 0 0 0 0 0 0 0 0 0 0 0 0 0 0 0 0 0 0 0 0 0 0 0 0 0 0 0 0 0 0 0 0 0 0 0 0 0 0 0 0 0 0 0 0 0 0 0 0 0 0 0 0 0 0 0 0 0 0 0 0 0 0 67108864 2621440 0 0 2483030528 4329472 8192 134217728 1311744 8 2147483648 16416 16777216 33882112 524290 1074268161 642 1073741824 0 0 4358144 0 4194304 2097152 786432 0 0 0 2621440 327684 16384 32786 131072 1090650120 0 0 542244864 0 4194304 1056768 524288 20972544 0 1048836 528384 4194304 1073741856 2 132112
shrinkage=0.1


Tree=68
num_leaves=7
num_cat=5
split_feature=0 0 6 3 3 3
split_gain=16321.5 15998.4 14394.4 21860.9 21815.5 13089.5
threshold=0 1 1615.5000000000002 2 3 4
decision_type=5 5 2 5 5 5
left_child=-1 5 3 -3 -4 -2
right_child=1 2 4 -5 -6 -7
leaf_value=-0.10927663418013425 0.0081400364223202498 -0.03339264369497446 0.059713377046343191 0.0043476715180559159 0.0075447168921367177 -0.040635622003980763
leaf_count=522311 2110422 2080252 1074148 9032839 4303193 4293417
internal_value=0 0.00930511 0.0440371 -0.0122322 0.19748 -0.232256
internal_count=23416582 22894271 16490432 11113091 5377341 6403839
cat_boundaries=0 8 24 40 56 72
cat_threshold=1082130448 23204930 3775010840 2105600 8650816 8389633 8454144 256 2522902624 1880197152 4981764 536873096 2097152 0 1024 0 1024 0 0 0 0 0 0 2 16916480 0 0 872940032 4194304 270336 1048576 12288 12 2818572288 545259556 2101248 0 524544 1073743873 1152 2228224 0 0 2483028480 33558656 270336 142606336 0 524 2147483648 32 52428800 33685504 1074282498 1073743889 128 0 0 0 131104 65 262144 137363456 262144 1024 0 536870976 0 37814272 67109120 1074298882 515
shrinkage=0.1


Tree=69
num_leaves=7
num_cat=3
split_feature=0 11 0 2 6 6
split_gain=14297.6 16961.1 18220 13851 10287.2 10268.2
threshold=0 3401.0000000000005 1 2 1085.5000000000002 95.500000000000014
decision_type=5 2 5 5 2 2
left_child=-1 2 -2 4 -3 -5
right_child=1 3 -4 5 -6 -7
leaf_value=-0.10897042960240999 -0.034262156505984472 -0.0037601485433812012 0.065283420645796578 0.014597826734488973 0.013403615644740999 -0.033658670672444525
leaf_count=493727 56603 10342987 85136 296436 6930218 5211475
internal_value=0 0.00757916 0.409489 -0.014532 0.0210084 -0.229961
internal_count=23416582 22922855 141739 22781116 17273205 5507911
cat_boundaries=0 16 25 53
cat_threshold=1082130448 23204930 2705332248 2105600 8650816 8389633 8454144 256 0 0 0 0 0 0 0 2 2147483648 1947306032 1074397186 536873096 2097152 0 0 0 1024 562028993 536873057 0 8193 8192 0 0 0 0 0 0 0 0 0 0 0 0 0 0 0 0 0 0 0 0 0 0 4
shrinkage=0.1


Tree=70
num_leaves=7
num_cat=4
split_feature=2 0 0 11 6 2
split_gain=14717.9 18749.9 16811.4 13021.7 13193.3 11424.4
threshold=0 1 2 3401.0000000000005 963.50000000000011 3
decision_type=5 5 5 2 2 5
left_child=2 -2 5 -4 -5 -1
right_child=1 -3 3 4 -6 -7
leaf_value=0.079844968187832155 0.038079150106149214 -0.039545375555917098 0.045326436583000639 -0.0037019692297998331 0.015168264688035891 -0.074156657098786605
leaf_count=18917 120608 4198494 89682 10031986 7709594 1247301
internal_value=0 -0.248617 0.0362719 0.0527916 0.0332374 -0.559201
internal_count=23416582 4319102 19097480 17831262 17741580 1266218
cat_boundaries=0 5 21 37 39
cat_threshold=595568593 537139796 4104 8193 8192 135922721 305308 1280 536875008 0 0 0 0 0 0 0 0 0 0 0 2 2426404976 84056134 537002008 538978688 8388608 1 65536 0 0 0 0 0 0 0 0 2 144 536872976
shrinkage=0.1


Tree=71
num_leaves=7
num_cat=4
split_feature=10 8 3 3 3 4
split_gain=20540.9 19613.1 23640.2 17008.8 15585.6 13075.1
threshold=11.500000000000002 132.50000000000003 0 1 2 3
decision_type=2 2 5 5 5 1
left_child=1 3 -3 -1 -2 -5
right_child=4 2 -4 5 -6 -7
leaf_value=-0.020549954503093121 0.013824129081927081 0.1543696961232694 0.020764720690492011 0.01837337775983184 -0.04379322641753601 -0.001908438896461696
leaf_count=2463756 774274 174622 391673 6076187 3778414 9757656
internal_value=0 0.0376359 0.565434 0.0153989 -0.278422 0.063416
internal_count=23416582 18863894 566295 18297599 4552688 15833843
cat_boundaries=0 16 32 48 49
cat_threshold=0 0 0 559648 512 270336 142614528 2109440 16777736 2147483648 32 0 131072 612385024 2656256 131202 8192 0 0 621805568 0 4194304 135266304 2097152 4194304 2147483648 143655012 50860032 272695296 1073758208 1073741825 1170 131072 0 0 369098752 33558529 0 142606336 1053696 4195336 2684354560 142622752 169869312 4194304 16384 1076363265 130 432
shrinkage=0.1


Tree=72
num_leaves=7
num_cat=3
split_feature=10 6 2 6 0 3
split_gain=18296.6 14351.4 13090.4 14174.5 27247.9 17880.3
threshold=5.5000000000000009 1175.5000000000002 0 3564.5000000000005 1 2
decision_type=2 2 5 2 5 5
left_child=2 -2 -1 5 -5 -4
right_child=1 -3 3 4 -6 -7
leaf_value=-0.10445737624574876 -0.044926474961046035 -0.0058354416019169722 -0.020215756968662617 0.12884309667520855 0.0094861320640172494 0.0084840922704035281
leaf_count=327415 3146356 5068114 3005873 314493 725728 10828603
internal_value=0 -0.190097 0.0462628 0.0543535 0.427705 0.0285653
internal_count=23416582 8214470 15202112 14874697 1040221 13834476
cat_boundaries=0 4 8 24
cat_threshold=36 3616547968 69854195 86 2467432589 67371049 262146 536872960 16785408 0 0 621806080 33554561 0 134225920 0 0 2684354560 143655012 33559040 4194304 1073758208 1073743872 1169
shrinkage=0.1


Tree=73
num_leaves=7
num_cat=5
split_feature=2 0 2 6 0 0
split_gain=13514.6 11282.8 10858.2 9608.83 9314.74 8983.62
threshold=0 1 2 124.50000000000001 3 4
decision_type=5 5 5 2 5 5
left_child=5 3 -3 4 -2 -1
right_child=1 2 -4 -5 -6 -7
leaf_value=-0.0472394739724541 -0.035425776828144878 -0.019391629476447819 -0.072170970471978221 -0.010892044560118427 0.062644597460003101 0.0056481105408403521
leaf_count=672268 79128 4136473 1514834 2297756 117388 14598735
internal_value=0 -0.154377 -0.300732 0.0184674 0.387304 0.0445556
internal_count=23416582 8145579 5651307 2494272 196516 15271003
cat_boundaries=0 5 9 14 16 23
cat_threshold=560720513 537139457 8 1 8192 135923241 336024 524544 570429440 2182354250 170017356 20971520 98304 8388608 1049088 262144 2424438896 555946050 537793560 538976520 8388608 1 66560
shrinkage=0.1


Tree=74
num_leaves=7
num_cat=4
split_feature=10 7 0 3 3 0
split_gain=15943.9 17800.6 22510.3 21930.3 18331.7 17948
threshold=11.500000000000002 222.50000000000003 0 1 2 3
decision_type=2 2 5 5 5 5
left_child=1 3 -3 -1 -4 -5
right_child=-2 2 4 5 -6 -7
leaf_value=0.032813327038491553 -0.025190422263217528 -0.103884708734013 -0.021647944593686391 -0.11167013094156508 0.033899721274685032 -0.0064683425678237665
leaf_count=659209 4552519 325090 961271 379488 4482301 12056704
internal_value=0 0.0302268 0.203654 -0.0311972 0.245098 -0.0806551
internal_count=23416582 18864063 5768662 13095401 5443572 12436192
cat_boundaries=0 16 31 47 54
cat_threshold=1082130544 562245702 558368796 35672320 8388608 1 65536 0 0 0 0 0 0 0 0 2 1073872904 0 0 16941056 0 0 2621440 524288 1024 0 0 524288 327680 536870944 32770 1074405376 0 0 592052224 1 4194304 2097152 8192 4195328 0 135266560 528896 268697604 16672 2 132112 3263168560 1433539650 2164267032 2103552 8650752 1 65536
shrinkage=0.1


Tree=75
num_leaves=7
num_cat=4
split_feature=2 10 3 6 3 3
split_gain=12530.7 9752.25 11268.2 10188 9452.88 8134.57
threshold=0 1.5000000000000002 1 1677.5000000000002 2 3
decision_type=5 2 5 2 5 5
left_child=5 2 -2 -4 -3 -1
right_child=1 4 3 -5 -6 -7
leaf_value=-0.02022973399020718 0.027032906066870751 -0.057068700143358214 -0.012663728026644578 0.030497080743958779 -0.010980695075047691 0.014557839291198194
leaf_count=1479737 1340059 1961604 3134476 668923 10597850 4233933
internal_value=0 -0.0629251 0.0381958 -0.0525442 -0.142087 0.106725
internal_count=23416582 17702912 5143458 3803399 12559454 5713670
cat_boundaries=0 5 21 37 53
cat_threshold=556269697 536870912 4104 8193 8192 1074397184 0 0 4325920 131072 262144 2105344 2622464 16778752 0 536871168 0 302317568 604504352 524306 1 18882560 0 0 542114304 37748736 0 1048576 2633728 0 134217728 537919556 4096 306315268 1073741856 526336 1042 1090658312 0 0 608174080 1 262144 1056768 0 16778248 2147483648 324 528896 33554432 1074266114 32784 1169
shrinkage=0.1


Tree=76
num_leaves=7
num_cat=1
split_feature=6 2 6 8 10 10
split_gain=11748 27598.9 16159.7 14737.8 13547.2 12490.2
threshold=137.50000000000003 0 853.50000000000011 1.5000000000000002 4.5000000000000009 13.500000000000002
decision_type=2 5 2 2 2 2
left_child=3 2 4 -1 -2 -4
right_child=1 -3 5 -5 -6 -7
leaf_value=0.050363729879336044 -0.0050891322394657169 -0.053126054098329427 0.017941469961222738 0.0043293817648071328 -0.042557063159166408 -0.013455311754641004
leaf_count=140038 6298658 3268242 6105414 1848847 2614783 3140600
internal_value=0 -0.0434377 -0.00577783 0.152479 -0.112148 0.103155
internal_count=23416582 21427697 18159455 1988885 8913441 9246014
cat_boundaries=0 5
cat_threshold=595584841 537285192 4104 1 8396800
shrinkage=0.1


Tree=77
num_leaves=7
num_cat=5
split_feature=1 3 10 4 3 3
split_gain=12475.9 12297.6 12171.8 13141.9 11685.9 8713.24
threshold=0 1 1.5000000000000002 2 3 4
decision_type=5 5 2 1 5 5
left_child=1 -1 3 -2 -5 -4
right_child=2 -3 5 4 -6 -7
leaf_value=0.027148394205018161 0.024182375158193201 -0.088101264485805145 -0.035130835893729069 0.020179874180801229 -0.016798342486200057 -0.0023857781954669463
leaf_count=283663 2778713 1022806 3126474 750150 2253831 13200945
internal_value=0 -0.525379 0.0170967 0.1151 -0.0231686 -0.050493
internal_count=23416582 1306469 22110113 5782694 3003981 16327419
cat_boundaries=0 121 136 137 153 169
cat_threshold=36 134217728 0 0 0 0 2048 0 0 0 0 0 0 0 0 0 0 0 0 0 0 0 0 0 0 0 0 0 0 0 0 0 0 0 0 0 0 0 0 0 0 0 0 0 0 0 0 0 0 0 0 0 0 0 0 0 0 0 0 0 0 0 0 0 0 0 0 0 0 0 0 0 0 0 0 0 0 0 0 0 0 0 0 0 0 0 0 0 0 0 0 0 0 0 0 0 0 0 0 0 0 0 0 0 0 0 0 0 0 0 0 0 0 0 0 0 0 0 0 0 67108864 1073741832 0 0 33554464 4194816 4202496 524288 8192 16777220 536870912 9437188 167772160 0 16416 2051 752 1090519040 0 0 71434272 135232 0 144711680 529408 20971520 134217728 142606336 2101248 33685504 612368416 32770 1 16785416 0 0 542769152 0 262144 1056768 2625536 4195328 0 537919748 17306112 306315264 32 32768 1040
shrinkage=0.1


Tree=78
num_leaves=7
num_cat=2
split_feature=7 10 2 3 7 10
split_gain=13329.9 14499.6 11704.1 13795.2 12742.4 11201.8
threshold=15696.000000000002 17.500000000000004 0 1 246.50000000000003 112.50000000000001
decision_type=2 2 5 5 2 2
left_child=1 2 4 -4 -1 -2
right_child=5 -3 3 -5 -6 -7
leaf_value=0.00046043959719840064 0.10988493266306301 -0.033256919493937769 -0.065689804679083599 -0.0069479208028568806 0.023652097763227291 -0.0048235270248289256
leaf_count=9316758 194188 2860612 1608656 5995301 3243095 197972
internal_value=0 -0.0106879 0.0137926 -0.134702 0.0598833 0.613377
internal_count=23416582 23024422 20163810 7603957 12559853 392160
cat_boundaries=0 5 21
cat_threshold=2708416649 671090704 8 8193 134225920 2629632 0 0 806912512 33554432 0 1048576 12288 4 134217728 1048576 35656192 4259840 1074266112 536872978 132240
shrinkage=0.1


Tree=79
num_leaves=7
num_cat=5
split_feature=10 4 3 3 3 3
split_gain=12536.8 14548.6 10165.6 10940.7 9719.32 8705.94
threshold=3.5000000000000004 0 1 2 3 4
decision_type=2 1 5 5 5 5
left_child=1 5 -3 -4 -2 -1
right_child=4 2 3 -5 -6 -7
leaf_value=0.013423239900529913 -0.048349636340382404 -0.010693955805177473 0.003225421591801711 0.02501667659352981 -0.0083022506240518958 -0.055943986727334583
leaf_count=188188 3009618 2519968 5216099 3506299 8116463 859947
internal_value=0 0.0466388 0.0752185 0.121905 -0.129961 -0.350634
internal_count=23416582 12290501 11242366 8722398 11126081 1048135
cat_boundaries=0 1 17 33 49 65
cat_threshold=16384 655368 0 0 609222656 37748737 0 135266304 4096 0 2684354560 135282752 33559040 4325376 1074266112 1073741841 1154 18874368 0 0 16779296 131588 4456448 532480 3154944 16777736 0 545259808 17301504 268435456 8388608 539230208 528 2105352 0 0 810680320 0 262144 1056768 524288 20972544 134217728 260 19403264 301989888 16418 536872960 1040 8 0 0 285343776 4 0 11010048 1573888 20972032 0 134234372 512 0 524288 3 1025
shrinkage=0.1


Tree=80
num_leaves=7
num_cat=4
split_feature=0 11 0 2 0 6
split_gain=10548.1 11506.6 12489.1 10726.3 10177.8 9334.73
threshold=0 3401.0000000000005 1 2 3 2472.5000000000005
decision_type=5 2 5 5 5 2
left_child=-1 2 -2 -3 -4 -5
right_child=1 3 4 5 -6 -7
leaf_value=-0.10311937907062321 -0.037806829947086257 -0.10859958022317456 -0.010892179730746738 -0.0040441523821825517 0.075968304069753523 0.015297114585597214
leaf_count=494419 50925 387132 43071 17699051 47105 4694879
internal_value=0 0.00489597 0.352911 -0.0129241 0.541893 -0.00726076
internal_count=23416582 22922163 141101 22781062 90176 22393930
cat_boundaries=0 8 24 28 32
cat_threshold=3229614096 23204930 2705333272 2105728 8650816 8388609 65536 256 0 605110320 1074659333 2056 2097152 1024 8389632 0 1024 0 0 0 0 0 0 2 36 3616539776 69853927 136314966 131072 1350567936 1048578 536891392
shrinkage=0.1


Tree=81
num_leaves=7
num_cat=5
split_feature=1 2 10 3 3 3
split_gain=13054.6 8627.84 8206.78 10549.4 8161.84 7731.41
threshold=0 1 2.5000000000000004 2 3 4
decision_type=5 5 2 5 5 5
left_child=4 -2 3 -3 -1 -4
right_child=1 2 5 -5 -6 -7
leaf_value=0.0046993803143204824 0.012507615770291395 -0.024534945579915972 -0.05153453149340053 0.0085333485042383191 -0.088930347184421998 -0.0086173586320946495
leaf_count=368839 5465188 1509295 1504942 6262986 936935 7368397
internal_value=0 0.0204892 -0.0248042 0.0381045 -0.553582 -0.12745
internal_count=23416582 22110808 16645620 7772281 1305774 8873339
cat_boundaries=0 121 149 165 181 197
cat_threshold=36 134217728 0 0 0 0 0 0 0 0 0 0 0 0 0 0 0 0 0 0 0 0 0 0 0 0 0 0 0 0 0 0 0 0 0 0 0 0 0 0 0 0 0 0 0 0 0 0 0 0 0 0 0 0 0 0 0 0 0 0 0 0 0 0 0 0 0 0 0 0 0 0 0 0 0 0 0 0 0 0 0 0 0 0 0 0 0 0 0 0 0 0 0 0 0 0 0 0 0 0 0 0 0 0 0 0 0 0 0 0 0 0 0 0 0 0 0 0 0 0 67108864 537395328 536877056 8 8193 8192 0 0 0 0 0 0 0 0 0 0 0 0 0 0 0 0 0 0 0 0 0 0 4 18874368 0 0 555221504 37748737 0 0 8192 4 536870912 1065028 36180480 4259840 1073758466 1073743872 1040 1073872896 0 0 301991968 37749249 4202496 524288 787456 16777220 536870912 9437184 167772672 0 16384 526339 131072 18874376 0 0 810680320 4194304 262144 1048576 4096 0 671088640 8388612 17302016 268566532 288 539527170 1040
shrinkage=0.1


Tree=82
num_leaves=7
num_cat=4
split_feature=6 0 1 2 0 11
split_gain=9712.99 11494.7 11002.9 9334.13 9213.42 14406.6
threshold=76072.500000000015 0 1 2 3 3401.0000000000005
decision_type=2 5 5 5 5 2
left_child=2 3 -1 -2 -4 -6
right_child=1 -3 4 -5 5 -7
leaf_value=-0.054974383794489448 0.48512748596375782 0.021105517596153131 -0.05030580270491767 0.12097136880687859 0.045789876555636176 -0.0010950582123085634
leaf_count=1248736 5580 380923 1172357 31068 91952 20485966
internal_value=0 0.506401 -0.0142668 1.57189 -0.00297421 0.00736442
internal_count=23416582 417571 22999011 36648 21750275 20577918
cat_boundaries=0 4 125 127 143
cat_threshold=504499328 16400 3 536870912 36 134234112 0 0 0 0 0 0 0 0 0 0 0 0 0 0 0 0 0 0 0 0 0 0 0 0 0 0 0 0 0 0 0 0 0 0 0 0 0 0 0 0 0 0 0 0 0 0 0 0 0 0 0 0 0 0 0 0 0 0 0 0 0 0 0 0 0 0 0 0 0 0 0 0 0 0 0 0 0 0 0 0 0 0 0 0 0 0 0 0 0 0 0 0 0 0 0 0 0 0 0 0 0 0 0 0 0 0 0 0 0 0 0 0 0 0 0 0 0 0 67108864 209752640 32 10485840 554899558 537789464 2107776 8388608 1 66560 0 0 0 0 0 0 0 0 2
shrinkage=0.1


Tree=83
num_leaves=7
num_cat=5
split_feature=1 3 6 0 3 3
split_gain=8753.53 10338.6 8534.45 17153.2 15604.8 20198.2
threshold=0 1 124.50000000000001 2 3 4
decision_type=5 5 2 5 5 5
left_child=1 -1 4 -4 -2 -6
right_child=2 -3 3 -5 5 -7
leaf_value=0.023079889212544856 -0.045575150362216828 -0.084845657915106537 -0.068471097776113377 -0.00090693836267754016 -0.015331904264569228 0.039872869919581215
leaf_count=314650 317769 991585 970424 19482137 643774 696243
internal_value=0 -0.472004 0.00635318 -0.0267848 0.148211 0.223356
internal_count=23416582 1306235 22110347 20452561 1657786 1340017
cat_boundaries=0 121 137 153 169 185
cat_threshold=36 134234112 0 262144 0 0 0 0 0 0 0 0 0 0 0 0 0 0 0 0 0 0 0 0 0 0 0 0 0 0 0 0 0 0 0 0 0 0 0 0 0 0 0 0 0 0 0 0 0 0 0 0 0 0 0 0 0 0 0 0 0 0 0 0 0 0 0 0 0 0 0 0 0 0 0 0 0 0 0 0 0 0 0 0 0 0 0 0 0 0 0 0 0 0 0 0 0 0 0 0 0 0 0 0 0 0 0 0 0 0 0 0 0 0 0 0 0 0 0 0 67108864 1075838984 0 0 33554464 4194305 4194304 524288 787456 16777220 536870912 9437188 134217728 0 536871200 526338 131072 2424307824 25337876 541852680 572535169 8388608 1 66560 0 0 0 0 0 0 0 0 2 2228224 0 0 335577600 4096 0 1048576 2102272 4194304 2684354560 8388676 35656192 65540 1073741824 1611171856 129 16785416 0 0 575145984 33686145 0 143130624 1056768 524 0 537936128 16777216 301989888 67633152 0 18
shrinkage=0.1


Tree=84
num_leaves=7
num_cat=2
split_feature=2 10 7 2 6 6
split_gain=9447.9 8639.71 14846.6 14612.6 11316.6 9063.55
threshold=0 12.500000000000002 246.50000000000003 1 137.50000000000003 2472.5000000000005
decision_type=5 2 2 5 2 2
left_child=-1 2 4 -4 -2 -3
right_child=1 5 3 -5 -6 -7
leaf_value=-0.087657024740807443 0.012377243534438783 -0.049670554427630027 0.029703275475392067 -0.01693076135433742 -0.0085832237335097209 -0.0041431837063955973
leaf_count=478251 1890296 1656648 3898155 1271500 11669287 2552445
internal_value=0 0.00613924 0.0299756 0.197463 -0.0240867 -0.191084
internal_count=23416582 22938331 18729238 5169655 13559583 4209093
cat_boundaries=0 5 33
cat_threshold=36 3617587328 69846003 136314966 1024 2464130824 200968 8 1 8192 0 0 0 0 0 0 0 0 0 0 0 0 0 0 0 0 0 0 0 0 0 0 4
shrinkage=0.1


Tree=85
num_leaves=7
num_cat=6
split_feature=4 0 3 2 3 3
split_gain=8419.23 11370 11109.5 9902.55 8204.06 7439.84
threshold=0 1 2 3 4 5
decision_type=1 5 5 5 5 5
left_child=2 -2 -1 5 -5 -3
right_child=1 3 -4 4 -6 -7
leaf_value=0.045739046295080382 0.0035141569436076209 -0.044513572273456412 0.0043610780501767222 -0.076639799172996986 -0.023875773856984622 -0.00032936317616755412
leaf_count=861928 8285677 1141083 5999741 1301456 2484966 3341731
internal_value=0 -0.0483375 0.0979386 -0.155073 -0.334112 -0.0563064
internal_count=23416582 16554913 6861669 8269236 3786422 4482814
cat_boundaries=0 1 5 21 26 42 58
cat_threshold=176 155976205 67117192 524545 570441729 1075970056 0 0 2416083456 512 4194304 0 262144 1536 2147483648 537919552 2097152 4653060 536887296 557057 131202 3106416793 537139805 4194312 8193 8192 1076363264 0 0 587204608 5 4202496 1048576 262400 520 134217728 1048896 524800 272826368 1082147072 0 131074 1074405376 0 0 557844480 37749440 4194304 8192 2097408 20972544 0 135266368 524288 4194304 1073742112 524288 131216
shrinkage=0.1


Tree=86
num_leaves=7
num_cat=5
split_feature=4 3 3 3 6 2
split_gain=8370.25 13624 10909.9 10769.7 7412.15 8212.65
threshold=0 1 2 3 76072.500000000015 4
decision_type=1 5 5 5 2 5
left_child=1 -1 -2 -3 5 -4
right_child=2 3 4 -5 -6 -7
leaf_value=-0.013158351547928944 -0.037922938995583529 0.0050043976859971868 0.00062276729663624452 0.031746491271920474 0.051512227428454738 -0.024123220529460865
leaf_count=3658032 2642646 4702174 6278726 2517843 234474 3382687
internal_value=0 0.0673004 -0.0673367 0.141892 -0.0296718 -0.0460909
internal_count=23416582 10878049 12538533 7220017 9895887 9661413
cat_boundaries=0 1 17 33 49 54
cat_threshold=496 16785408 0 0 554174464 4194432 8192 9437184 12288 16777216 0 134218052 153096704 268435456 1140850688 32770 1553 18874376 0 0 810549760 1 0 0 2105344 20973056 134217728 1048900 34082816 4194304 536871200 536870912 132114 524288 0 0 105906208 33686080 262144 2105344 3671296 512 0 545275904 0 33554432 8912898 1076103184 131072 560882305 671354976 4104 8192 8192
shrinkage=0.1


Tree=87
num_leaves=7
num_cat=3
split_feature=6 0 0 0 11 9
split_gain=10461.7 9158.88 7392.7 9841.52 18573.2 4925.07
threshold=76072.500000000015 0 1 2 3401.0000000000005 575.50000000000011
decision_type=2 5 5 5 2 2
left_child=2 5 -1 -4 -5 -2
right_child=1 -3 3 4 -6 -7
leaf_value=-0.0982172053917343 0.17475293974776168 0.019776869459657273 -0.01756053562910586 0.058352394705999025 0.00032694305779108686 0.036460862899082618
leaf_count=486439 32458 330601 6333288 74194 16105703 53899
internal_value=0 0.517917 -0.0113657 -0.00714793 0.0253499 1.26855
internal_count=23416582 416958 22999624 22513185 16179897 86357
cat_boundaries=0 4 12 28
cat_threshold=389418112 18448 3 536872960 1082130448 560075842 2701137946 2105608 8650752 8389633 8454144 256 3055562946 1418790948 1078591492 536872960 2097216 0 1024 0 1024 0 0 0 0 0 0 2
shrinkage=0.1


Tree=88
num_leaves=7
num_cat=4
split_feature=4 6 3 7 3 3
split_gain=7007.51 14139.7 11409.4 10852.6 17459.9 15371.9
threshold=0 186.50000000000003 1 128.50000000000003 2 3
decision_type=1 2 5 2 5 5
left_child=1 -1 -3 5 -5 -2
right_child=3 2 -4 4 -6 -7
leaf_value=0.034706892855941696 -0.056285984095718139 -0.02785950247909065 0.0075981678039596075 -0.035749886975467014 0.013798088983166024 -0.0078703692577330227
leaf_count=827797 1388250 2210323 5590373 2261160 6184989 4953690
internal_value=0 0.0786234 0.00659183 -0.0474305 0.0574609 -0.140547
internal_count=23416582 8628493 7800696 14788089 8446149 6341940
cat_boundaries=0 1 17 33 49
cat_threshold=432 16785416 0 0 557973504 4194432 262144 3153920 528384 16777216 2147483648 135266564 134222336 33554432 1141375008 2 1040 1090519048 0 0 558497824 0 4456448 2105344 2097152 16778240 134217728 1048900 528384 272629764 536870912 2 132114 2228224 0 0 872448512 4097 0 1572864 2097152 4194828 536870912 537919808 33554944 4325376 1073741858 1073741840 131200
shrinkage=0.1


Tree=89
num_leaves=7
num_cat=3
split_feature=10 0 8 0 6 2
split_gain=9331.55 7975.71 10460.2 15578.9 14013.4 8953.75
threshold=1.5000000000000002 0 1.5000000000000002 1 95.500000000000014 2
decision_type=2 5 2 5 2 5
left_child=1 5 4 -4 -3 -1
right_child=-2 2 3 -5 -6 -7
leaf_value=0.023859263531912468 -0.0053705898224563368 0.073873530330164555 -0.61810811661469489 -0.0080414706954102643 -0.023116428424134763 -0.033159433033726135
leaf_count=2019144 17343341 43504 3111 3357445 184171 465866
internal_value=0 0.0912216 -0.013006 -0.0887208 0.359743 0.193461
internal_count=23416582 6073241 3588231 3360556 227675 2485010
cat_boundaries=0 3 5 33
cat_threshold=34374413 278664 1048832 0 8192 872413003 537137736 0 1 134217728 0 0 0 0 0 0 0 0 0 0 0 0 0 0 0 0 0 0 0 0 0 0 4
shrinkage=0.1


Tree=90
num_leaves=7
num_cat=5
split_feature=4 3 3 7 3 3
split_gain=7503.74 9368.04 6997.77 5576.41 5544.81 4988.87
threshold=0 1 2 15696.000000000002 3 4
decision_type=1 5 5 2 5 5
left_child=1 -1 -2 5 -5 -4
right_child=2 -3 3 4 -6 -7
leaf_value=0.00093247232952441313 -0.011064379094764883 -0.051814798563306244 -0.0016933564473818278 0.11994171342067293 0.014019613653542415 0.011170906365209628
leaf_count=883785 5925577 1284621 8665882 109422 121752 6425543
internal_value=0 -0.239774 0.00510667 0.040772 0.554916 0.0324022
internal_count=23416582 2168406 21248176 15322599 231174 15091425
cat_boundaries=0 1 17 33 49 65
cat_threshold=16384 0 0 0 2164426784 68 0 136847360 1836032 4194304 0 135282688 512 33554432 540672 1610876945 513 0 0 0 911736832 4198400 0 1581056 2621440 16777216 671088640 135266596 4608 272760832 256 1074003968 1536 524288 0 0 2592 192 0 0 4096 520 0 64 33554432 33554432 536870912 538970128 19 2621448 0 0 2080 131200 270336 134217728 1057024 8 2147483648 8405056 50331648 4 545259552 536872977 147
shrinkage=0.1


Tree=91
num_leaves=7
num_cat=3
split_feature=10 6 0 0 2 6
split_gain=7477.17 10593 22950.7 11897.6 10254.6 9843.72
threshold=9.5000000000000018 3209.5000000000005 0 1 2 3209.5000000000005
decision_type=2 2 5 5 5 2
left_child=1 3 -3 -1 -5 -2
right_child=5 2 -4 4 -6 -7
leaf_value=0.006089839798663183 -0.038221224904004203 0.090176967833620392 0.001539751085316645 -0.0035768935547705705 -0.037959730869191341 0.0017926537699466259
leaf_count=10318093 2718661 517089 1203041 3601723 2431224 2626751
internal_value=0 0.0289104 0.297112 0.00397037 -0.140268 -0.157249
internal_count=23416582 18071170 1720130 16351040 6032947 5345412
cat_boundaries=0 7 16 20
cat_threshold=2434009225 1409581097 1074003970 536889344 0 0 1024 88901423 24716 256 33570944 64 0 0 0 1024 2738365961 136775788 4198408 40961
shrinkage=0.1


Tree=92
num_leaves=7
num_cat=2
split_feature=10 7 0 0 7 10
split_gain=7026.03 8961.27 13544.2 7630.59 6511.76 7156.19
threshold=1.5000000000000002 120.50000000000001 0 1 15696.000000000002 97.500000000000014
decision_type=2 2 5 5 2 2
left_child=1 -1 -3 -4 -2 -6
right_child=4 2 3 -5 5 -7
leaf_value=-0.00099797680713382226 -0.007106450595240202 -0.083545443186304816 -0.00098043982994455779 0.038397313088456453 0.080580765501492152 -0.011094844656435968
leaf_count=3687439 16956014 178597 441578 1765306 176739 210909
internal_value=0 0.0690081 0.221612 0.272127 -0.0571303 0.372553
internal_count=23416582 6072920 2385481 2206884 17343662 387648
cat_boundaries=0 16 23
cat_threshold=8519728 562213062 2705850396 35672448 0 1 65536 0 0 0 0 0 0 0 0 2 1678251072 73485344 1187074 536879113 10747904 8388608 8389632
shrinkage=0.1


Tree=93
num_leaves=7
num_cat=3
split_feature=0 10 6 0 0 6
split_gain=7439.92 6157.14 11160.1 17441.6 12964 7643.22
threshold=0 18.500000000000004 3209.5000000000005 1 2 2472.5000000000005
decision_type=5 2 2 5 5 2
left_child=-1 2 4 -4 -2 -3
right_child=1 5 3 -5 -6 -7
leaf_value=-0.10366203088901289 -0.020391761407764809 -0.064178985761506629 -0.013097606571406682 0.052380587989562133 0.0039030300957716016 -0.007266411780046971
leaf_count=522965 2702998 880583 1004735 1213182 14978285 2113834
internal_value=0 0.00684581 0.0235957 0.266193 -0.00368796 -0.194421
internal_count=23416582 22893617 19899200 2217917 17681283 2994417
cat_boundaries=0 8 17 33
cat_threshold=1082130448 23204930 3774879768 2105608 8650816 8389633 8454144 256 206091622 545333380 5899524 33558656 2097152 0 0 0 1024 2989623490 1947568176 917510 2176 2097152 0 1024 0 0 0 0 0 0 0 0 2
shrinkage=0.1


Tree=94
num_leaves=7
num_cat=4
split_feature=6 3 3 0 0 6
split_gain=7048.49 17945.8 17009.6 11950.8 11924.2 11026
threshold=137.50000000000003 0 1 2 3 788.50000000000011
decision_type=2 5 5 5 5 2
left_child=1 -1 -3 -2 -4 -5
right_child=3 2 4 5 -6 -7
leaf_value=-0.033391136502384407 -0.077881246259425649 -0.0067097556318072493 0.011297028084478954 -0.010414675546773106 0.062943590546886238 0.0070565674063897514
leaf_count=560677 504692 736177 282304 9698159 409011 11225562
internal_value=0 0.130732 0.235437 -0.0239006 0.422217 -0.0131172
internal_count=23416582 1988169 1427492 21428413 691315 20923721
cat_boundaries=0 16 32 39 46
cat_threshold=131072 0 0 68190720 135168 0 1048576 13312 4194824 536870912 8405056 35651584 196612 1073741824 537430032 19 2097152 0 0 2735212544 33555073 0 143138816 3145984 4 0 135266560 17301504 33816576 67633408 1073741824 640 2155872304 21106758 2705852700 572535168 8388608 8388609 65536 28861075 85346320 1310722 2119936 0 1 66560
shrinkage=0.1


Tree=95
num_leaves=7
num_cat=6
split_feature=3 1 0 0 3 3
split_gain=6251.01 6155.43 7997.54 6320.44 9072.01 5289.87
threshold=0 1 2 3 4 5
decision_type=5 5 5 5 5 5
left_child=-1 2 -2 4 -3 -5
right_child=1 3 -4 5 -6 -7
leaf_value=-0.012832579111797891 -0.097904237445178011 0.0018042028314598771 0.0042839356598802078 -0.017421209565649323 0.027230062602250804 0.0020963211272897091
leaf_count=5670417 609260 4205032 365417 2760007 2639578 7166871
internal_value=0 0.0273034 -0.413805 0.0364897 0.116814 -0.0163898
internal_count=23416582 17746165 974677 16771488 6844610 9926878
cat_boundaries=0 16 137 143 147 163 179
cat_threshold=16777224 0 0 860881408 512 0 143663104 12288 16777216 671088640 1048612 17305600 4259840 524288 1073741824 132112 36 16384 0 0 0 0 256 0 0 0 0 0 0 0 0 0 0 0 0 0 0 0 0 0 0 0 0 0 0 0 0 0 0 0 0 0 0 0 0 0 0 0 0 0 0 0 0 0 0 0 0 0 0 0 0 0 0 0 0 0 0 0 0 0 0 0 0 0 0 0 0 0 0 0 0 0 0 0 0 0 0 0 0 0 0 0 0 0 0 0 0 0 0 0 0 0 0 0 0 0 0 0 0 0 0 0 0 0 0 0 0 0 0 0 0 0 0 0 0 0 67108864 117486454 1154486466 2147485726 6144 0 8388609 22054412 8201 1073743108 16512 1074266112 0 0 2148040704 135236 8192 524288 1573888 4 0 134234112 0 268435460 67125280 539230209 515 1075838976 0 0 2048 0 4194304 0 256 8 0 0 33554432 33554432 1073741856 538968080 1
shrinkage=0.1


Tree=96
num_leaves=7
num_cat=5
split_feature=2 3 11 0 0 0
split_gain=9860.5 9961.18 8334 7720.02 6112 6057.17
threshold=0 1 8071.5000000000009 2 3 4
decision_type=5 5 2 5 5 5
left_child=4 5 3 -3 -1 -2
right_child=1 2 -4 -5 -6 -7
leaf_value=-0.051555235277836731 0.00066347439017182177 -0.11033302104820469 -0.0078499236715931474 0.050957809266224389 0.0068903672588133888 -0.057131389895337718
leaf_count=335480 527609 105289 8105290 91808 11935785 2315321
internal_value=0 -0.0928232 -0.0451421 0.385456 0.0597183 -0.405202
internal_count=23416582 11145317 8302387 197097 12271265 2842930
cat_boundaries=0 4 20 28 35 38
cat_threshold=558375104 537001984 8 1 2105344 0 0 840434176 33554560 0 1056768 2363392 8 671088640 1048672 33558528 4325376 0 2131984 131202 1073741840 274863171 3775141912 2107648 8650816 8388609 8454144 256 8519728 621279232 1610612744 538980608 8388608 1 65536 554958856 25 263169
shrinkage=0.1


Tree=97
num_leaves=7
num_cat=4
split_feature=2 0 0 11 8 0
split_gain=8522.4 8944.43 8854.18 8168.78 5763.1 5634.89
threshold=0 1 2 3401.0000000000005 8.5000000000000018 3
decision_type=5 5 5 2 2 5
left_child=2 4 -1 -4 -2 -3
right_child=1 5 3 -5 -6 -7
leaf_value=-0.048013826299200923 0.079812589622908922 -0.1006140728155919 0.044641978988842895 0.0029305638422692684 -0.044544672851557887 -0.016904045356651912
leaf_count=585417 21915 429296 58570 16352313 59038 5910033
internal_value=0 -0.1486 0.0315748 0.0430993 0.494856 -0.192288
internal_count=23416582 6420282 16996300 16410883 80953 6339329
cat_boundaries=0 5 9 16 23
cat_threshold=829400001 537137152 8 8193 8192 134217761 40968 524288 536875008 276955184 554154066 541852680 538982656 8388608 1 65536 2160074832 1964003430 1627389978 2107393 8388608 8388609 1024
shrinkage=0.1


Tree=98
num_leaves=7
num_cat=4
split_feature=0 3 1 6 0 6
split_gain=4966.8 4998.52 4576.54 4564.39 3180.86 4310.72
threshold=0 1 2 40.500000000000007 3 2472.5000000000005
decision_type=5 5 5 2 5 2
left_child=-1 4 -3 -4 -2 -6
right_child=1 2 3 -5 5 -7
leaf_value=0.073429575614002249 -0.033679007018616605 -0.14548506899405614 0.017247302898915844 -0.00015994491897749534 -0.01350906625249252 0.031585176319589812
leaf_count=5954 2194721 78398 410516 18358508 1928152 440333
internal_value=0 -0.0053216 0.015109 0.0170868 -0.140319 -0.0723484
internal_count=23416582 23410628 18847422 18769024 4563206 2368485
cat_boundaries=0 2 18 139 143
cat_threshold=0 8 18882568 0 0 571506688 0 4194304 1056768 4096 20971524 536870912 1048900 16781824 272826368 1073741824 1073741825 132096 32 0 0 0 0 0 0 0 0 0 0 0 0 0 0 0 0 0 0 0 0 0 0 0 0 0 0 0 0 0 0 0 0 0 0 0 0 0 0 0 0 0 0 0 0 0 0 0 0 0 0 0 0 0 0 0 0 0 0 0 0 0 0 0 0 0 0 0 0 0 0 0 0 0 0 0 0 0 0 0 0 0 0 0 0 0 0 0 0 0 0 0 0 0 0 0 0 0 0 0 0 0 0 0 0 0 0 0 0 0 0 0 0 0 0 0 0 0 0 0 67108864 335730758 822083616 1026 128
shrinkage=0.1


Tree=99
num_leaves=7
num_cat=6
split_feature=2 2 3 3 0 3
split_gain=8003.32 4896.11 6558 6853.05 4493.91 4321.62
threshold=0 1 2 3 4 5
decision_type=5 5 5 5 5 5
left_child=-1 2 -2 -4 -3 -6
right_child=1 4 3 -5 5 -7
leaf_value=-0.10602151143904089 -0.10247040311178574 0.07593584081786614 -0.048625611167045682 0.0039181493249567647 -0.0086280948734366453 0.0038934930441492026
leaf_count=338170 498106 5525 1151647 1331339 4428416 15663379
internal_value=0 0.00244444 -0.189434 -0.126037 0.0165534 0.0129622
internal_count=23416582 23078412 2981092 2482986 20097320 20091795
cat_boundaries=0 5 33 49 65 69 85
cat_threshold=36 3514827904 69854195 2162774 1536 2625673234 104292376 20976644 134250496 8396832 0 0 0 0 0 0 0 0 0 0 0 0 0 0 0 0 0 0 0 0 0 0 4 17440768 0 0 806387712 33558528 262144 142606336 262144 0 134217728 536871172 2101248 131076 1074266146 32784 131218 2097152 0 0 117442560 4194372 8192 532480 3682304 4 536870912 16384 167772672 0 612368640 538968067 1025 0 8 0 16384 18882568 0 0 542638080 0 4194304 134225920 9216 20972548 671088640 134217732 528896 272629760 16384 1076101120 1152
shrinkage=0.1


Tree=100
num_leaves=7
num_cat=5
split_feature=2 0 6 0 2 0
split_gain=6134.28 8684.64 6516.31 11921 8301.5 6599.04
threshold=0 1 40.500000000000007 2 3 4
decision_type=5 5 2 5 5 5
left_child=1 -1 3 -2 -4 -6
right_child=2 -3 4 -5 5 -7
leaf_value=-0.081865638315766931 0.047138754307401269 0.0045783145510907243 -0.0067938795082223878 -0.026536846527515534 0.055624914240813395 -0.046330956849352227
leaf_count=295786 87468 12508083 7141347 169966 12361 3201571
internal_value=0 0.0374034 -0.0860454 0.161924 -0.129625 -0.392032
